<MethodSetup Method="BDT::BDT"><GeneralInfo><Info name="Creator" value="Koza4ok (TskMVA)" /><Info name="AnalysisType" value="Classification" /></GeneralInfo><Options><Option modified="No" name="NodePurityLimit">0.5</Option></Options><Weights AnalysisType="0" NTrees="200"><BinaryTree boostWeight="1.5161241894" itree="0" type="DecisionTree"><Node Cut="0.126172617078" IVar="5" NCoef="0" cType="1" depth="0" nType="0" pos="s" purity="0.0e+00" res="0.0e+01" rms="0.0e+00"><Node Cut="0.071191906929" IVar="4" NCoef="0" cType="1" depth="1" nType="0" pos="l" purity="0.0e+00" res="0.0e+01" rms="0.0e+00"><Node Cut="15.7838554382" IVar="0" NCoef="0" cType="1" depth="2" nType="0" pos="l" purity="0.0e+00" res="0.0e+01" rms="0.0e+00"><Node Cut="0.0e+00" IVar="-1" NCoef="0" cType="1" depth="3" nType="1" pos="l" purity="0.921474604879" res="0.0e+01" rms="0.0e+00" /><Node Cut="20.8457450867" IVar="0" NCoef="0" cType="1" depth="3" nType="0" pos="r" purity="0.0e+00" res="0.0e+01" rms="0.0e+00"><Node Cut="0.0e+00" IVar="-1" NCoef="0" cType="1" depth="4" nType="1" pos="l" purity="0.975556431669" res="0.0e+01" rms="0.0e+00" /><Node Cut="0.0286540165544" IVar="4" NCoef="0" cType="1" depth="4" nType="0" pos="r" purity="0.0e+00" res="0.0e+01" rms="0.0e+00"><Node Cut="27.2082653046" IVar="0" NCoef="0" cType="1" depth="5" nType="0" pos="l" purity="0.0e+00" res="0.0e+01" rms="0.0e+00"><Node Cut="0.0e+00" IVar="-1" NCoef="0" cType="1" depth="6" nType="1" pos="l" purity="0.9958815799" res="0.0e+01" rms="0.0e+00" /><Node Cut="0.0e+00" IVar="-1" NCoef="0" cType="1" depth="6" nType="1" pos="r" purity="0.999700950922" res="0.0e+01" rms="0.0e+00" /></Node><Node Cut="0.0e+00" IVar="-1" NCoef="0" cType="1" depth="5" nType="1" pos="r" purity="0.986008855481" res="0.0e+01" rms="0.0e+00" /></Node></Node></Node><Node Cut="0.0e+00" IVar="-1" NCoef="0" cType="1" depth="2" nType="1" pos="r" purity="0.687257792483" res="0.0e+01" rms="0.0e+00" /></Node><Node Cut="0.396070599556" IVar="5" NCoef="0" cType="1" depth="1" nType="0" pos="r" purity="0.0e+00" res="0.0e+01" rms="0.0e+00"><Node Cut="0.0e+00" IVar="-1" NCoef="0" cType="1" depth="2" nType="-1" pos="l" purity="0.271205629962" res="0.0e+01" rms="0.0e+00" /><Node Cut="2.02913355827" IVar="2" NCoef="0" cType="1" depth="2" nType="0" pos="r" purity="0.0e+00" res="0.0e+01" rms="0.0e+00"><Node Cut="-1.31628918648" IVar="2" NCoef="0" cType="1" depth="3" nType="0" pos="l" purity="0.0e+00" res="0.0e+01" rms="0.0e+00"><Node Cut="0.0e+00" IVar="-1" NCoef="0" cType="1" depth="4" nType="-1" pos="l" purity="0.00977690288716" res="0.0e+01" rms="0.0e+00" /><Node Cut="0.0e+00" IVar="-1" NCoef="0" cType="1" depth="4" nType="-1" pos="r" purity="0.175775480059" res="0.0e+01" rms="0.0e+00" /></Node><Node Cut="0.0e+00" IVar="-1" NCoef="0" cType="1" depth="3" nType="-1" pos="r" purity="0.00521148843674" res="0.0e+01" rms="0.0e+00" /></Node></Node></Node></BinaryTree><BinaryTree boostWeight="1.05210108272" itree="1" type="DecisionTree"><Node Cut="0.0955734401941" IVar="4" NCoef="0" cType="1" depth="0" nType="0" pos="s" purity="0.0e+00" res="0.0e+01" rms="0.0e+00"><Node Cut="17.3301849365" IVar="0" NCoef="0" cType="1" depth="1" nType="0" pos="l" purity="0.0e+00" res="0.0e+01" rms="0.0e+00"><Node Cut="0.0e+00" IVar="-1" NCoef="0" cType="1" depth="2" nType="1" pos="l" purity="0.712062592923" res="0.0e+01" rms="0.0e+00" /><Node Cut="0.0378343909979" IVar="4" NCoef="0" cType="1" depth="2" nType="0" pos="r" purity="0.0e+00" res="0.0e+01" rms="0.0e+00"><Node Cut="23.2736930847" IVar="0" NCoef="0" cType="1" depth="3" nType="0" pos="l" purity="0.0e+00" res="0.0e+01" rms="0.0e+00"><Node Cut="0.0e+00" IVar="-1" NCoef="0" cType="1" depth="4" nType="1" pos="l" purity="0.944898243155" res="0.0e+01" rms="0.0e+00" /><Node Cut="0.0190673619509" IVar="4" NCoef="0" cType="1" depth="4" nType="0" pos="r" purity="0.0e+00" res="0.0e+01" rms="0.0e+00"><Node Cut="28.977766037" IVar="0" NCoef="0" cType="1" depth="5" nType="0" pos="l" purity="0.0e+00" res="0.0e+01" rms="0.0e+00"><Node Cut="0.0e+00" IVar="-1" NCoef="0" cType="1" depth="6" nType="1" pos="l" purity="0.988770425263" res="0.0e+01" rms="0.0e+00" /><Node Cut="0.0e+00" IVar="-1" NCoef="0" cType="1" depth="6" nType="1" pos="r" purity="0.999086499364" res="0.0e+01" rms="0.0e+00" /></Node><Node Cut="0.0e+00" IVar="-1" NCoef="0" cType="1" depth="5" nType="1" pos="r" purity="0.979964272655" res="0.0e+01" rms="0.0e+00" /></Node></Node><Node Cut="0.0e+00" IVar="-1" NCoef="0" cType="1" depth="3" nType="1" pos="r" purity="0.84318214343" res="0.0e+01" rms="0.0e+00" /></Node></Node><Node Cut="2.02941465378" IVar="2" NCoef="0" cType="1" depth="1" nType="0" pos="r" purity="0.0e+00" res="0.0e+01" rms="0.0e+00"><Node Cut="-1.48227715492" IVar="2" NCoef="0" cType="1" depth="2" nType="0" pos="l" purity="0.0e+00" res="0.0e+01" rms="0.0e+00"><Node Cut="0.0e+00" IVar="-1" NCoef="0" cType="1" depth="3" nType="-1" pos="l" purity="0.0489631959642" res="0.0e+01" rms="0.0e+00" /><Node Cut="0.0e+00" IVar="-1" NCoef="0" cType="1" depth="3" nType="1" pos="r" purity="0.556048201464" res="0.0e+01" rms="0.0e+00" /></Node><Node Cut="0.0e+00" IVar="-1" NCoef="0" cType="1" depth="2" nType="-1" pos="r" purity="0.0336651466478" res="0.0e+01" rms="0.0e+00" /></Node></Node></BinaryTree><BinaryTree boostWeight="0.79582479932" itree="2" type="DecisionTree"><Node Cut="0.0537869893014" IVar="4" NCoef="0" cType="1" depth="0" nType="0" pos="s" purity="0.0e+00" res="0.0e+01" rms="0.0e+00"><Node Cut="17.4683055878" IVar="0" NCoef="0" cType="1" depth="1" nType="0" pos="l" purity="0.0e+00" res="0.0e+01" rms="0.0e+00"><Node Cut="0.0e+00" IVar="-1" NCoef="0" cType="1" depth="2" nType="1" pos="l" purity="0.532882521516" res="0.0e+01" rms="0.0e+00" /><Node Cut="0.0108745452017" IVar="5" NCoef="0" cType="1" depth="2" nType="0" pos="r" purity="0.0e+00" res="0.0e+01" rms="0.0e+00"><Node Cut="22.6277313232" IVar="0" NCoef="0" cType="1" depth="3" nType="0" pos="l" purity="0.0e+00" res="0.0e+01" rms="0.0e+00"><Node Cut="0.0e+00" IVar="-1" NCoef="0" cType="1" depth="4" nType="1" pos="l" purity="0.895695530867" res="0.0e+01" rms="0.0e+00" /><Node Cut="0.0216227434576" IVar="4" NCoef="0" cType="1" depth="4" nType="0" pos="r" purity="0.0e+00" res="0.0e+01" rms="0.0e+00"><Node Cut="28.977766037" IVar="0" NCoef="0" cType="1" depth="5" nType="0" pos="l" purity="0.0e+00" res="0.0e+01" rms="0.0e+00"><Node Cut="0.0e+00" IVar="-1" NCoef="0" cType="1" depth="6" nType="1" pos="l" purity="0.987049752102" res="0.0e+01" rms="0.0e+00" /><Node Cut="0.0e+00" IVar="-1" NCoef="0" cType="1" depth="6" nType="1" pos="r" purity="0.999371624152" res="0.0e+01" rms="0.0e+00" /></Node><Node Cut="0.0e+00" IVar="-1" NCoef="0" cType="1" depth="5" nType="1" pos="r" purity="0.965168315605" res="0.0e+01" rms="0.0e+00" /></Node></Node><Node Cut="0.0e+00" IVar="-1" NCoef="0" cType="1" depth="3" nType="1" pos="r" purity="0.797992114629" res="0.0e+01" rms="0.0e+00" /></Node></Node><Node Cut="0.209417670965" IVar="4" NCoef="0" cType="1" depth="1" nType="0" pos="r" purity="0.0e+00" res="0.0e+01" rms="0.0e+00"><Node Cut="0.0e+00" IVar="-1" NCoef="0" cType="1" depth="2" nType="-1" pos="l" purity="0.411031752498" res="0.0e+01" rms="0.0e+00" /><Node Cut="25.2562026978" IVar="0" NCoef="0" cType="1" depth="2" nType="0" pos="r" purity="0.0e+00" res="0.0e+01" rms="0.0e+00"><Node Cut="-3.93745803833" IVar="2" NCoef="0" cType="1" depth="3" nType="0" pos="l" purity="0.0e+00" res="0.0e+01" rms="0.0e+00"><Node Cut="0.0e+00" IVar="-1" NCoef="0" cType="1" depth="4" nType="-1" pos="l" purity="0.0337484482891" res="0.0e+01" rms="0.0e+00" /><Node Cut="1.24762558937" IVar="2" NCoef="0" cType="1" depth="4" nType="0" pos="r" purity="0.0e+00" res="0.0e+01" rms="0.0e+00"><Node Cut="0.0e+00" IVar="-1" NCoef="0" cType="1" depth="5" nType="-1" pos="l" purity="0.193055957871" res="0.0e+01" rms="0.0e+00" /><Node Cut="0.0e+00" IVar="-1" NCoef="0" cType="1" depth="5" nType="-1" pos="r" purity="0.0623503358029" res="0.0e+01" rms="0.0e+00" /></Node></Node><Node Cut="0.0e+00" IVar="-1" NCoef="0" cType="1" depth="3" nType="-1" pos="r" purity="0.302047763771" res="0.0e+01" rms="0.0e+00" /></Node></Node></Node></BinaryTree><BinaryTree boostWeight="0.620962469188" itree="3" type="DecisionTree"><Node Cut="24.0878047943" IVar="0" NCoef="0" cType="1" depth="0" nType="0" pos="s" purity="0.0e+00" res="0.0e+01" rms="0.0e+00"><Node Cut="0.215383514762" IVar="4" NCoef="0" cType="1" depth="1" nType="0" pos="l" purity="0.0e+00" res="0.0e+01" rms="0.0e+00"><Node Cut="15.785405159" IVar="0" NCoef="0" cType="1" depth="2" nType="0" pos="l" purity="0.0e+00" res="0.0e+01" rms="0.0e+00"><Node Cut="0.0e+00" IVar="-1" NCoef="0" cType="1" depth="3" nType="-1" pos="l" purity="0.35151698271" res="0.0e+01" rms="0.0e+00" /><Node Cut="0.0144180497155" IVar="4" NCoef="0" cType="1" depth="3" nType="0" pos="r" purity="0.0e+00" res="0.0e+01" rms="0.0e+00"><Node Cut="0.0e+00" IVar="-1" NCoef="0" cType="1" depth="4" nType="1" pos="l" purity="0.778200259937" res="0.0e+01" rms="0.0e+00" /><Node Cut="0.0e+00" IVar="-1" NCoef="0" cType="1" depth="4" nType="1" pos="r" purity="0.539935121719" res="0.0e+01" rms="0.0e+00" /></Node></Node><Node Cut="3.49201393127" IVar="2" NCoef="0" cType="1" depth="2" nType="0" pos="r" purity="0.0e+00" res="0.0e+01" rms="0.0e+00"><Node Cut="-3.41281080246" IVar="2" NCoef="0" cType="1" depth="3" nType="0" pos="l" purity="0.0e+00" res="0.0e+01" rms="0.0e+00"><Node Cut="0.0e+00" IVar="-1" NCoef="0" cType="1" depth="4" nType="-1" pos="l" purity="0.077006859187" res="0.0e+01" rms="0.0e+00" /><Node Cut="0.0e+00" IVar="-1" NCoef="0" cType="1" depth="4" nType="-1" pos="r" purity="0.316323284555" res="0.0e+01" rms="0.0e+00" /></Node><Node Cut="0.0e+00" IVar="-1" NCoef="0" cType="1" depth="3" nType="-1" pos="r" purity="0.0769118922836" res="0.0e+01" rms="0.0e+00" /></Node></Node><Node Cut="0.0421861931682" IVar="5" NCoef="0" cType="1" depth="1" nType="0" pos="r" purity="0.0e+00" res="0.0e+01" rms="0.0e+00"><Node Cut="0.02941275388" IVar="4" NCoef="0" cType="1" depth="2" nType="0" pos="l" purity="0.0e+00" res="0.0e+01" rms="0.0e+00"><Node Cut="31.60064888" IVar="0" NCoef="0" cType="1" depth="3" nType="0" pos="l" purity="0.0e+00" res="0.0e+01" rms="0.0e+00"><Node Cut="0.0e+00" IVar="-1" NCoef="0" cType="1" depth="4" nType="1" pos="l" purity="0.973953171502" res="0.0e+01" rms="0.0e+00" /><Node Cut="0.014219969511" IVar="4" NCoef="0" cType="1" depth="4" nType="0" pos="r" purity="0.0e+00" res="0.0e+01" rms="0.0e+00"><Node Cut="39.7882843018" IVar="0" NCoef="0" cType="1" depth="5" nType="0" pos="l" purity="0.0e+00" res="0.0e+01" rms="0.0e+00"><Node Cut="0.0e+00" IVar="-1" NCoef="0" cType="1" depth="6" nType="1" pos="l" purity="0.996297851754" res="0.0e+01" rms="0.0e+00" /><Node Cut="0.0e+00" IVar="-1" NCoef="0" cType="1" depth="6" nType="1" pos="r" purity="0.999940863638" res="0.0e+01" rms="0.0e+00" /></Node><Node Cut="0.0e+00" IVar="-1" NCoef="0" cType="1" depth="5" nType="1" pos="r" purity="0.992243466245" res="0.0e+01" rms="0.0e+00" /></Node></Node><Node Cut="0.0e+00" IVar="-1" NCoef="0" cType="1" depth="3" nType="1" pos="r" purity="0.85556376268" res="0.0e+01" rms="0.0e+00" /></Node><Node Cut="0.485902249813" IVar="5" NCoef="0" cType="1" depth="2" nType="0" pos="r" purity="0.0e+00" res="0.0e+01" rms="0.0e+00"><Node Cut="0.0e+00" IVar="-1" NCoef="0" cType="1" depth="3" nType="1" pos="l" purity="0.627573668141" res="0.0e+01" rms="0.0e+00" /><Node Cut="0.0e+00" IVar="-1" NCoef="0" cType="1" depth="3" nType="-1" pos="r" purity="0.443456714834" res="0.0e+01" rms="0.0e+00" /></Node></Node></Node></BinaryTree><BinaryTree boostWeight="0.522365324405" itree="4" type="DecisionTree"><Node Cut="28.7311058044" IVar="0" NCoef="0" cType="1" depth="0" nType="0" pos="s" purity="0.0e+00" res="0.0e+01" rms="0.0e+00"><Node Cut="-3.34274339676" IVar="2" NCoef="0" cType="1" depth="1" nType="0" pos="l" purity="0.0e+00" res="0.0e+01" rms="0.0e+00"><Node Cut="0.0e+00" IVar="-1" NCoef="0" cType="1" depth="2" nType="-1" pos="l" purity="0.146984167765" res="0.0e+01" rms="0.0e+00" /><Node Cut="2.80343103409" IVar="2" NCoef="0" cType="1" depth="2" nType="0" pos="r" purity="0.0e+00" res="0.0e+01" rms="0.0e+00"><Node Cut="0.0421916209161" IVar="5" NCoef="0" cType="1" depth="3" nType="0" pos="l" purity="0.0e+00" res="0.0e+01" rms="0.0e+00"><Node Cut="20.3972625732" IVar="0" NCoef="0" cType="1" depth="4" nType="0" pos="l" purity="0.0e+00" res="0.0e+01" rms="0.0e+00"><Node Cut="0.0e+00" IVar="-1" NCoef="0" cType="1" depth="5" nType="1" pos="l" purity="0.643985953461" res="0.0e+01" rms="0.0e+00" /><Node Cut="0.0e+00" IVar="-1" NCoef="0" cType="1" depth="5" nType="1" pos="r" purity="0.865588660021" res="0.0e+01" rms="0.0e+00" /></Node><Node Cut="0.0e+00" IVar="-1" NCoef="0" cType="1" depth="4" nType="-1" pos="r" purity="0.485214771932" res="0.0e+01" rms="0.0e+00" /></Node><Node Cut="0.0e+00" IVar="-1" NCoef="0" cType="1" depth="3" nType="-1" pos="r" purity="0.166290998467" res="0.0e+01" rms="0.0e+00" /></Node></Node><Node Cut="0.0361451730132" IVar="5" NCoef="0" cType="1" depth="1" nType="0" pos="r" purity="0.0e+00" res="0.0e+01" rms="0.0e+00"><Node Cut="0.0242613554001" IVar="4" NCoef="0" cType="1" depth="2" nType="0" pos="l" purity="0.0e+00" res="0.0e+01" rms="0.0e+00"><Node Cut="34.4579544067" IVar="0" NCoef="0" cType="1" depth="3" nType="0" pos="l" purity="0.0e+00" res="0.0e+01" rms="0.0e+00"><Node Cut="0.0e+00" IVar="-1" NCoef="0" cType="1" depth="4" nType="1" pos="l" purity="0.981939981709" res="0.0e+01" rms="0.0e+00" /><Node Cut="0.011837311089" IVar="4" NCoef="0" cType="1" depth="4" nType="0" pos="r" purity="0.0e+00" res="0.0e+01" rms="0.0e+00"><Node Cut="41.2656898499" IVar="0" NCoef="0" cType="1" depth="5" nType="0" pos="l" purity="0.0e+00" res="0.0e+01" rms="0.0e+00"><Node Cut="0.0e+00" IVar="-1" NCoef="0" cType="1" depth="6" nType="1" pos="l" purity="0.99654930311" res="0.0e+01" rms="0.0e+00" /><Node Cut="0.0e+00" IVar="-1" NCoef="0" cType="1" depth="6" nType="1" pos="r" purity="0.999880762808" res="0.0e+01" rms="0.0e+00" /></Node><Node Cut="0.0e+00" IVar="-1" NCoef="0" cType="1" depth="5" nType="1" pos="r" purity="0.992439482675" res="0.0e+01" rms="0.0e+00" /></Node></Node><Node Cut="0.0e+00" IVar="-1" NCoef="0" cType="1" depth="3" nType="1" pos="r" purity="0.843601587218" res="0.0e+01" rms="0.0e+00" /></Node><Node Cut="0.0e+00" IVar="-1" NCoef="0" cType="1" depth="2" nType="1" pos="r" purity="0.563957632951" res="0.0e+01" rms="0.0e+00" /></Node></Node></BinaryTree><BinaryTree boostWeight="0.459077562185" itree="5" type="DecisionTree"><Node Cut="0.0190674103796" IVar="4" NCoef="0" cType="1" depth="0" nType="0" pos="s" purity="0.0e+00" res="0.0e+01" rms="0.0e+00"><Node Cut="22.4392585754" IVar="0" NCoef="0" cType="1" depth="1" nType="0" pos="l" purity="0.0e+00" res="0.0e+01" rms="0.0e+00"><Node Cut="0.0e+00" IVar="-1" NCoef="0" cType="1" depth="2" nType="1" pos="l" purity="0.527271297191" res="0.0e+01" rms="0.0e+00" /><Node Cut="34.3440093994" IVar="0" NCoef="0" cType="1" depth="2" nType="0" pos="r" purity="0.0e+00" res="0.0e+01" rms="0.0e+00"><Node Cut="-0.00036203378113" IVar="4" NCoef="0" cType="1" depth="3" nType="0" pos="l" purity="0.0e+00" res="0.0e+01" rms="0.0e+00"><Node Cut="0.0e+00" IVar="-1" NCoef="0" cType="1" depth="4" nType="1" pos="l" purity="0.933555525313" res="0.0e+01" rms="0.0e+00" /><Node Cut="0.0e+00" IVar="-1" NCoef="0" cType="1" depth="4" nType="1" pos="r" purity="0.846212651549" res="0.0e+01" rms="0.0e+00" /></Node><Node Cut="42.0820999146" IVar="0" NCoef="0" cType="1" depth="3" nType="0" pos="r" purity="0.0e+00" res="0.0e+01" rms="0.0e+00"><Node Cut="0.0e+00" IVar="-1" NCoef="0" cType="1" depth="4" nType="1" pos="l" purity="0.965798292109" res="0.0e+01" rms="0.0e+00" /><Node Cut="0.00847195461392" IVar="4" NCoef="0" cType="1" depth="4" nType="0" pos="r" purity="0.0e+00" res="0.0e+01" rms="0.0e+00"><Node Cut="53.5111541748" IVar="0" NCoef="0" cType="1" depth="5" nType="0" pos="l" purity="0.0e+00" res="0.0e+01" rms="0.0e+00"><Node Cut="0.0e+00" IVar="-1" NCoef="0" cType="1" depth="6" nType="1" pos="l" purity="0.995835142438" res="0.0e+01" rms="0.0e+00" /><Node Cut="0.0e+00" IVar="-1" NCoef="0" cType="1" depth="6" nType="1" pos="r" purity="1.0" res="0.0e+01" rms="0.0e+00" /></Node><Node Cut="0.0e+00" IVar="-1" NCoef="0" cType="1" depth="5" nType="1" pos="r" purity="0.983493179656" res="0.0e+01" rms="0.0e+00" /></Node></Node></Node></Node><Node Cut="-4.12610912323" IVar="2" NCoef="0" cType="1" depth="1" nType="0" pos="r" purity="0.0e+00" res="0.0e+01" rms="0.0e+00"><Node Cut="0.0e+00" IVar="-1" NCoef="0" cType="1" depth="2" nType="-1" pos="l" purity="0.167874539498" res="0.0e+01" rms="0.0e+00" /><Node Cut="1.37155413628" IVar="2" NCoef="0" cType="1" depth="2" nType="0" pos="r" purity="0.0e+00" res="0.0e+01" rms="0.0e+00"><Node Cut="-0.827373981476" IVar="2" NCoef="0" cType="1" depth="3" nType="0" pos="l" purity="0.0e+00" res="0.0e+01" rms="0.0e+00"><Node Cut="0.0e+00" IVar="-1" NCoef="0" cType="1" depth="4" nType="1" pos="l" purity="0.511300879001" res="0.0e+01" rms="0.0e+00" /><Node Cut="0.119849249721" IVar="4" NCoef="0" cType="1" depth="4" nType="0" pos="r" purity="0.0e+00" res="0.0e+01" rms="0.0e+00"><Node Cut="28.0498600006" IVar="0" NCoef="0" cType="1" depth="5" nType="0" pos="l" purity="0.0e+00" res="0.0e+01" rms="0.0e+00"><Node Cut="0.0e+00" IVar="-1" NCoef="0" cType="1" depth="6" nType="1" pos="l" purity="0.653365361585" res="0.0e+01" rms="0.0e+00" /><Node Cut="0.0e+00" IVar="-1" NCoef="0" cType="1" depth="6" nType="1" pos="r" purity="0.824719027949" res="0.0e+01" rms="0.0e+00" /></Node><Node Cut="0.0e+00" IVar="-1" NCoef="0" cType="1" depth="5" nType="1" pos="r" purity="0.598549959146" res="0.0e+01" rms="0.0e+00" /></Node></Node><Node Cut="7.02575016022" IVar="2" NCoef="0" cType="1" depth="3" nType="0" pos="r" purity="0.0e+00" res="0.0e+01" rms="0.0e+00"><Node Cut="0.0e+00" IVar="-1" NCoef="0" cType="1" depth="4" nType="-1" pos="l" purity="0.384665537315" res="0.0e+01" rms="0.0e+00" /><Node Cut="0.0e+00" IVar="-1" NCoef="0" cType="1" depth="4" nType="-1" pos="r" purity="0.121385853246" res="0.0e+01" rms="0.0e+00" /></Node></Node></Node></Node></BinaryTree><BinaryTree boostWeight="0.364517015006" itree="6" type="DecisionTree"><Node Cut="0.0144084263593" IVar="4" NCoef="0" cType="1" depth="0" nType="0" pos="s" purity="0.0e+00" res="0.0e+01" rms="0.0e+00"><Node Cut="22.4302139282" IVar="0" NCoef="0" cType="1" depth="1" nType="0" pos="l" purity="0.0e+00" res="0.0e+01" rms="0.0e+00"><Node Cut="0.0e+00" IVar="-1" NCoef="0" cType="1" depth="2" nType="-1" pos="l" purity="0.426282991087" res="0.0e+01" rms="0.0e+00" /><Node Cut="34.2015838623" IVar="0" NCoef="0" cType="1" depth="2" nType="0" pos="r" purity="0.0e+00" res="0.0e+01" rms="0.0e+00"><Node Cut="0.0e+00" IVar="-1" NCoef="0" cType="1" depth="3" nType="1" pos="l" purity="0.851504278298" res="0.0e+01" rms="0.0e+00" /><Node Cut="41.9973068237" IVar="0" NCoef="0" cType="1" depth="3" nType="0" pos="r" purity="0.0e+00" res="0.0e+01" rms="0.0e+00"><Node Cut="0.0e+00" IVar="-1" NCoef="0" cType="1" depth="4" nType="1" pos="l" purity="0.954159426168" res="0.0e+01" rms="0.0e+00" /><Node Cut="0.00704373093322" IVar="4" NCoef="0" cType="1" depth="4" nType="0" pos="r" purity="0.0e+00" res="0.0e+01" rms="0.0e+00"><Node Cut="53.5111541748" IVar="0" NCoef="0" cType="1" depth="5" nType="0" pos="l" purity="0.0e+00" res="0.0e+01" rms="0.0e+00"><Node Cut="0.0e+00" IVar="-1" NCoef="0" cType="1" depth="6" nType="1" pos="l" purity="0.994041032953" res="0.0e+01" rms="0.0e+00" /><Node Cut="0.0e+00" IVar="-1" NCoef="0" cType="1" depth="6" nType="1" pos="r" purity="1.0" res="0.0e+01" rms="0.0e+00" /></Node><Node Cut="0.0e+00" IVar="-1" NCoef="0" cType="1" depth="5" nType="1" pos="r" purity="0.986599745594" res="0.0e+01" rms="0.0e+00" /></Node></Node></Node></Node><Node Cut="-0.170302256942" IVar="3" NCoef="0" cType="1" depth="1" nType="0" pos="r" purity="0.0e+00" res="0.0e+01" rms="0.0e+00"><Node Cut="0.0e+00" IVar="-1" NCoef="0" cType="1" depth="2" nType="-1" pos="l" purity="0.163031690417" res="0.0e+01" rms="0.0e+00" /><Node Cut="0.134490013123" IVar="3" NCoef="0" cType="1" depth="2" nType="0" pos="r" purity="0.0e+00" res="0.0e+01" rms="0.0e+00"><Node Cut="-0.956944823265" IVar="2" NCoef="0" cType="1" depth="3" nType="0" pos="l" purity="0.0e+00" res="0.0e+01" rms="0.0e+00"><Node Cut="0.0e+00" IVar="-1" NCoef="0" cType="1" depth="4" nType="-1" pos="l" purity="0.39378256674" res="0.0e+01" rms="0.0e+00" /><Node Cut="0.872026741505" IVar="2" NCoef="0" cType="1" depth="4" nType="0" pos="r" purity="0.0e+00" res="0.0e+01" rms="0.0e+00"><Node Cut="0.107644557953" IVar="4" NCoef="0" cType="1" depth="5" nType="0" pos="l" purity="0.0e+00" res="0.0e+01" rms="0.0e+00"><Node Cut="0.0e+00" IVar="-1" NCoef="0" cType="1" depth="6" nType="1" pos="l" purity="0.671071627384" res="0.0e+01" rms="0.0e+00" /><Node Cut="0.0e+00" IVar="-1" NCoef="0" cType="1" depth="6" nType="1" pos="r" purity="0.530224751433" res="0.0e+01" rms="0.0e+00" /></Node><Node Cut="0.0e+00" IVar="-1" NCoef="0" cType="1" depth="5" nType="-1" pos="r" purity="0.459972927986" res="0.0e+01" rms="0.0e+00" /></Node></Node><Node Cut="0.0e+00" IVar="-1" NCoef="0" cType="1" depth="3" nType="-1" pos="r" purity="0.210876026049" res="0.0e+01" rms="0.0e+00" /></Node></Node></Node></BinaryTree><BinaryTree boostWeight="0.308860487919" itree="7" type="DecisionTree"><Node Cut="0.0144084263593" IVar="4" NCoef="0" cType="1" depth="0" nType="0" pos="s" purity="0.0e+00" res="0.0e+01" rms="0.0e+00"><Node Cut="24.052646637" IVar="0" NCoef="0" cType="1" depth="1" nType="0" pos="l" purity="0.0e+00" res="0.0e+01" rms="0.0e+00"><Node Cut="0.0e+00" IVar="-1" NCoef="0" cType="1" depth="2" nType="1" pos="l" purity="0.526174187216" res="0.0e+01" rms="0.0e+00" /><Node Cut="34.2015838623" IVar="0" NCoef="0" cType="1" depth="2" nType="0" pos="r" purity="0.0e+00" res="0.0e+01" rms="0.0e+00"><Node Cut="0.0e+00" IVar="-1" NCoef="0" cType="1" depth="3" nType="1" pos="l" purity="0.82309166909" res="0.0e+01" rms="0.0e+00" /><Node Cut="41.9973068237" IVar="0" NCoef="0" cType="1" depth="3" nType="0" pos="r" purity="0.0e+00" res="0.0e+01" rms="0.0e+00"><Node Cut="0.0e+00" IVar="-1" NCoef="0" cType="1" depth="4" nType="1" pos="l" purity="0.935302301515" res="0.0e+01" rms="0.0e+00" /><Node Cut="0.00704373093322" IVar="4" NCoef="0" cType="1" depth="4" nType="0" pos="r" purity="0.0e+00" res="0.0e+01" rms="0.0e+00"><Node Cut="53.5111541748" IVar="0" NCoef="0" cType="1" depth="5" nType="0" pos="l" purity="0.0e+00" res="0.0e+01" rms="0.0e+00"><Node Cut="0.0e+00" IVar="-1" NCoef="0" cType="1" depth="6" nType="1" pos="l" purity="0.99144259721" res="0.0e+01" rms="0.0e+00" /><Node Cut="0.0e+00" IVar="-1" NCoef="0" cType="1" depth="6" nType="1" pos="r" purity="1.0" res="0.0e+01" rms="0.0e+00" /></Node><Node Cut="0.0e+00" IVar="-1" NCoef="0" cType="1" depth="5" nType="1" pos="r" purity="0.980819112735" res="0.0e+01" rms="0.0e+00" /></Node></Node></Node></Node><Node Cut="-0.172460153699" IVar="3" NCoef="0" cType="1" depth="1" nType="0" pos="r" purity="0.0e+00" res="0.0e+01" rms="0.0e+00"><Node Cut="0.0e+00" IVar="-1" NCoef="0" cType="1" depth="2" nType="-1" pos="l" purity="0.215563853558" res="0.0e+01" rms="0.0e+00" /><Node Cut="0.172988414764" IVar="3" NCoef="0" cType="1" depth="2" nType="0" pos="r" purity="0.0e+00" res="0.0e+01" rms="0.0e+00"><Node Cut="0.126184165478" IVar="5" NCoef="0" cType="1" depth="3" nType="0" pos="l" purity="0.0e+00" res="0.0e+01" rms="0.0e+00"><Node Cut="40.5281944275" IVar="0" NCoef="0" cType="1" depth="4" nType="0" pos="l" purity="0.0e+00" res="0.0e+01" rms="0.0e+00"><Node Cut="20.5197200775" IVar="0" NCoef="0" cType="1" depth="5" nType="0" pos="l" purity="0.0e+00" res="0.0e+01" rms="0.0e+00"><Node Cut="0.0e+00" IVar="-1" NCoef="0" cType="1" depth="6" nType="-1" pos="l" purity="0.384492305498" res="0.0e+01" rms="0.0e+00" /><Node Cut="0.0e+00" IVar="-1" NCoef="0" cType="1" depth="6" nType="-1" pos="r" purity="0.473965086357" res="0.0e+01" rms="0.0e+00" /></Node><Node Cut="0.0e+00" IVar="-1" NCoef="0" cType="1" depth="5" nType="1" pos="r" purity="0.68584383715" res="0.0e+01" rms="0.0e+00" /></Node><Node Cut="26.0588626862" IVar="0" NCoef="0" cType="1" depth="4" nType="0" pos="r" purity="0.0e+00" res="0.0e+01" rms="0.0e+00"><Node Cut="0.975332379341" IVar="5" NCoef="0" cType="1" depth="5" nType="0" pos="l" purity="0.0e+00" res="0.0e+01" rms="0.0e+00"><Node Cut="0.0e+00" IVar="-1" NCoef="0" cType="1" depth="6" nType="1" pos="l" purity="0.636806704684" res="0.0e+01" rms="0.0e+00" /><Node Cut="0.0e+00" IVar="-1" NCoef="0" cType="1" depth="6" nType="-1" pos="r" purity="0.472083701542" res="0.0e+01" rms="0.0e+00" /></Node><Node Cut="0.0e+00" IVar="-1" NCoef="0" cType="1" depth="5" nType="-1" pos="r" purity="0.480996976972" res="0.0e+01" rms="0.0e+00" /></Node></Node><Node Cut="0.0e+00" IVar="-1" NCoef="0" cType="1" depth="3" nType="-1" pos="r" purity="0.225425853595" res="0.0e+01" rms="0.0e+00" /></Node></Node></Node></BinaryTree><BinaryTree boostWeight="0.28458157766" itree="8" type="DecisionTree"><Node Cut="47.1273498535" IVar="0" NCoef="0" cType="1" depth="0" nType="0" pos="s" purity="0.0e+00" res="0.0e+01" rms="0.0e+00"><Node Cut="-7.98314666748" IVar="2" NCoef="0" cType="1" depth="1" nType="0" pos="l" purity="0.0e+00" res="0.0e+01" rms="0.0e+00"><Node Cut="0.0e+00" IVar="-1" NCoef="0" cType="1" depth="2" nType="-1" pos="l" purity="0.228499463169" res="0.0e+01" rms="0.0e+00" /><Node Cut="6.812541008" IVar="2" NCoef="0" cType="1" depth="2" nType="0" pos="r" purity="0.0e+00" res="0.0e+01" rms="0.0e+00"><Node Cut="20.4254684448" IVar="0" NCoef="0" cType="1" depth="3" nType="0" pos="l" purity="0.0e+00" res="0.0e+01" rms="0.0e+00"><Node Cut="0.0536123588681" IVar="4" NCoef="0" cType="1" depth="4" nType="0" pos="l" purity="0.0e+00" res="0.0e+01" rms="0.0e+00"><Node Cut="0.0e+00" IVar="-1" NCoef="0" cType="1" depth="5" nType="-1" pos="l" purity="0.429954253711" res="0.0e+01" rms="0.0e+00" /><Node Cut="0.507309317589" IVar="4" NCoef="0" cType="1" depth="5" nType="0" pos="r" purity="0.0e+00" res="0.0e+01" rms="0.0e+00"><Node Cut="0.0e+00" IVar="-1" NCoef="0" cType="1" depth="6" nType="1" pos="l" purity="0.558520197471" res="0.0e+01" rms="0.0e+00" /><Node Cut="0.0e+00" IVar="-1" NCoef="0" cType="1" depth="6" nType="-1" pos="r" purity="0.471027542746" res="0.0e+01" rms="0.0e+00" /></Node></Node><Node Cut="0.0318706855178" IVar="5" NCoef="0" cType="1" depth="4" nType="0" pos="r" purity="0.0e+00" res="0.0e+01" rms="0.0e+00"><Node Cut="0.0253123752773" IVar="4" NCoef="0" cType="1" depth="5" nType="0" pos="l" purity="0.0e+00" res="0.0e+01" rms="0.0e+00"><Node Cut="0.0e+00" IVar="-1" NCoef="0" cType="1" depth="6" nType="1" pos="l" purity="0.917197177154" res="0.0e+01" rms="0.0e+00" /><Node Cut="0.0e+00" IVar="-1" NCoef="0" cType="1" depth="6" nType="1" pos="r" purity="0.665394408117" res="0.0e+01" rms="0.0e+00" /></Node><Node Cut="0.0e+00" IVar="-1" NCoef="0" cType="1" depth="5" nType="1" pos="r" purity="0.507075454733" res="0.0e+01" rms="0.0e+00" /></Node></Node><Node Cut="0.0e+00" IVar="-1" NCoef="0" cType="1" depth="3" nType="-1" pos="r" purity="0.263959554557" res="0.0e+01" rms="0.0e+00" /></Node></Node><Node Cut="0.0185216255486" IVar="4" NCoef="0" cType="1" depth="1" nType="0" pos="r" purity="0.0e+00" res="0.0e+01" rms="0.0e+00"><Node Cut="0.00763209909201" IVar="4" NCoef="0" cType="1" depth="2" nType="0" pos="l" purity="0.0e+00" res="0.0e+01" rms="0.0e+00"><Node Cut="0.592258214951" IVar="2" NCoef="0" cType="1" depth="3" nType="0" pos="l" purity="0.0e+00" res="0.0e+01" rms="0.0e+00"><Node Cut="0.0e+00" IVar="-1" NCoef="0" cType="1" depth="4" nType="1" pos="l" purity="1.0" res="0.0e+01" rms="0.0e+00" /><Node Cut="0.0e+00" IVar="-1" NCoef="0" cType="1" depth="4" nType="1" pos="r" purity="0.992818489525" res="0.0e+01" rms="0.0e+00" /></Node><Node Cut="0.0e+00" IVar="-1" NCoef="0" cType="1" depth="3" nType="1" pos="r" purity="0.976287326015" res="0.0e+01" rms="0.0e+00" /></Node><Node Cut="0.0e+00" IVar="-1" NCoef="0" cType="1" depth="2" nType="1" pos="r" purity="0.593151955094" res="0.0e+01" rms="0.0e+00" /></Node></Node></BinaryTree><BinaryTree boostWeight="0.254524393438" itree="9" type="DecisionTree"><Node Cut="0.0242613554001" IVar="4" NCoef="0" cType="1" depth="0" nType="0" pos="s" purity="0.0e+00" res="0.0e+01" rms="0.0e+00"><Node Cut="27.1836738586" IVar="0" NCoef="0" cType="1" depth="1" nType="0" pos="l" purity="0.0e+00" res="0.0e+01" rms="0.0e+00"><Node Cut="18.6944160461" IVar="0" NCoef="0" cType="1" depth="2" nType="0" pos="l" purity="0.0e+00" res="0.0e+01" rms="0.0e+00"><Node Cut="0.0e+00" IVar="-1" NCoef="0" cType="1" depth="3" nType="-1" pos="l" purity="0.467529502319" res="0.0e+01" rms="0.0e+00" /><Node Cut="0.0e+00" IVar="-1" NCoef="0" cType="1" depth="3" nType="1" pos="r" purity="0.600380652459" res="0.0e+01" rms="0.0e+00" /></Node><Node Cut="34.9721984863" IVar="0" NCoef="0" cType="1" depth="2" nType="0" pos="r" purity="0.0e+00" res="0.0e+01" rms="0.0e+00"><Node Cut="0.0e+00" IVar="-1" NCoef="0" cType="1" depth="3" nType="1" pos="l" purity="0.767041175315" res="0.0e+01" rms="0.0e+00" /><Node Cut="46.6938934326" IVar="0" NCoef="0" cType="1" depth="3" nType="0" pos="r" purity="0.0e+00" res="0.0e+01" rms="0.0e+00"><Node Cut="0.00127316755243" IVar="4" NCoef="0" cType="1" depth="4" nType="0" pos="l" purity="0.0e+00" res="0.0e+01" rms="0.0e+00"><Node Cut="0.0e+00" IVar="-1" NCoef="0" cType="1" depth="5" nType="1" pos="l" purity="0.960577723336" res="0.0e+01" rms="0.0e+00" /><Node Cut="0.0e+00" IVar="-1" NCoef="0" cType="1" depth="5" nType="1" pos="r" purity="0.865714287304" res="0.0e+01" rms="0.0e+00" /></Node><Node Cut="0.00847195461392" IVar="4" NCoef="0" cType="1" depth="4" nType="0" pos="r" purity="0.0e+00" res="0.0e+01" rms="0.0e+00"><Node Cut="0.61344063282" IVar="2" NCoef="0" cType="1" depth="5" nType="0" pos="l" purity="0.0e+00" res="0.0e+01" rms="0.0e+00"><Node Cut="0.0e+00" IVar="-1" NCoef="0" cType="1" depth="6" nType="1" pos="l" purity="1.0" res="0.0e+01" rms="0.0e+00" /><Node Cut="0.0e+00" IVar="-1" NCoef="0" cType="1" depth="6" nType="1" pos="r" purity="0.989700423464" res="0.0e+01" rms="0.0e+00" /></Node><Node Cut="0.0e+00" IVar="-1" NCoef="0" cType="1" depth="5" nType="1" pos="r" purity="0.953338866381" res="0.0e+01" rms="0.0e+00" /></Node></Node></Node></Node><Node Cut="-0.143327653408" IVar="3" NCoef="0" cType="1" depth="1" nType="0" pos="r" purity="0.0e+00" res="0.0e+01" rms="0.0e+00"><Node Cut="0.0e+00" IVar="-1" NCoef="0" cType="1" depth="2" nType="-1" pos="l" purity="0.303414811939" res="0.0e+01" rms="0.0e+00" /><Node Cut="0.167101711035" IVar="3" NCoef="0" cType="1" depth="2" nType="0" pos="r" purity="0.0e+00" res="0.0e+01" rms="0.0e+00"><Node Cut="0.858506083488" IVar="4" NCoef="0" cType="1" depth="3" nType="0" pos="l" purity="0.0e+00" res="0.0e+01" rms="0.0e+00"><Node Cut="0.0254564993083" IVar="5" NCoef="0" cType="1" depth="4" nType="0" pos="l" purity="0.0e+00" res="0.0e+01" rms="0.0e+00"><Node Cut="26.5927658081" IVar="0" NCoef="0" cType="1" depth="5" nType="0" pos="l" purity="0.0e+00" res="0.0e+01" rms="0.0e+00"><Node Cut="0.0e+00" IVar="-1" NCoef="0" cType="1" depth="6" nType="-1" pos="l" purity="0.491689713769" res="0.0e+01" rms="0.0e+00" /><Node Cut="0.0e+00" IVar="-1" NCoef="0" cType="1" depth="6" nType="1" pos="r" purity="0.71363589434" res="0.0e+01" rms="0.0e+00" /></Node><Node Cut="26.9099388123" IVar="0" NCoef="0" cType="1" depth="5" nType="0" pos="r" purity="0.0e+00" res="0.0e+01" rms="0.0e+00"><Node Cut="0.0e+00" IVar="-1" NCoef="0" cType="1" depth="6" nType="-1" pos="l" purity="0.498970842079" res="0.0e+01" rms="0.0e+00" /><Node Cut="0.0e+00" IVar="-1" NCoef="0" cType="1" depth="6" nType="-1" pos="r" purity="0.384064528693" res="0.0e+01" rms="0.0e+00" /></Node></Node><Node Cut="0.0e+00" IVar="-1" NCoef="0" cType="1" depth="4" nType="1" pos="r" purity="0.616001690379" res="0.0e+01" rms="0.0e+00" /></Node><Node Cut="0.0e+00" IVar="-1" NCoef="0" cType="1" depth="3" nType="-1" pos="r" purity="0.294734195757" res="0.0e+01" rms="0.0e+00" /></Node></Node></Node></BinaryTree><BinaryTree boostWeight="0.249951445929" itree="10" type="DecisionTree"><Node Cut="0.0330152586102" IVar="5" NCoef="0" cType="1" depth="0" nType="0" pos="s" purity="0.0e+00" res="0.0e+01" rms="0.0e+00"><Node Cut="31.0659217834" IVar="0" NCoef="0" cType="1" depth="1" nType="0" pos="l" purity="0.0e+00" res="0.0e+01" rms="0.0e+00"><Node Cut="23.2688179016" IVar="0" NCoef="0" cType="1" depth="2" nType="0" pos="l" purity="0.0e+00" res="0.0e+01" rms="0.0e+00"><Node Cut="-0.00143365445547" IVar="4" NCoef="0" cType="1" depth="3" nType="0" pos="l" purity="0.0e+00" res="0.0e+01" rms="0.0e+00"><Node Cut="0.0e+00" IVar="-1" NCoef="0" cType="1" depth="4" nType="1" pos="l" purity="0.616572433062" res="0.0e+01" rms="0.0e+00" /><Node Cut="0.0e+00" IVar="-1" NCoef="0" cType="1" depth="4" nType="1" pos="r" purity="0.522638298283" res="0.0e+01" rms="0.0e+00" /></Node><Node Cut="0.0e+00" IVar="-1" NCoef="0" cType="1" depth="3" nType="1" pos="r" purity="0.682823565742" res="0.0e+01" rms="0.0e+00" /></Node><Node Cut="0.0221461709589" IVar="4" NCoef="0" cType="1" depth="2" nType="0" pos="r" purity="0.0e+00" res="0.0e+01" rms="0.0e+00"><Node Cut="39.7882843018" IVar="0" NCoef="0" cType="1" depth="3" nType="0" pos="l" purity="0.0e+00" res="0.0e+01" rms="0.0e+00"><Node Cut="0.0e+00" IVar="-1" NCoef="0" cType="1" depth="4" nType="1" pos="l" purity="0.945244891775" res="0.0e+01" rms="0.0e+00" /><Node Cut="0.0099259680137" IVar="4" NCoef="0" cType="1" depth="4" nType="0" pos="r" purity="0.0e+00" res="0.0e+01" rms="0.0e+00"><Node Cut="0.0379561111331" IVar="3" NCoef="0" cType="1" depth="5" nType="0" pos="l" purity="0.0e+00" res="0.0e+01" rms="0.0e+00"><Node Cut="0.0e+00" IVar="-1" NCoef="0" cType="1" depth="6" nType="1" pos="l" purity="1.0" res="0.0e+01" rms="0.0e+00" /><Node Cut="0.0e+00" IVar="-1" NCoef="0" cType="1" depth="6" nType="1" pos="r" purity="0.993832224729" res="0.0e+01" rms="0.0e+00" /></Node><Node Cut="0.0e+00" IVar="-1" NCoef="0" cType="1" depth="5" nType="1" pos="r" purity="0.976830637343" res="0.0e+01" rms="0.0e+00" /></Node></Node><Node Cut="0.0e+00" IVar="-1" NCoef="0" cType="1" depth="3" nType="1" pos="r" purity="0.694094750428" res="0.0e+01" rms="0.0e+00" /></Node></Node><Node Cut="0.154780879617" IVar="5" NCoef="0" cType="1" depth="1" nType="0" pos="r" purity="0.0e+00" res="0.0e+01" rms="0.0e+00"><Node Cut="0.0e+00" IVar="-1" NCoef="0" cType="1" depth="2" nType="-1" pos="l" purity="0.355721485655" res="0.0e+01" rms="0.0e+00" /><Node Cut="-8.14394950867" IVar="2" NCoef="0" cType="1" depth="2" nType="0" pos="r" purity="0.0e+00" res="0.0e+01" rms="0.0e+00"><Node Cut="0.0e+00" IVar="-1" NCoef="0" cType="1" depth="3" nType="-1" pos="l" purity="0.279627791996" res="0.0e+01" rms="0.0e+00" /><Node Cut="8.29246044159" IVar="2" NCoef="0" cType="1" depth="3" nType="0" pos="r" purity="0.0e+00" res="0.0e+01" rms="0.0e+00"><Node Cut="0.870122373104" IVar="2" NCoef="0" cType="1" depth="4" nType="0" pos="l" purity="0.0e+00" res="0.0e+01" rms="0.0e+00"><Node Cut="0.0e+00" IVar="-1" NCoef="0" cType="1" depth="5" nType="1" pos="l" purity="0.529673279849" res="0.0e+01" rms="0.0e+00" /><Node Cut="0.0e+00" IVar="-1" NCoef="0" cType="1" depth="5" nType="1" pos="r" purity="0.608863592894" res="0.0e+01" rms="0.0e+00" /></Node><Node Cut="0.0e+00" IVar="-1" NCoef="0" cType="1" depth="4" nType="-1" pos="r" purity="0.288948273697" res="0.0e+01" rms="0.0e+00" /></Node></Node></Node></Node></BinaryTree><BinaryTree boostWeight="0.206743119634" itree="11" type="DecisionTree"><Node Cut="50.0977325439" IVar="0" NCoef="0" cType="1" depth="0" nType="0" pos="s" purity="0.0e+00" res="0.0e+01" rms="0.0e+00"><Node Cut="-0.0925812721252" IVar="3" NCoef="0" cType="1" depth="1" nType="0" pos="l" purity="0.0e+00" res="0.0e+01" rms="0.0e+00"><Node Cut="0.0e+00" IVar="-1" NCoef="0" cType="1" depth="2" nType="-1" pos="l" purity="0.360324442592" res="0.0e+01" rms="0.0e+00" /><Node Cut="0.0596968866885" IVar="3" NCoef="0" cType="1" depth="2" nType="0" pos="r" purity="0.0e+00" res="0.0e+01" rms="0.0e+00"><Node Cut="0.0101419296116" IVar="4" NCoef="0" cType="1" depth="3" nType="0" pos="l" purity="0.0e+00" res="0.0e+01" rms="0.0e+00"><Node Cut="30.647277832" IVar="0" NCoef="0" cType="1" depth="4" nType="0" pos="l" purity="0.0e+00" res="0.0e+01" rms="0.0e+00"><Node Cut="-0.00327440211549" IVar="4" NCoef="0" cType="1" depth="5" nType="0" pos="l" purity="0.0e+00" res="0.0e+01" rms="0.0e+00"><Node Cut="0.0e+00" IVar="-1" NCoef="0" cType="1" depth="6" nType="1" pos="l" purity="0.673009130761" res="0.0e+01" rms="0.0e+00" /><Node Cut="0.0e+00" IVar="-1" NCoef="0" cType="1" depth="6" nType="1" pos="r" purity="0.584455247928" res="0.0e+01" rms="0.0e+00" /></Node><Node Cut="38.8969421387" IVar="0" NCoef="0" cType="1" depth="5" nType="0" pos="r" purity="0.0e+00" res="0.0e+01" rms="0.0e+00"><Node Cut="0.0e+00" IVar="-1" NCoef="0" cType="1" depth="6" nType="1" pos="l" purity="0.865004178177" res="0.0e+01" rms="0.0e+00" /><Node Cut="0.0e+00" IVar="-1" NCoef="0" cType="1" depth="6" nType="1" pos="r" purity="0.962505364543" res="0.0e+01" rms="0.0e+00" /></Node></Node><Node Cut="0.128765285015" IVar="4" NCoef="0" cType="1" depth="4" nType="0" pos="r" purity="0.0e+00" res="0.0e+01" rms="0.0e+00"><Node Cut="24.4910507202" IVar="0" NCoef="0" cType="1" depth="5" nType="0" pos="l" purity="0.0e+00" res="0.0e+01" rms="0.0e+00"><Node Cut="0.0e+00" IVar="-1" NCoef="0" cType="1" depth="6" nType="1" pos="l" purity="0.537603555953" res="0.0e+01" rms="0.0e+00" /><Node Cut="0.0e+00" IVar="-1" NCoef="0" cType="1" depth="6" nType="1" pos="r" purity="0.608288155529" res="0.0e+01" rms="0.0e+00" /></Node><Node Cut="0.0e+00" IVar="-1" NCoef="0" cType="1" depth="5" nType="-1" pos="r" purity="0.491346506867" res="0.0e+01" rms="0.0e+00" /></Node></Node><Node Cut="0.184672951698" IVar="3" NCoef="0" cType="1" depth="3" nType="0" pos="r" purity="0.0e+00" res="0.0e+01" rms="0.0e+00"><Node Cut="0.0e+00" IVar="-1" NCoef="0" cType="1" depth="4" nType="-1" pos="l" purity="0.44114372121" res="0.0e+01" rms="0.0e+00" /><Node Cut="0.0e+00" IVar="-1" NCoef="0" cType="1" depth="4" nType="-1" pos="r" purity="0.283642608392" res="0.0e+01" rms="0.0e+00" /></Node></Node></Node><Node Cut="0.0155963664874" IVar="4" NCoef="0" cType="1" depth="1" nType="0" pos="r" purity="0.0e+00" res="0.0e+01" rms="0.0e+00"><Node Cut="0.00620175991207" IVar="4" NCoef="0" cType="1" depth="2" nType="0" pos="l" purity="0.0e+00" res="0.0e+01" rms="0.0e+00"><Node Cut="-0.0023147133179" IVar="4" NCoef="0" cType="1" depth="3" nType="0" pos="l" purity="0.0e+00" res="0.0e+01" rms="0.0e+00"><Node Cut="0.0e+00" IVar="-1" NCoef="0" cType="1" depth="4" nType="1" pos="l" purity="0.993847470101" res="0.0e+01" rms="0.0e+00" /><Node Cut="0.0e+00" IVar="-1" NCoef="0" cType="1" depth="4" nType="1" pos="r" purity="1.0" res="0.0e+01" rms="0.0e+00" /></Node><Node Cut="0.0e+00" IVar="-1" NCoef="0" cType="1" depth="3" nType="1" pos="r" purity="0.978154836554" res="0.0e+01" rms="0.0e+00" /></Node><Node Cut="0.0e+00" IVar="-1" NCoef="0" cType="1" depth="2" nType="1" pos="r" purity="0.557664214852" res="0.0e+01" rms="0.0e+00" /></Node></Node></BinaryTree><BinaryTree boostWeight="0.181539880312" itree="12" type="DecisionTree"><Node Cut="0.0101379025728" IVar="4" NCoef="0" cType="1" depth="0" nType="0" pos="s" purity="0.0e+00" res="0.0e+01" rms="0.0e+00"><Node Cut="34.2015991211" IVar="0" NCoef="0" cType="1" depth="1" nType="0" pos="l" purity="0.0e+00" res="0.0e+01" rms="0.0e+00"><Node Cut="27.1836738586" IVar="0" NCoef="0" cType="1" depth="2" nType="0" pos="l" purity="0.0e+00" res="0.0e+01" rms="0.0e+00"><Node Cut="-0.00421623885632" IVar="4" NCoef="0" cType="1" depth="3" nType="0" pos="l" purity="0.0e+00" res="0.0e+01" rms="0.0e+00"><Node Cut="0.0e+00" IVar="-1" NCoef="0" cType="1" depth="4" nType="1" pos="l" purity="0.536510401656" res="0.0e+01" rms="0.0e+00" /><Node Cut="0.0e+00" IVar="-1" NCoef="0" cType="1" depth="4" nType="-1" pos="r" purity="0.451460947355" res="0.0e+01" rms="0.0e+00" /></Node><Node Cut="0.0e+00" IVar="-1" NCoef="0" cType="1" depth="3" nType="1" pos="r" purity="0.714907434937" res="0.0e+01" rms="0.0e+00" /></Node><Node Cut="41.9973068237" IVar="0" NCoef="0" cType="1" depth="2" nType="0" pos="r" purity="0.0e+00" res="0.0e+01" rms="0.0e+00"><Node Cut="0.0e+00" IVar="-1" NCoef="0" cType="1" depth="3" nType="1" pos="l" purity="0.865976653159" res="0.0e+01" rms="0.0e+00" /><Node Cut="53.5111541748" IVar="0" NCoef="0" cType="1" depth="3" nType="0" pos="r" purity="0.0e+00" res="0.0e+01" rms="0.0e+00"><Node Cut="0.0e+00" IVar="-1" NCoef="0" cType="1" depth="4" nType="1" pos="l" purity="0.975351162521" res="0.0e+01" rms="0.0e+00" /><Node Cut="0.00376905803569" IVar="4" NCoef="0" cType="1" depth="4" nType="0" pos="r" purity="0.0e+00" res="0.0e+01" rms="0.0e+00"><Node Cut="0.0e+00" IVar="-1" NCoef="0" cType="1" depth="5" nType="1" pos="l" purity="1.0" res="0.0e+01" rms="0.0e+00" /><Node Cut="0.0e+00" IVar="-1" NCoef="0" cType="1" depth="5" nType="1" pos="r" purity="0.99040245566" res="0.0e+01" rms="0.0e+00" /></Node></Node></Node></Node><Node Cut="-0.179132252932" IVar="3" NCoef="0" cType="1" depth="1" nType="0" pos="r" purity="0.0e+00" res="0.0e+01" rms="0.0e+00"><Node Cut="0.0e+00" IVar="-1" NCoef="0" cType="1" depth="2" nType="-1" pos="l" purity="0.342859278041" res="0.0e+01" rms="0.0e+00" /><Node Cut="0.177811682224" IVar="3" NCoef="0" cType="1" depth="2" nType="0" pos="r" purity="0.0e+00" res="0.0e+01" rms="0.0e+00"><Node Cut="1.3170800209" IVar="1" NCoef="0" cType="1" depth="3" nType="0" pos="l" purity="0.0e+00" res="0.0e+01" rms="0.0e+00"><Node Cut="-1.28221201897" IVar="1" NCoef="0" cType="1" depth="4" nType="0" pos="l" purity="0.0e+00" res="0.0e+01" rms="0.0e+00"><Node Cut="0.0e+00" IVar="-1" NCoef="0" cType="1" depth="5" nType="-1" pos="l" purity="0.453169083783" res="0.0e+01" rms="0.0e+00" /><Node Cut="0.0360312573612" IVar="5" NCoef="0" cType="1" depth="5" nType="0" pos="r" purity="0.0e+00" res="0.0e+01" rms="0.0e+00"><Node Cut="0.0e+00" IVar="-1" NCoef="0" cType="1" depth="6" nType="1" pos="l" purity="0.600996254217" res="0.0e+01" rms="0.0e+00" /><Node Cut="0.0e+00" IVar="-1" NCoef="0" cType="1" depth="6" nType="1" pos="r" purity="0.527388038468" res="0.0e+01" rms="0.0e+00" /></Node></Node><Node Cut="0.0e+00" IVar="-1" NCoef="0" cType="1" depth="4" nType="-1" pos="r" purity="0.433722305839" res="0.0e+01" rms="0.0e+00" /></Node><Node Cut="0.0e+00" IVar="-1" NCoef="0" cType="1" depth="3" nType="-1" pos="r" purity="0.357854583387" res="0.0e+01" rms="0.0e+00" /></Node></Node></Node></BinaryTree><BinaryTree boostWeight="0.19250154572" itree="13" type="DecisionTree"><Node Cut="0.0101379025728" IVar="4" NCoef="0" cType="1" depth="0" nType="0" pos="s" purity="0.0e+00" res="0.0e+01" rms="0.0e+00"><Node Cut="34.2015991211" IVar="0" NCoef="0" cType="1" depth="1" nType="0" pos="l" purity="0.0e+00" res="0.0e+01" rms="0.0e+00"><Node Cut="-0.382282435894" IVar="2" NCoef="0" cType="1" depth="2" nType="0" pos="l" purity="0.0e+00" res="0.0e+01" rms="0.0e+00"><Node Cut="0.0e+00" IVar="-1" NCoef="0" cType="1" depth="3" nType="-1" pos="l" purity="0.436198668839" res="0.0e+01" rms="0.0e+00" /><Node Cut="0.495903104544" IVar="2" NCoef="0" cType="1" depth="3" nType="0" pos="r" purity="0.0e+00" res="0.0e+01" rms="0.0e+00"><Node Cut="0.0e+00" IVar="-1" NCoef="0" cType="1" depth="4" nType="1" pos="l" purity="0.702827824648" res="0.0e+01" rms="0.0e+00" /><Node Cut="0.0e+00" IVar="-1" NCoef="0" cType="1" depth="4" nType="-1" pos="r" purity="0.463104101452" res="0.0e+01" rms="0.0e+00" /></Node></Node><Node Cut="41.9973068237" IVar="0" NCoef="0" cType="1" depth="2" nType="0" pos="r" purity="0.0e+00" res="0.0e+01" rms="0.0e+00"><Node Cut="0.0e+00" IVar="-1" NCoef="0" cType="1" depth="3" nType="1" pos="l" purity="0.843473617964" res="0.0e+01" rms="0.0e+00" /><Node Cut="53.5111541748" IVar="0" NCoef="0" cType="1" depth="3" nType="0" pos="r" purity="0.0e+00" res="0.0e+01" rms="0.0e+00"><Node Cut="0.0e+00" IVar="-1" NCoef="0" cType="1" depth="4" nType="1" pos="l" purity="0.970588817435" res="0.0e+01" rms="0.0e+00" /><Node Cut="0.00376905803569" IVar="4" NCoef="0" cType="1" depth="4" nType="0" pos="r" purity="0.0e+00" res="0.0e+01" rms="0.0e+00"><Node Cut="0.0e+00" IVar="-1" NCoef="0" cType="1" depth="5" nType="1" pos="l" purity="1.0" res="0.0e+01" rms="0.0e+00" /><Node Cut="0.0e+00" IVar="-1" NCoef="0" cType="1" depth="5" nType="1" pos="r" purity="0.988513890209" res="0.0e+01" rms="0.0e+00" /></Node></Node></Node></Node><Node Cut="-0.0443433299661" IVar="3" NCoef="0" cType="1" depth="1" nType="0" pos="r" purity="0.0e+00" res="0.0e+01" rms="0.0e+00"><Node Cut="-0.355574935675" IVar="1" NCoef="0" cType="1" depth="2" nType="0" pos="l" purity="0.0e+00" res="0.0e+01" rms="0.0e+00"><Node Cut="0.0e+00" IVar="-1" NCoef="0" cType="1" depth="3" nType="-1" pos="l" purity="0.3785884978" res="0.0e+01" rms="0.0e+00" /><Node Cut="0.0e+00" IVar="-1" NCoef="0" cType="1" depth="3" nType="-1" pos="r" purity="0.456562365224" res="0.0e+01" rms="0.0e+00" /></Node><Node Cut="0.0389420837164" IVar="3" NCoef="0" cType="1" depth="2" nType="0" pos="r" purity="0.0e+00" res="0.0e+01" rms="0.0e+00"><Node Cut="0.126183360815" IVar="5" NCoef="0" cType="1" depth="3" nType="0" pos="l" purity="0.0e+00" res="0.0e+01" rms="0.0e+00"><Node Cut="0.0357064604759" IVar="4" NCoef="0" cType="1" depth="4" nType="0" pos="l" purity="0.0e+00" res="0.0e+01" rms="0.0e+00"><Node Cut="0.0e+00" IVar="-1" NCoef="0" cType="1" depth="5" nType="1" pos="l" purity="0.624645981855" res="0.0e+01" rms="0.0e+00" /><Node Cut="0.0e+00" IVar="-1" NCoef="0" cType="1" depth="5" nType="-1" pos="r" purity="0.449299091302" res="0.0e+01" rms="0.0e+00" /></Node><Node Cut="0.0e+00" IVar="-1" NCoef="0" cType="1" depth="4" nType="1" pos="r" purity="0.572377932053" res="0.0e+01" rms="0.0e+00" /></Node><Node Cut="0.41572445631" IVar="1" NCoef="0" cType="1" depth="3" nType="0" pos="r" purity="0.0e+00" res="0.0e+01" rms="0.0e+00"><Node Cut="0.0e+00" IVar="-1" NCoef="0" cType="1" depth="4" nType="-1" pos="l" purity="0.476967674734" res="0.0e+01" rms="0.0e+00" /><Node Cut="0.0e+00" IVar="-1" NCoef="0" cType="1" depth="4" nType="-1" pos="r" purity="0.383113417751" res="0.0e+01" rms="0.0e+00" /></Node></Node></Node></Node></BinaryTree><BinaryTree boostWeight="0.171922420613" itree="14" type="DecisionTree"><Node Cut="0.0379146188498" IVar="5" NCoef="0" cType="1" depth="0" nType="0" pos="s" purity="0.0e+00" res="0.0e+01" rms="0.0e+00"><Node Cut="31.60064888" IVar="0" NCoef="0" cType="1" depth="1" nType="0" pos="l" purity="0.0e+00" res="0.0e+01" rms="0.0e+00"><Node Cut="23.2688179016" IVar="0" NCoef="0" cType="1" depth="2" nType="0" pos="l" purity="0.0e+00" res="0.0e+01" rms="0.0e+00"><Node Cut="0.624721705914" IVar="1" NCoef="0" cType="1" depth="3" nType="0" pos="l" purity="0.0e+00" res="0.0e+01" rms="0.0e+00"><Node Cut="0.0e+00" IVar="-1" NCoef="0" cType="1" depth="4" nType="1" pos="l" purity="0.528020951984" res="0.0e+01" rms="0.0e+00" /><Node Cut="0.0e+00" IVar="-1" NCoef="0" cType="1" depth="4" nType="-1" pos="r" purity="0.465164561629" res="0.0e+01" rms="0.0e+00" /></Node><Node Cut="0.0e+00" IVar="-1" NCoef="0" cType="1" depth="3" nType="1" pos="r" purity="0.63562569195" res="0.0e+01" rms="0.0e+00" /></Node><Node Cut="0.0220743957907" IVar="4" NCoef="0" cType="1" depth="2" nType="0" pos="r" purity="0.0e+00" res="0.0e+01" rms="0.0e+00"><Node Cut="39.7882843018" IVar="0" NCoef="0" cType="1" depth="3" nType="0" pos="l" purity="0.0e+00" res="0.0e+01" rms="0.0e+00"><Node Cut="0.0e+00" IVar="-1" NCoef="0" cType="1" depth="4" nType="1" pos="l" purity="0.918674474242" res="0.0e+01" rms="0.0e+00" /><Node Cut="0.00997259654105" IVar="4" NCoef="0" cType="1" depth="4" nType="0" pos="r" purity="0.0e+00" res="0.0e+01" rms="0.0e+00"><Node Cut="0.723816752434" IVar="2" NCoef="0" cType="1" depth="5" nType="0" pos="l" purity="0.0e+00" res="0.0e+01" rms="0.0e+00"><Node Cut="0.0e+00" IVar="-1" NCoef="0" cType="1" depth="6" nType="1" pos="l" purity="1.0" res="0.0e+01" rms="0.0e+00" /><Node Cut="0.0e+00" IVar="-1" NCoef="0" cType="1" depth="6" nType="1" pos="r" purity="0.988687615938" res="0.0e+01" rms="0.0e+00" /></Node><Node Cut="0.0e+00" IVar="-1" NCoef="0" cType="1" depth="5" nType="1" pos="r" purity="0.956179727975" res="0.0e+01" rms="0.0e+00" /></Node></Node><Node Cut="0.0e+00" IVar="-1" NCoef="0" cType="1" depth="3" nType="1" pos="r" purity="0.642116366179" res="0.0e+01" rms="0.0e+00" /></Node></Node><Node Cut="28.7261695862" IVar="0" NCoef="0" cType="1" depth="1" nType="0" pos="r" purity="0.0e+00" res="0.0e+01" rms="0.0e+00"><Node Cut="1.37449979782" IVar="2" NCoef="0" cType="1" depth="2" nType="0" pos="l" purity="0.0e+00" res="0.0e+01" rms="0.0e+00"><Node Cut="-0.0307838506997" IVar="3" NCoef="0" cType="1" depth="3" nType="0" pos="l" purity="0.0e+00" res="0.0e+01" rms="0.0e+00"><Node Cut="0.0e+00" IVar="-1" NCoef="0" cType="1" depth="4" nType="-1" pos="l" purity="0.464299733162" res="0.0e+01" rms="0.0e+00" /><Node Cut="0.0e+00" IVar="-1" NCoef="0" cType="1" depth="4" nType="1" pos="r" purity="0.513065913326" res="0.0e+01" rms="0.0e+00" /></Node><Node Cut="0.0e+00" IVar="-1" NCoef="0" cType="1" depth="3" nType="1" pos="r" purity="0.572114301205" res="0.0e+01" rms="0.0e+00" /></Node><Node Cut="0.0e+00" IVar="-1" NCoef="0" cType="1" depth="2" nType="-1" pos="r" purity="0.393148154137" res="0.0e+01" rms="0.0e+00" /></Node></Node></BinaryTree><BinaryTree boostWeight="0.179446700856" itree="15" type="DecisionTree"><Node Cut="59.4347305298" IVar="0" NCoef="0" cType="1" depth="0" nType="0" pos="s" purity="0.0e+00" res="0.0e+01" rms="0.0e+00"><Node Cut="0.0276284180582" IVar="5" NCoef="0" cType="1" depth="1" nType="0" pos="l" purity="0.0e+00" res="0.0e+01" rms="0.0e+00"><Node Cut="31.60064888" IVar="0" NCoef="0" cType="1" depth="2" nType="0" pos="l" purity="0.0e+00" res="0.0e+01" rms="0.0e+00"><Node Cut="-0.770573496819" IVar="1" NCoef="0" cType="1" depth="3" nType="0" pos="l" purity="0.0e+00" res="0.0e+01" rms="0.0e+00"><Node Cut="0.0e+00" IVar="-1" NCoef="0" cType="1" depth="4" nType="-1" pos="l" purity="0.445105818807" res="0.0e+01" rms="0.0e+00" /><Node Cut="18.7388534546" IVar="0" NCoef="0" cType="1" depth="4" nType="0" pos="r" purity="0.0e+00" res="0.0e+01" rms="0.0e+00"><Node Cut="0.0e+00" IVar="-1" NCoef="0" cType="1" depth="5" nType="1" pos="l" purity="0.509535388214" res="0.0e+01" rms="0.0e+00" /><Node Cut="0.00743144052103" IVar="4" NCoef="0" cType="1" depth="5" nType="0" pos="r" purity="0.0e+00" res="0.0e+01" rms="0.0e+00"><Node Cut="0.0e+00" IVar="-1" NCoef="0" cType="1" depth="6" nType="1" pos="l" purity="0.722884148999" res="0.0e+01" rms="0.0e+00" /><Node Cut="0.0e+00" IVar="-1" NCoef="0" cType="1" depth="6" nType="1" pos="r" purity="0.544503039305" res="0.0e+01" rms="0.0e+00" /></Node></Node></Node><Node Cut="0.0160598084331" IVar="4" NCoef="0" cType="1" depth="3" nType="0" pos="r" purity="0.0e+00" res="0.0e+01" rms="0.0e+00"><Node Cut="39.7882843018" IVar="0" NCoef="0" cType="1" depth="4" nType="0" pos="l" purity="0.0e+00" res="0.0e+01" rms="0.0e+00"><Node Cut="0.0e+00" IVar="-1" NCoef="0" cType="1" depth="5" nType="1" pos="l" purity="0.901805970835" res="0.0e+01" rms="0.0e+00" /><Node Cut="0.275320112705" IVar="2" NCoef="0" cType="1" depth="5" nType="0" pos="r" purity="0.0e+00" res="0.0e+01" rms="0.0e+00"><Node Cut="0.0e+00" IVar="-1" NCoef="0" cType="1" depth="6" nType="1" pos="l" purity="1.0" res="0.0e+01" rms="0.0e+00" /><Node Cut="0.0e+00" IVar="-1" NCoef="0" cType="1" depth="6" nType="1" pos="r" purity="0.969172751668" res="0.0e+01" rms="0.0e+00" /></Node></Node><Node Cut="0.0e+00" IVar="-1" NCoef="0" cType="1" depth="4" nType="1" pos="r" purity="0.646436872374" res="0.0e+01" rms="0.0e+00" /></Node></Node><Node Cut="0.0993155390024" IVar="4" NCoef="0" cType="1" depth="2" nType="0" pos="r" purity="0.0e+00" res="0.0e+01" rms="0.0e+00"><Node Cut="0.0e+00" IVar="-1" NCoef="0" cType="1" depth="3" nType="-1" pos="l" purity="0.396309472632" res="0.0e+01" rms="0.0e+00" /><Node Cut="28.0529289246" IVar="0" NCoef="0" cType="1" depth="3" nType="0" pos="r" purity="0.0e+00" res="0.0e+01" rms="0.0e+00"><Node Cut="2.0213561058" IVar="2" NCoef="0" cType="1" depth="4" nType="0" pos="l" purity="0.0e+00" res="0.0e+01" rms="0.0e+00"><Node Cut="-1.48618817329" IVar="2" NCoef="0" cType="1" depth="5" nType="0" pos="l" purity="0.0e+00" res="0.0e+01" rms="0.0e+00"><Node Cut="0.0e+00" IVar="-1" NCoef="0" cType="1" depth="6" nType="1" pos="l" purity="0.607388272098" res="0.0e+01" rms="0.0e+00" /><Node Cut="0.0e+00" IVar="-1" NCoef="0" cType="1" depth="6" nType="-1" pos="r" purity="0.468962449213" res="0.0e+01" rms="0.0e+00" /></Node><Node Cut="0.0e+00" IVar="-1" NCoef="0" cType="1" depth="5" nType="1" pos="r" purity="0.620317091093" res="0.0e+01" rms="0.0e+00" /></Node><Node Cut="0.0e+00" IVar="-1" NCoef="0" cType="1" depth="4" nType="-1" pos="r" purity="0.436789339089" res="0.0e+01" rms="0.0e+00" /></Node></Node></Node><Node Cut="0.00943749211729" IVar="4" NCoef="0" cType="1" depth="1" nType="0" pos="r" purity="0.0e+00" res="0.0e+01" rms="0.0e+00"><Node Cut="-0.265615642071" IVar="2" NCoef="0" cType="1" depth="2" nType="0" pos="l" purity="0.0e+00" res="0.0e+01" rms="0.0e+00"><Node Cut="0.0e+00" IVar="-1" NCoef="0" cType="1" depth="3" nType="1" pos="l" purity="0.989080585215" res="0.0e+01" rms="0.0e+00" /><Node Cut="0.0e+00" IVar="-1" NCoef="0" cType="1" depth="3" nType="1" pos="r" purity="1.0" res="0.0e+01" rms="0.0e+00" /></Node><Node Cut="0.0e+00" IVar="-1" NCoef="0" cType="1" depth="2" nType="1" pos="r" purity="0.600964297999" res="0.0e+01" rms="0.0e+00" /></Node></Node></BinaryTree><BinaryTree boostWeight="0.158816892012" itree="16" type="DecisionTree"><Node Cut="43.8966712952" IVar="0" NCoef="0" cType="1" depth="0" nType="0" pos="s" purity="0.0e+00" res="0.0e+01" rms="0.0e+00"><Node Cut="-2.2913711071" IVar="2" NCoef="0" cType="1" depth="1" nType="0" pos="l" purity="0.0e+00" res="0.0e+01" rms="0.0e+00"><Node Cut="0.0e+00" IVar="-1" NCoef="0" cType="1" depth="2" nType="-1" pos="l" purity="0.412286741404" res="0.0e+01" rms="0.0e+00" /><Node Cut="9.30932807922" IVar="2" NCoef="0" cType="1" depth="2" nType="0" pos="r" purity="0.0e+00" res="0.0e+01" rms="0.0e+00"><Node Cut="0.0070361411199" IVar="4" NCoef="0" cType="1" depth="3" nType="0" pos="l" purity="0.0e+00" res="0.0e+01" rms="0.0e+00"><Node Cut="27.1227684021" IVar="0" NCoef="0" cType="1" depth="4" nType="0" pos="l" purity="0.0e+00" res="0.0e+01" rms="0.0e+00"><Node Cut="0.0e+00" IVar="-1" NCoef="0" cType="1" depth="5" nType="1" pos="l" purity="0.574617616288" res="0.0e+01" rms="0.0e+00" /><Node Cut="34.8538703918" IVar="0" NCoef="0" cType="1" depth="5" nType="0" pos="r" purity="0.0e+00" res="0.0e+01" rms="0.0e+00"><Node Cut="0.0e+00" IVar="-1" NCoef="0" cType="1" depth="6" nType="1" pos="l" purity="0.766499019579" res="0.0e+01" rms="0.0e+00" /><Node Cut="0.0e+00" IVar="-1" NCoef="0" cType="1" depth="6" nType="1" pos="r" purity="0.886843932052" res="0.0e+01" rms="0.0e+00" /></Node></Node><Node Cut="0.126113817096" IVar="5" NCoef="0" cType="1" depth="4" nType="0" pos="r" purity="0.0e+00" res="0.0e+01" rms="0.0e+00"><Node Cut="0.0309302061796" IVar="4" NCoef="0" cType="1" depth="5" nType="0" pos="l" purity="0.0e+00" res="0.0e+01" rms="0.0e+00"><Node Cut="0.0e+00" IVar="-1" NCoef="0" cType="1" depth="6" nType="1" pos="l" purity="0.52276635004" res="0.0e+01" rms="0.0e+00" /><Node Cut="0.0e+00" IVar="-1" NCoef="0" cType="1" depth="6" nType="-1" pos="r" purity="0.453083124329" res="0.0e+01" rms="0.0e+00" /></Node><Node Cut="0.87304019928" IVar="2" NCoef="0" cType="1" depth="5" nType="0" pos="r" purity="0.0e+00" res="0.0e+01" rms="0.0e+00"><Node Cut="0.0e+00" IVar="-1" NCoef="0" cType="1" depth="6" nType="1" pos="l" purity="0.527482539696" res="0.0e+01" rms="0.0e+00" /><Node Cut="0.0e+00" IVar="-1" NCoef="0" cType="1" depth="6" nType="1" pos="r" purity="0.593934602649" res="0.0e+01" rms="0.0e+00" /></Node></Node></Node><Node Cut="0.0e+00" IVar="-1" NCoef="0" cType="1" depth="3" nType="-1" pos="r" purity="0.356786452658" res="0.0e+01" rms="0.0e+00" /></Node></Node><Node Cut="0.0227828323841" IVar="4" NCoef="0" cType="1" depth="1" nType="0" pos="r" purity="0.0e+00" res="0.0e+01" rms="0.0e+00"><Node Cut="0.00847195461392" IVar="4" NCoef="0" cType="1" depth="2" nType="0" pos="l" purity="0.0e+00" res="0.0e+01" rms="0.0e+00"><Node Cut="53.5111541748" IVar="0" NCoef="0" cType="1" depth="3" nType="0" pos="l" purity="0.0e+00" res="0.0e+01" rms="0.0e+00"><Node Cut="0.0e+00" IVar="-1" NCoef="0" cType="1" depth="4" nType="1" pos="l" purity="0.956015575894" res="0.0e+01" rms="0.0e+00" /><Node Cut="0.0e+00" IVar="-1" NCoef="0" cType="1" depth="4" nType="1" pos="r" purity="1.0" res="0.0e+01" rms="0.0e+00" /></Node><Node Cut="0.0e+00" IVar="-1" NCoef="0" cType="1" depth="3" nType="1" pos="r" purity="0.881243405303" res="0.0e+01" rms="0.0e+00" /></Node><Node Cut="0.0e+00" IVar="-1" NCoef="0" cType="1" depth="2" nType="-1" pos="r" purity="0.494812612584" res="0.0e+01" rms="0.0e+00" /></Node></Node></BinaryTree><BinaryTree boostWeight="0.14864811991" itree="17" type="DecisionTree"><Node Cut="43.8966712952" IVar="0" NCoef="0" cType="1" depth="0" nType="0" pos="s" purity="0.0e+00" res="0.0e+01" rms="0.0e+00"><Node Cut="0.160296902061" IVar="3" NCoef="0" cType="1" depth="1" nType="0" pos="l" purity="0.0e+00" res="0.0e+01" rms="0.0e+00"><Node Cut="11.8708782196" IVar="0" NCoef="0" cType="1" depth="2" nType="0" pos="l" purity="0.0e+00" res="0.0e+01" rms="0.0e+00"><Node Cut="0.0e+00" IVar="-1" NCoef="0" cType="1" depth="3" nType="-1" pos="l" purity="0.441798776039" res="0.0e+01" rms="0.0e+00" /><Node Cut="0.0435899049044" IVar="5" NCoef="0" cType="1" depth="3" nType="0" pos="r" purity="0.0e+00" res="0.0e+01" rms="0.0e+00"><Node Cut="31.60064888" IVar="0" NCoef="0" cType="1" depth="4" nType="0" pos="l" purity="0.0e+00" res="0.0e+01" rms="0.0e+00"><Node Cut="-0.0337045639753" IVar="3" NCoef="0" cType="1" depth="5" nType="0" pos="l" purity="0.0e+00" res="0.0e+01" rms="0.0e+00"><Node Cut="0.0e+00" IVar="-1" NCoef="0" cType="1" depth="6" nType="-1" pos="l" purity="0.468172919582" res="0.0e+01" rms="0.0e+00" /><Node Cut="0.0e+00" IVar="-1" NCoef="0" cType="1" depth="6" nType="1" pos="r" purity="0.569673419311" res="0.0e+01" rms="0.0e+00" /></Node><Node Cut="0.00768161052838" IVar="4" NCoef="0" cType="1" depth="5" nType="0" pos="r" purity="0.0e+00" res="0.0e+01" rms="0.0e+00"><Node Cut="0.0e+00" IVar="-1" NCoef="0" cType="1" depth="6" nType="1" pos="l" purity="0.930423146907" res="0.0e+01" rms="0.0e+00" /><Node Cut="0.0e+00" IVar="-1" NCoef="0" cType="1" depth="6" nType="1" pos="r" purity="0.644134016257" res="0.0e+01" rms="0.0e+00" /></Node></Node><Node Cut="0.217915982008" IVar="4" NCoef="0" cType="1" depth="4" nType="0" pos="r" purity="0.0e+00" res="0.0e+01" rms="0.0e+00"><Node Cut="0.0e+00" IVar="-1" NCoef="0" cType="1" depth="5" nType="-1" pos="l" purity="0.451505419609" res="0.0e+01" rms="0.0e+00" /><Node Cut="-0.0699037313461" IVar="3" NCoef="0" cType="1" depth="5" nType="0" pos="r" purity="0.0e+00" res="0.0e+01" rms="0.0e+00"><Node Cut="0.0e+00" IVar="-1" NCoef="0" cType="1" depth="6" nType="-1" pos="l" purity="0.470129904809" res="0.0e+01" rms="0.0e+00" /><Node Cut="0.0e+00" IVar="-1" NCoef="0" cType="1" depth="6" nType="1" pos="r" purity="0.526717196442" res="0.0e+01" rms="0.0e+00" /></Node></Node></Node></Node><Node Cut="0.0e+00" IVar="-1" NCoef="0" cType="1" depth="2" nType="-1" pos="r" purity="0.392899894372" res="0.0e+01" rms="0.0e+00" /></Node><Node Cut="0.0197919271886" IVar="4" NCoef="0" cType="1" depth="1" nType="0" pos="r" purity="0.0e+00" res="0.0e+01" rms="0.0e+00"><Node Cut="0.00847195461392" IVar="4" NCoef="0" cType="1" depth="2" nType="0" pos="l" purity="0.0e+00" res="0.0e+01" rms="0.0e+00"><Node Cut="53.5111541748" IVar="0" NCoef="0" cType="1" depth="3" nType="0" pos="l" purity="0.0e+00" res="0.0e+01" rms="0.0e+00"><Node Cut="0.0e+00" IVar="-1" NCoef="0" cType="1" depth="4" nType="1" pos="l" purity="0.948832209841" res="0.0e+01" rms="0.0e+00" /><Node Cut="0.0e+00" IVar="-1" NCoef="0" cType="1" depth="4" nType="1" pos="r" purity="1.0" res="0.0e+01" rms="0.0e+00" /></Node><Node Cut="0.0e+00" IVar="-1" NCoef="0" cType="1" depth="3" nType="1" pos="r" purity="0.886130390097" res="0.0e+01" rms="0.0e+00" /></Node><Node Cut="0.0e+00" IVar="-1" NCoef="0" cType="1" depth="2" nType="1" pos="r" purity="0.538373969469" res="0.0e+01" rms="0.0e+00" /></Node></Node></BinaryTree><BinaryTree boostWeight="0.129471274741" itree="18" type="DecisionTree"><Node Cut="44.0094985962" IVar="0" NCoef="0" cType="1" depth="0" nType="0" pos="s" purity="0.0e+00" res="0.0e+01" rms="0.0e+00"><Node Cut="0.274600833654" IVar="5" NCoef="0" cType="1" depth="1" nType="0" pos="l" purity="0.0e+00" res="0.0e+01" rms="0.0e+00"><Node Cut="0.0536972880363" IVar="4" NCoef="0" cType="1" depth="2" nType="0" pos="l" purity="0.0e+00" res="0.0e+01" rms="0.0e+00"><Node Cut="26.9123153687" IVar="0" NCoef="0" cType="1" depth="3" nType="0" pos="l" purity="0.0e+00" res="0.0e+01" rms="0.0e+00"><Node Cut="0.00318088638596" IVar="4" NCoef="0" cType="1" depth="4" nType="0" pos="l" purity="0.0e+00" res="0.0e+01" rms="0.0e+00"><Node Cut="0.0e+00" IVar="-1" NCoef="0" cType="1" depth="5" nType="1" pos="l" purity="0.501136586475" res="0.0e+01" rms="0.0e+00" /><Node Cut="0.0e+00" IVar="-1" NCoef="0" cType="1" depth="5" nType="-1" pos="r" purity="0.42717761011" res="0.0e+01" rms="0.0e+00" /></Node><Node Cut="0.00160839024466" IVar="4" NCoef="0" cType="1" depth="4" nType="0" pos="r" purity="0.0e+00" res="0.0e+01" rms="0.0e+00"><Node Cut="0.0e+00" IVar="-1" NCoef="0" cType="1" depth="5" nType="1" pos="l" purity="0.788436591044" res="0.0e+01" rms="0.0e+00" /><Node Cut="35.0098266602" IVar="0" NCoef="0" cType="1" depth="5" nType="0" pos="r" purity="0.0e+00" res="0.0e+01" rms="0.0e+00"><Node Cut="0.0e+00" IVar="-1" NCoef="0" cType="1" depth="6" nType="1" pos="l" purity="0.531032034345" res="0.0e+01" rms="0.0e+00" /><Node Cut="0.0e+00" IVar="-1" NCoef="0" cType="1" depth="6" nType="1" pos="r" purity="0.664018159579" res="0.0e+01" rms="0.0e+00" /></Node></Node></Node><Node Cut="0.0e+00" IVar="-1" NCoef="0" cType="1" depth="3" nType="1" pos="r" purity="0.558865030976" res="0.0e+01" rms="0.0e+00" /></Node><Node Cut="0.0228872969747" IVar="3" NCoef="0" cType="1" depth="2" nType="0" pos="r" purity="0.0e+00" res="0.0e+01" rms="0.0e+00"><Node Cut="0.979704976082" IVar="5" NCoef="0" cType="1" depth="3" nType="0" pos="l" purity="0.0e+00" res="0.0e+01" rms="0.0e+00"><Node Cut="0.0e+00" IVar="-1" NCoef="0" cType="1" depth="4" nType="-1" pos="l" purity="0.468028714654" res="0.0e+01" rms="0.0e+00" /><Node Cut="0.0e+00" IVar="-1" NCoef="0" cType="1" depth="4" nType="1" pos="r" purity="0.509726201744" res="0.0e+01" rms="0.0e+00" /></Node><Node Cut="0.0e+00" IVar="-1" NCoef="0" cType="1" depth="3" nType="-1" pos="r" purity="0.430269656653" res="0.0e+01" rms="0.0e+00" /></Node></Node><Node Cut="0.0197919271886" IVar="4" NCoef="0" cType="1" depth="1" nType="0" pos="r" purity="0.0e+00" res="0.0e+01" rms="0.0e+00"><Node Cut="0.00847195461392" IVar="4" NCoef="0" cType="1" depth="2" nType="0" pos="l" purity="0.0e+00" res="0.0e+01" rms="0.0e+00"><Node Cut="53.5111541748" IVar="0" NCoef="0" cType="1" depth="3" nType="0" pos="l" purity="0.0e+00" res="0.0e+01" rms="0.0e+00"><Node Cut="0.0e+00" IVar="-1" NCoef="0" cType="1" depth="4" nType="1" pos="l" purity="0.940398516351" res="0.0e+01" rms="0.0e+00" /><Node Cut="0.0e+00" IVar="-1" NCoef="0" cType="1" depth="4" nType="1" pos="r" purity="1.0" res="0.0e+01" rms="0.0e+00" /></Node><Node Cut="0.0e+00" IVar="-1" NCoef="0" cType="1" depth="3" nType="1" pos="r" purity="0.869758052554" res="0.0e+01" rms="0.0e+00" /></Node><Node Cut="0.0e+00" IVar="-1" NCoef="0" cType="1" depth="2" nType="1" pos="r" purity="0.501522736719" res="0.0e+01" rms="0.0e+00" /></Node></Node></BinaryTree><BinaryTree boostWeight="0.170687595238" itree="19" type="DecisionTree"><Node Cut="71.3613052368" IVar="0" NCoef="0" cType="1" depth="0" nType="0" pos="s" purity="0.0e+00" res="0.0e+01" rms="0.0e+00"><Node Cut="0.174131259322" IVar="4" NCoef="0" cType="1" depth="1" nType="0" pos="l" purity="0.0e+00" res="0.0e+01" rms="0.0e+00"><Node Cut="35.986541748" IVar="0" NCoef="0" cType="1" depth="2" nType="0" pos="l" purity="0.0e+00" res="0.0e+01" rms="0.0e+00"><Node Cut="0.05380904302" IVar="4" NCoef="0" cType="1" depth="3" nType="0" pos="l" purity="0.0e+00" res="0.0e+01" rms="0.0e+00"><Node Cut="-0.770263075829" IVar="2" NCoef="0" cType="1" depth="4" nType="0" pos="l" purity="0.0e+00" res="0.0e+01" rms="0.0e+00"><Node Cut="0.0e+00" IVar="-1" NCoef="0" cType="1" depth="5" nType="-1" pos="l" purity="0.375268653035" res="0.0e+01" rms="0.0e+00" /><Node Cut="0.886497020721" IVar="2" NCoef="0" cType="1" depth="5" nType="0" pos="r" purity="0.0e+00" res="0.0e+01" rms="0.0e+00"><Node Cut="0.0e+00" IVar="-1" NCoef="0" cType="1" depth="6" nType="1" pos="l" purity="0.565876043612" res="0.0e+01" rms="0.0e+00" /><Node Cut="0.0e+00" IVar="-1" NCoef="0" cType="1" depth="6" nType="-1" pos="r" purity="0.414453250918" res="0.0e+01" rms="0.0e+00" /></Node></Node><Node Cut="0.0e+00" IVar="-1" NCoef="0" cType="1" depth="4" nType="1" pos="r" purity="0.571152007071" res="0.0e+01" rms="0.0e+00" /></Node><Node Cut="0.0186758413911" IVar="4" NCoef="0" cType="1" depth="3" nType="0" pos="r" purity="0.0e+00" res="0.0e+01" rms="0.0e+00"><Node Cut="42.0820999146" IVar="0" NCoef="0" cType="1" depth="4" nType="0" pos="l" purity="0.0e+00" res="0.0e+01" rms="0.0e+00"><Node Cut="0.0e+00" IVar="-1" NCoef="0" cType="1" depth="5" nType="1" pos="l" purity="0.735353886833" res="0.0e+01" rms="0.0e+00" /><Node Cut="0.00569603033364" IVar="4" NCoef="0" cType="1" depth="5" nType="0" pos="r" purity="0.0e+00" res="0.0e+01" rms="0.0e+00"><Node Cut="0.0e+00" IVar="-1" NCoef="0" cType="1" depth="6" nType="1" pos="l" purity="0.97136864589" res="0.0e+01" rms="0.0e+00" /><Node Cut="0.0e+00" IVar="-1" NCoef="0" cType="1" depth="6" nType="1" pos="r" purity="0.86060349126" res="0.0e+01" rms="0.0e+00" /></Node></Node><Node Cut="0.0e+00" IVar="-1" NCoef="0" cType="1" depth="4" nType="1" pos="r" purity="0.525785307458" res="0.0e+01" rms="0.0e+00" /></Node></Node><Node Cut="-1.48618817329" IVar="2" NCoef="0" cType="1" depth="2" nType="0" pos="r" purity="0.0e+00" res="0.0e+01" rms="0.0e+00"><Node Cut="0.0e+00" IVar="-1" NCoef="0" cType="1" depth="3" nType="1" pos="l" purity="0.542453211484" res="0.0e+01" rms="0.0e+00" /><Node Cut="1.37520861626" IVar="2" NCoef="0" cType="1" depth="3" nType="0" pos="r" purity="0.0e+00" res="0.0e+01" rms="0.0e+00"><Node Cut="0.0e+00" IVar="-1" NCoef="0" cType="1" depth="4" nType="-1" pos="l" purity="0.42630557289" res="0.0e+01" rms="0.0e+00" /><Node Cut="0.0e+00" IVar="-1" NCoef="0" cType="1" depth="4" nType="1" pos="r" purity="0.52894131632" res="0.0e+01" rms="0.0e+00" /></Node></Node></Node><Node Cut="0.00475982157513" IVar="4" NCoef="0" cType="1" depth="1" nType="0" pos="r" purity="0.0e+00" res="0.0e+01" rms="0.0e+00"><Node Cut="0.0e+00" IVar="-1" NCoef="0" cType="1" depth="2" nType="1" pos="l" purity="1.0" res="0.0e+01" rms="0.0e+00" /><Node Cut="0.0e+00" IVar="-1" NCoef="0" cType="1" depth="2" nType="1" pos="r" purity="0.626471632981" res="0.0e+01" rms="0.0e+00" /></Node></Node></BinaryTree><BinaryTree boostWeight="0.120067259144" itree="20" type="DecisionTree"><Node Cut="71.3613052368" IVar="0" NCoef="0" cType="1" depth="0" nType="0" pos="s" purity="0.0e+00" res="0.0e+01" rms="0.0e+00"><Node Cut="10.1697597504" IVar="2" NCoef="0" cType="1" depth="1" nType="0" pos="l" purity="0.0e+00" res="0.0e+01" rms="0.0e+00"><Node Cut="-10.101184845" IVar="2" NCoef="0" cType="1" depth="2" nType="0" pos="l" purity="0.0e+00" res="0.0e+01" rms="0.0e+00"><Node Cut="0.0e+00" IVar="-1" NCoef="0" cType="1" depth="3" nType="-1" pos="l" purity="0.365416669766" res="0.0e+01" rms="0.0e+00" /><Node Cut="0.0101379128173" IVar="4" NCoef="0" cType="1" depth="3" nType="0" pos="r" purity="0.0e+00" res="0.0e+01" rms="0.0e+00"><Node Cut="30.647277832" IVar="0" NCoef="0" cType="1" depth="4" nType="0" pos="l" purity="0.0e+00" res="0.0e+01" rms="0.0e+00"><Node Cut="0.011669636704" IVar="3" NCoef="0" cType="1" depth="5" nType="0" pos="l" purity="0.0e+00" res="0.0e+01" rms="0.0e+00"><Node Cut="0.0e+00" IVar="-1" NCoef="0" cType="1" depth="6" nType="1" pos="l" purity="0.532606553248" res="0.0e+01" rms="0.0e+00" /><Node Cut="0.0e+00" IVar="-1" NCoef="0" cType="1" depth="6" nType="-1" pos="r" purity="0.461421885617" res="0.0e+01" rms="0.0e+00" /></Node><Node Cut="41.9973068237" IVar="0" NCoef="0" cType="1" depth="5" nType="0" pos="r" purity="0.0e+00" res="0.0e+01" rms="0.0e+00"><Node Cut="0.0e+00" IVar="-1" NCoef="0" cType="1" depth="6" nType="1" pos="l" purity="0.730019649552" res="0.0e+01" rms="0.0e+00" /><Node Cut="0.0e+00" IVar="-1" NCoef="0" cType="1" depth="6" nType="1" pos="r" purity="0.961512092882" res="0.0e+01" rms="0.0e+00" /></Node></Node><Node Cut="0.126184165478" IVar="5" NCoef="0" cType="1" depth="4" nType="0" pos="r" purity="0.0e+00" res="0.0e+01" rms="0.0e+00"><Node Cut="0.0619406662881" IVar="4" NCoef="0" cType="1" depth="5" nType="0" pos="l" purity="0.0e+00" res="0.0e+01" rms="0.0e+00"><Node Cut="0.0e+00" IVar="-1" NCoef="0" cType="1" depth="6" nType="1" pos="l" purity="0.510330580759" res="0.0e+01" rms="0.0e+00" /><Node Cut="0.0e+00" IVar="-1" NCoef="0" cType="1" depth="6" nType="-1" pos="r" purity="0.428203295295" res="0.0e+01" rms="0.0e+00" /></Node><Node Cut="0.624537110329" IVar="1" NCoef="0" cType="1" depth="5" nType="0" pos="r" purity="0.0e+00" res="0.0e+01" rms="0.0e+00"><Node Cut="0.0e+00" IVar="-1" NCoef="0" cType="1" depth="6" nType="1" pos="l" purity="0.53564133252" res="0.0e+01" rms="0.0e+00" /><Node Cut="0.0e+00" IVar="-1" NCoef="0" cType="1" depth="6" nType="-1" pos="r" purity="0.48808751804" res="0.0e+01" rms="0.0e+00" /></Node></Node></Node></Node><Node Cut="0.0e+00" IVar="-1" NCoef="0" cType="1" depth="2" nType="-1" pos="r" purity="0.352094486494" res="0.0e+01" rms="0.0e+00" /></Node><Node Cut="0.00475982157513" IVar="4" NCoef="0" cType="1" depth="1" nType="0" pos="r" purity="0.0e+00" res="0.0e+01" rms="0.0e+00"><Node Cut="0.0e+00" IVar="-1" NCoef="0" cType="1" depth="2" nType="1" pos="l" purity="1.0" res="0.0e+01" rms="0.0e+00" /><Node Cut="0.0e+00" IVar="-1" NCoef="0" cType="1" depth="2" nType="1" pos="r" purity="0.585749642717" res="0.0e+01" rms="0.0e+00" /></Node></Node></BinaryTree><BinaryTree boostWeight="0.108292318411" itree="21" type="DecisionTree"><Node Cut="0.0101379025728" IVar="4" NCoef="0" cType="1" depth="0" nType="0" pos="s" purity="0.0e+00" res="0.0e+01" rms="0.0e+00"><Node Cut="40.4169006348" IVar="0" NCoef="0" cType="1" depth="1" nType="0" pos="l" purity="0.0e+00" res="0.0e+01" rms="0.0e+00"><Node Cut="27.1836738586" IVar="0" NCoef="0" cType="1" depth="2" nType="0" pos="l" purity="0.0e+00" res="0.0e+01" rms="0.0e+00"><Node Cut="-0.00420721573755" IVar="3" NCoef="0" cType="1" depth="3" nType="0" pos="l" purity="0.0e+00" res="0.0e+01" rms="0.0e+00"><Node Cut="0.0e+00" IVar="-1" NCoef="0" cType="1" depth="4" nType="-1" pos="l" purity="0.447105826114" res="0.0e+01" rms="0.0e+00" /><Node Cut="0.0e+00" IVar="-1" NCoef="0" cType="1" depth="4" nType="-1" pos="r" purity="0.494946743584" res="0.0e+01" rms="0.0e+00" /></Node><Node Cut="0.0e+00" IVar="-1" NCoef="0" cType="1" depth="3" nType="1" pos="r" purity="0.644537547285" res="0.0e+01" rms="0.0e+00" /></Node><Node Cut="48.3691482544" IVar="0" NCoef="0" cType="1" depth="2" nType="0" pos="r" purity="0.0e+00" res="0.0e+01" rms="0.0e+00"><Node Cut="0.0e+00" IVar="-1" NCoef="0" cType="1" depth="3" nType="1" pos="l" purity="0.881687558937" res="0.0e+01" rms="0.0e+00" /><Node Cut="-0.904454767704" IVar="1" NCoef="0" cType="1" depth="3" nType="0" pos="r" purity="0.0e+00" res="0.0e+01" rms="0.0e+00"><Node Cut="0.0e+00" IVar="-1" NCoef="0" cType="1" depth="4" nType="1" pos="l" purity="0.953306727847" res="0.0e+01" rms="0.0e+00" /><Node Cut="0.471416056156" IVar="2" NCoef="0" cType="1" depth="4" nType="0" pos="r" purity="0.0e+00" res="0.0e+01" rms="0.0e+00"><Node Cut="0.0e+00" IVar="-1" NCoef="0" cType="1" depth="5" nType="1" pos="l" purity="1.0" res="0.0e+01" rms="0.0e+00" /><Node Cut="0.0e+00" IVar="-1" NCoef="0" cType="1" depth="5" nType="1" pos="r" purity="0.993643492766" res="0.0e+01" rms="0.0e+00" /></Node></Node></Node></Node><Node Cut="-0.690628647804" IVar="1" NCoef="0" cType="1" depth="1" nType="0" pos="r" purity="0.0e+00" res="0.0e+01" rms="0.0e+00"><Node Cut="-0.0176246911287" IVar="3" NCoef="0" cType="1" depth="2" nType="0" pos="l" purity="0.0e+00" res="0.0e+01" rms="0.0e+00"><Node Cut="0.0e+00" IVar="-1" NCoef="0" cType="1" depth="3" nType="-1" pos="l" purity="0.412802690908" res="0.0e+01" rms="0.0e+00" /><Node Cut="0.0e+00" IVar="-1" NCoef="0" cType="1" depth="3" nType="-1" pos="r" purity="0.476823657808" res="0.0e+01" rms="0.0e+00" /></Node><Node Cut="0.900944054127" IVar="1" NCoef="0" cType="1" depth="2" nType="0" pos="r" purity="0.0e+00" res="0.0e+01" rms="0.0e+00"><Node Cut="0.163985460997" IVar="4" NCoef="0" cType="1" depth="3" nType="0" pos="l" purity="0.0e+00" res="0.0e+01" rms="0.0e+00"><Node Cut="-0.0980476886034" IVar="2" NCoef="0" cType="1" depth="4" nType="0" pos="l" purity="0.0e+00" res="0.0e+01" rms="0.0e+00"><Node Cut="0.0e+00" IVar="-1" NCoef="0" cType="1" depth="5" nType="1" pos="l" purity="0.518356445038" res="0.0e+01" rms="0.0e+00" /><Node Cut="0.0e+00" IVar="-1" NCoef="0" cType="1" depth="5" nType="1" pos="r" purity="0.579322221673" res="0.0e+01" rms="0.0e+00" /></Node><Node Cut="-0.031272675842" IVar="3" NCoef="0" cType="1" depth="4" nType="0" pos="r" purity="0.0e+00" res="0.0e+01" rms="0.0e+00"><Node Cut="0.0e+00" IVar="-1" NCoef="0" cType="1" depth="5" nType="1" pos="l" purity="0.520840208502" res="0.0e+01" rms="0.0e+00" /><Node Cut="0.0e+00" IVar="-1" NCoef="0" cType="1" depth="5" nType="-1" pos="r" purity="0.473776599517" res="0.0e+01" rms="0.0e+00" /></Node></Node><Node Cut="0.126240998507" IVar="5" NCoef="0" cType="1" depth="3" nType="0" pos="r" purity="0.0e+00" res="0.0e+01" rms="0.0e+00"><Node Cut="0.0e+00" IVar="-1" NCoef="0" cType="1" depth="4" nType="-1" pos="l" purity="0.406841632314" res="0.0e+01" rms="0.0e+00" /><Node Cut="0.0e+00" IVar="-1" NCoef="0" cType="1" depth="4" nType="1" pos="r" purity="0.503008738019" res="0.0e+01" rms="0.0e+00" /></Node></Node></Node></Node></BinaryTree><BinaryTree boostWeight="0.102377409803" itree="22" type="DecisionTree"><Node Cut="0.0101379025728" IVar="4" NCoef="0" cType="1" depth="0" nType="0" pos="s" purity="0.0e+00" res="0.0e+01" rms="0.0e+00"><Node Cut="40.4169006348" IVar="0" NCoef="0" cType="1" depth="1" nType="0" pos="l" purity="0.0e+00" res="0.0e+01" rms="0.0e+00"><Node Cut="-0.0273335538805" IVar="3" NCoef="0" cType="1" depth="2" nType="0" pos="l" purity="0.0e+00" res="0.0e+01" rms="0.0e+00"><Node Cut="0.0e+00" IVar="-1" NCoef="0" cType="1" depth="3" nType="-1" pos="l" purity="0.449014253979" res="0.0e+01" rms="0.0e+00" /><Node Cut="0.0274801775813" IVar="3" NCoef="0" cType="1" depth="3" nType="0" pos="r" purity="0.0e+00" res="0.0e+01" rms="0.0e+00"><Node Cut="26.0495872498" IVar="0" NCoef="0" cType="1" depth="4" nType="0" pos="l" purity="0.0e+00" res="0.0e+01" rms="0.0e+00"><Node Cut="0.0e+00" IVar="-1" NCoef="0" cType="1" depth="5" nType="1" pos="l" purity="0.586716002208" res="0.0e+01" rms="0.0e+00" /><Node Cut="0.0e+00" IVar="-1" NCoef="0" cType="1" depth="5" nType="1" pos="r" purity="0.717900736049" res="0.0e+01" rms="0.0e+00" /></Node><Node Cut="0.0e+00" IVar="-1" NCoef="0" cType="1" depth="4" nType="-1" pos="r" purity="0.473516417765" res="0.0e+01" rms="0.0e+00" /></Node></Node><Node Cut="48.3691482544" IVar="0" NCoef="0" cType="1" depth="2" nType="0" pos="r" purity="0.0e+00" res="0.0e+01" rms="0.0e+00"><Node Cut="0.0e+00" IVar="-1" NCoef="0" cType="1" depth="3" nType="1" pos="l" purity="0.869916027478" res="0.0e+01" rms="0.0e+00" /><Node Cut="-0.904454767704" IVar="1" NCoef="0" cType="1" depth="3" nType="0" pos="r" purity="0.0e+00" res="0.0e+01" rms="0.0e+00"><Node Cut="0.0e+00" IVar="-1" NCoef="0" cType="1" depth="4" nType="1" pos="l" purity="0.948242665757" res="0.0e+01" rms="0.0e+00" /><Node Cut="0.471416056156" IVar="2" NCoef="0" cType="1" depth="4" nType="0" pos="r" purity="0.0e+00" res="0.0e+01" rms="0.0e+00"><Node Cut="0.0e+00" IVar="-1" NCoef="0" cType="1" depth="5" nType="1" pos="l" purity="1.0" res="0.0e+01" rms="0.0e+00" /><Node Cut="0.0e+00" IVar="-1" NCoef="0" cType="1" depth="5" nType="1" pos="r" purity="0.992921623197" res="0.0e+01" rms="0.0e+00" /></Node></Node></Node></Node><Node Cut="9.79689598083" IVar="2" NCoef="0" cType="1" depth="1" nType="0" pos="r" purity="0.0e+00" res="0.0e+01" rms="0.0e+00"><Node Cut="0.865512907505" IVar="2" NCoef="0" cType="1" depth="2" nType="0" pos="l" purity="0.0e+00" res="0.0e+01" rms="0.0e+00"><Node Cut="0.125907480717" IVar="5" NCoef="0" cType="1" depth="3" nType="0" pos="l" purity="0.0e+00" res="0.0e+01" rms="0.0e+00"><Node Cut="0.0234072320163" IVar="4" NCoef="0" cType="1" depth="4" nType="0" pos="l" purity="0.0e+00" res="0.0e+01" rms="0.0e+00"><Node Cut="0.0e+00" IVar="-1" NCoef="0" cType="1" depth="5" nType="1" pos="l" purity="0.514512934735" res="0.0e+01" rms="0.0e+00" /><Node Cut="29.9033317566" IVar="0" NCoef="0" cType="1" depth="5" nType="0" pos="r" purity="0.0e+00" res="0.0e+01" rms="0.0e+00"><Node Cut="0.0e+00" IVar="-1" NCoef="0" cType="1" depth="6" nType="-1" pos="l" purity="0.453699917547" res="0.0e+01" rms="0.0e+00" /><Node Cut="0.0e+00" IVar="-1" NCoef="0" cType="1" depth="6" nType="-1" pos="r" purity="0.390984026883" res="0.0e+01" rms="0.0e+00" /></Node></Node><Node Cut="1.47132575512" IVar="5" NCoef="0" cType="1" depth="4" nType="0" pos="r" purity="0.0e+00" res="0.0e+01" rms="0.0e+00"><Node Cut="0.0e+00" IVar="-1" NCoef="0" cType="1" depth="5" nType="1" pos="l" purity="0.503916001551" res="0.0e+01" rms="0.0e+00" /><Node Cut="0.0e+00" IVar="-1" NCoef="0" cType="1" depth="5" nType="-1" pos="r" purity="0.460098528233" res="0.0e+01" rms="0.0e+00" /></Node></Node><Node Cut="0.0e+00" IVar="-1" NCoef="0" cType="1" depth="3" nType="1" pos="r" purity="0.539578804578" res="0.0e+01" rms="0.0e+00" /></Node><Node Cut="0.0e+00" IVar="-1" NCoef="0" cType="1" depth="2" nType="-1" pos="r" purity="0.402804220531" res="0.0e+01" rms="0.0e+00" /></Node></Node></BinaryTree><BinaryTree boostWeight="0.115283167672" itree="23" type="DecisionTree"><Node Cut="0.0101379025728" IVar="4" NCoef="0" cType="1" depth="0" nType="0" pos="s" purity="0.0e+00" res="0.0e+01" rms="0.0e+00"><Node Cut="40.4169006348" IVar="0" NCoef="0" cType="1" depth="1" nType="0" pos="l" purity="0.0e+00" res="0.0e+01" rms="0.0e+00"><Node Cut="24.6324577332" IVar="0" NCoef="0" cType="1" depth="2" nType="0" pos="l" purity="0.0e+00" res="0.0e+01" rms="0.0e+00"><Node Cut="0.0e+00" IVar="-1" NCoef="0" cType="1" depth="3" nType="1" pos="l" purity="0.503057512358" res="0.0e+01" rms="0.0e+00" /><Node Cut="-0.000446685939096" IVar="4" NCoef="0" cType="1" depth="3" nType="0" pos="r" purity="0.0e+00" res="0.0e+01" rms="0.0e+00"><Node Cut="0.0e+00" IVar="-1" NCoef="0" cType="1" depth="4" nType="1" pos="l" purity="0.671250709338" res="0.0e+01" rms="0.0e+00" /><Node Cut="0.0e+00" IVar="-1" NCoef="0" cType="1" depth="4" nType="1" pos="r" purity="0.547502263183" res="0.0e+01" rms="0.0e+00" /></Node></Node><Node Cut="48.3691482544" IVar="0" NCoef="0" cType="1" depth="2" nType="0" pos="r" purity="0.0e+00" res="0.0e+01" rms="0.0e+00"><Node Cut="0.0e+00" IVar="-1" NCoef="0" cType="1" depth="3" nType="1" pos="l" purity="0.85788568564" res="0.0e+01" rms="0.0e+00" /><Node Cut="-0.904454767704" IVar="1" NCoef="0" cType="1" depth="3" nType="0" pos="r" purity="0.0e+00" res="0.0e+01" rms="0.0e+00"><Node Cut="0.0e+00" IVar="-1" NCoef="0" cType="1" depth="4" nType="1" pos="l" purity="0.942981285038" res="0.0e+01" rms="0.0e+00" /><Node Cut="0.471416056156" IVar="2" NCoef="0" cType="1" depth="4" nType="0" pos="r" purity="0.0e+00" res="0.0e+01" rms="0.0e+00"><Node Cut="0.0e+00" IVar="-1" NCoef="0" cType="1" depth="5" nType="1" pos="l" purity="1.0" res="0.0e+01" rms="0.0e+00" /><Node Cut="0.0e+00" IVar="-1" NCoef="0" cType="1" depth="5" nType="1" pos="r" purity="0.992164542566" res="0.0e+01" rms="0.0e+00" /></Node></Node></Node></Node><Node Cut="0.229362621903" IVar="5" NCoef="0" cType="1" depth="1" nType="0" pos="r" purity="0.0e+00" res="0.0e+01" rms="0.0e+00"><Node Cut="16.7865905762" IVar="0" NCoef="0" cType="1" depth="2" nType="0" pos="l" purity="0.0e+00" res="0.0e+01" rms="0.0e+00"><Node Cut="0.0e+00" IVar="-1" NCoef="0" cType="1" depth="3" nType="1" pos="l" purity="0.534879446205" res="0.0e+01" rms="0.0e+00" /><Node Cut="0.645267367363" IVar="1" NCoef="0" cType="1" depth="3" nType="0" pos="r" purity="0.0e+00" res="0.0e+01" rms="0.0e+00"><Node Cut="-0.741875767708" IVar="1" NCoef="0" cType="1" depth="4" nType="0" pos="l" purity="0.0e+00" res="0.0e+01" rms="0.0e+00"><Node Cut="0.0e+00" IVar="-1" NCoef="0" cType="1" depth="5" nType="-1" pos="l" purity="0.459243711556" res="0.0e+01" rms="0.0e+00" /><Node Cut="0.0268529616296" IVar="4" NCoef="0" cType="1" depth="5" nType="0" pos="r" purity="0.0e+00" res="0.0e+01" rms="0.0e+00"><Node Cut="0.0e+00" IVar="-1" NCoef="0" cType="1" depth="6" nType="1" pos="l" purity="0.586085624741" res="0.0e+01" rms="0.0e+00" /><Node Cut="0.0e+00" IVar="-1" NCoef="0" cType="1" depth="6" nType="1" pos="r" purity="0.52232928814" res="0.0e+01" rms="0.0e+00" /></Node></Node><Node Cut="0.0e+00" IVar="-1" NCoef="0" cType="1" depth="4" nType="-1" pos="r" purity="0.435607224036" res="0.0e+01" rms="0.0e+00" /></Node></Node><Node Cut="0.499078899622" IVar="4" NCoef="0" cType="1" depth="2" nType="0" pos="r" purity="0.0e+00" res="0.0e+01" rms="0.0e+00"><Node Cut="0.0e+00" IVar="-1" NCoef="0" cType="1" depth="3" nType="-1" pos="l" purity="0.427533016487" res="0.0e+01" rms="0.0e+00" /><Node Cut="17.3285560608" IVar="0" NCoef="0" cType="1" depth="3" nType="0" pos="r" purity="0.0e+00" res="0.0e+01" rms="0.0e+00"><Node Cut="0.0e+00" IVar="-1" NCoef="0" cType="1" depth="4" nType="-1" pos="l" purity="0.439583024979" res="0.0e+01" rms="0.0e+00" /><Node Cut="0.0e+00" IVar="-1" NCoef="0" cType="1" depth="4" nType="1" pos="r" purity="0.535190325274" res="0.0e+01" rms="0.0e+00" /></Node></Node></Node></Node></BinaryTree><BinaryTree boostWeight="0.131316240162" itree="24" type="DecisionTree"><Node Cut="80.9460220337" IVar="0" NCoef="0" cType="1" depth="0" nType="0" pos="s" purity="0.0e+00" res="0.0e+01" rms="0.0e+00"><Node Cut="0.022606741637" IVar="5" NCoef="0" cType="1" depth="1" nType="0" pos="l" purity="0.0e+00" res="0.0e+01" rms="0.0e+00"><Node Cut="34.7757148743" IVar="0" NCoef="0" cType="1" depth="2" nType="0" pos="l" purity="0.0e+00" res="0.0e+01" rms="0.0e+00"><Node Cut="19.6375694275" IVar="0" NCoef="0" cType="1" depth="3" nType="0" pos="l" purity="0.0e+00" res="0.0e+01" rms="0.0e+00"><Node Cut="14.6545028687" IVar="0" NCoef="0" cType="1" depth="4" nType="0" pos="l" purity="0.0e+00" res="0.0e+01" rms="0.0e+00"><Node Cut="0.0e+00" IVar="-1" NCoef="0" cType="1" depth="5" nType="-1" pos="l" purity="0.455365424328" res="0.0e+01" rms="0.0e+00" /><Node Cut="0.0e+00" IVar="-1" NCoef="0" cType="1" depth="5" nType="-1" pos="r" purity="0.48441682159" res="0.0e+01" rms="0.0e+00" /></Node><Node Cut="0.00753862038255" IVar="4" NCoef="0" cType="1" depth="4" nType="0" pos="r" purity="0.0e+00" res="0.0e+01" rms="0.0e+00"><Node Cut="0.0e+00" IVar="-1" NCoef="0" cType="1" depth="5" nType="1" pos="l" purity="0.645550340605" res="0.0e+01" rms="0.0e+00" /><Node Cut="0.0e+00" IVar="-1" NCoef="0" cType="1" depth="5" nType="1" pos="r" purity="0.508073666782" res="0.0e+01" rms="0.0e+00" /></Node></Node><Node Cut="0.0147842401639" IVar="4" NCoef="0" cType="1" depth="3" nType="0" pos="r" purity="0.0e+00" res="0.0e+01" rms="0.0e+00"><Node Cut="41.3640441895" IVar="0" NCoef="0" cType="1" depth="4" nType="0" pos="l" purity="0.0e+00" res="0.0e+01" rms="0.0e+00"><Node Cut="0.0e+00" IVar="-1" NCoef="0" cType="1" depth="5" nType="1" pos="l" purity="0.799854469124" res="0.0e+01" rms="0.0e+00" /><Node Cut="0.534472227097" IVar="2" NCoef="0" cType="1" depth="5" nType="0" pos="r" purity="0.0e+00" res="0.0e+01" rms="0.0e+00"><Node Cut="0.0e+00" IVar="-1" NCoef="0" cType="1" depth="6" nType="1" pos="l" purity="1.0" res="0.0e+01" rms="0.0e+00" /><Node Cut="0.0e+00" IVar="-1" NCoef="0" cType="1" depth="6" nType="1" pos="r" purity="0.956707830295" res="0.0e+01" rms="0.0e+00" /></Node></Node><Node Cut="0.0e+00" IVar="-1" NCoef="0" cType="1" depth="4" nType="1" pos="r" purity="0.626708421803" res="0.0e+01" rms="0.0e+00" /></Node></Node><Node Cut="0.127160936594" IVar="5" NCoef="0" cType="1" depth="2" nType="0" pos="r" purity="0.0e+00" res="0.0e+01" rms="0.0e+00"><Node Cut="0.0e+00" IVar="-1" NCoef="0" cType="1" depth="3" nType="-1" pos="l" purity="0.377321836339" res="0.0e+01" rms="0.0e+00" /><Node Cut="28.7297325134" IVar="0" NCoef="0" cType="1" depth="3" nType="0" pos="r" purity="0.0e+00" res="0.0e+01" rms="0.0e+00"><Node Cut="0.570625424385" IVar="5" NCoef="0" cType="1" depth="4" nType="0" pos="l" purity="0.0e+00" res="0.0e+01" rms="0.0e+00"><Node Cut="0.0e+00" IVar="-1" NCoef="0" cType="1" depth="5" nType="1" pos="l" purity="0.559950804673" res="0.0e+01" rms="0.0e+00" /><Node Cut="17.4054870605" IVar="0" NCoef="0" cType="1" depth="5" nType="0" pos="r" purity="0.0e+00" res="0.0e+01" rms="0.0e+00"><Node Cut="0.0e+00" IVar="-1" NCoef="0" cType="1" depth="6" nType="-1" pos="l" purity="0.450679093096" res="0.0e+01" rms="0.0e+00" /><Node Cut="0.0e+00" IVar="-1" NCoef="0" cType="1" depth="6" nType="1" pos="r" purity="0.504418805413" res="0.0e+01" rms="0.0e+00" /></Node></Node><Node Cut="0.0e+00" IVar="-1" NCoef="0" cType="1" depth="4" nType="-1" pos="r" purity="0.450319803167" res="0.0e+01" rms="0.0e+00" /></Node></Node></Node><Node Cut="0.0022257543169" IVar="4" NCoef="0" cType="1" depth="1" nType="0" pos="r" purity="0.0e+00" res="0.0e+01" rms="0.0e+00"><Node Cut="0.0e+00" IVar="-1" NCoef="0" cType="1" depth="2" nType="1" pos="l" purity="1.0" res="0.0e+01" rms="0.0e+00" /><Node Cut="0.0e+00" IVar="-1" NCoef="0" cType="1" depth="2" nType="1" pos="r" purity="0.618392629089" res="0.0e+01" rms="0.0e+00" /></Node></Node></BinaryTree><BinaryTree boostWeight="0.128548467011" itree="25" type="DecisionTree"><Node Cut="0.0435910373926" IVar="5" NCoef="0" cType="1" depth="0" nType="0" pos="s" purity="0.0e+00" res="0.0e+01" rms="0.0e+00"><Node Cut="39.7910385132" IVar="0" NCoef="0" cType="1" depth="1" nType="0" pos="l" purity="0.0e+00" res="0.0e+01" rms="0.0e+00"><Node Cut="31.60064888" IVar="0" NCoef="0" cType="1" depth="2" nType="0" pos="l" purity="0.0e+00" res="0.0e+01" rms="0.0e+00"><Node Cut="1.15389490128" IVar="1" NCoef="0" cType="1" depth="3" nType="0" pos="l" purity="0.0e+00" res="0.0e+01" rms="0.0e+00"><Node Cut="-0.013750154525" IVar="3" NCoef="0" cType="1" depth="4" nType="0" pos="l" purity="0.0e+00" res="0.0e+01" rms="0.0e+00"><Node Cut="0.0e+00" IVar="-1" NCoef="0" cType="1" depth="5" nType="-1" pos="l" purity="0.488378037127" res="0.0e+01" rms="0.0e+00" /><Node Cut="0.0247273426503" IVar="3" NCoef="0" cType="1" depth="5" nType="0" pos="r" purity="0.0e+00" res="0.0e+01" rms="0.0e+00"><Node Cut="0.0e+00" IVar="-1" NCoef="0" cType="1" depth="6" nType="1" pos="l" purity="0.563160584943" res="0.0e+01" rms="0.0e+00" /><Node Cut="0.0e+00" IVar="-1" NCoef="0" cType="1" depth="6" nType="1" pos="r" purity="0.507207297676" res="0.0e+01" rms="0.0e+00" /></Node></Node><Node Cut="0.0e+00" IVar="-1" NCoef="0" cType="1" depth="4" nType="-1" pos="r" purity="0.45971430046" res="0.0e+01" rms="0.0e+00" /></Node><Node Cut="0.0e+00" IVar="-1" NCoef="0" cType="1" depth="3" nType="1" pos="r" purity="0.604413941899" res="0.0e+01" rms="0.0e+00" /></Node><Node Cut="0.0147842401639" IVar="4" NCoef="0" cType="1" depth="2" nType="0" pos="r" purity="0.0e+00" res="0.0e+01" rms="0.0e+00"><Node Cut="48.4125556946" IVar="0" NCoef="0" cType="1" depth="3" nType="0" pos="l" purity="0.0e+00" res="0.0e+01" rms="0.0e+00"><Node Cut="0.0e+00" IVar="-1" NCoef="0" cType="1" depth="4" nType="1" pos="l" purity="0.954241690099" res="0.0e+01" rms="0.0e+00" /><Node Cut="0.0e+00" IVar="-1" NCoef="0" cType="1" depth="4" nType="1" pos="r" purity="1.0" res="0.0e+01" rms="0.0e+00" /></Node><Node Cut="0.0e+00" IVar="-1" NCoef="0" cType="1" depth="3" nType="1" pos="r" purity="0.581239968903" res="0.0e+01" rms="0.0e+00" /></Node></Node><Node Cut="15.7936601639" IVar="0" NCoef="0" cType="1" depth="1" nType="0" pos="r" purity="0.0e+00" res="0.0e+01" rms="0.0e+00"><Node Cut="0.894718766212" IVar="4" NCoef="0" cType="1" depth="2" nType="0" pos="l" purity="0.0e+00" res="0.0e+01" rms="0.0e+00"><Node Cut="0.0e+00" IVar="-1" NCoef="0" cType="1" depth="3" nType="1" pos="l" purity="0.576057162761" res="0.0e+01" rms="0.0e+00" /><Node Cut="0.0e+00" IVar="-1" NCoef="0" cType="1" depth="3" nType="-1" pos="r" purity="0.447185724592" res="0.0e+01" rms="0.0e+00" /></Node><Node Cut="0.486161708832" IVar="5" NCoef="0" cType="1" depth="2" nType="0" pos="r" purity="0.0e+00" res="0.0e+01" rms="0.0e+00"><Node Cut="0.0e+00" IVar="-1" NCoef="0" cType="1" depth="3" nType="-1" pos="l" purity="0.420851313431" res="0.0e+01" rms="0.0e+00" /><Node Cut="24.181388855" IVar="0" NCoef="0" cType="1" depth="3" nType="0" pos="r" purity="0.0e+00" res="0.0e+01" rms="0.0e+00"><Node Cut="0.0e+00" IVar="-1" NCoef="0" cType="1" depth="4" nType="-1" pos="l" purity="0.454577159491" res="0.0e+01" rms="0.0e+00" /><Node Cut="0.0e+00" IVar="-1" NCoef="0" cType="1" depth="4" nType="1" pos="r" purity="0.533730158292" res="0.0e+01" rms="0.0e+00" /></Node></Node></Node></Node></BinaryTree><BinaryTree boostWeight="0.082223597753" itree="26" type="DecisionTree"><Node Cut="0.0101379025728" IVar="4" NCoef="0" cType="1" depth="0" nType="0" pos="s" purity="0.0e+00" res="0.0e+01" rms="0.0e+00"><Node Cut="40.4169006348" IVar="0" NCoef="0" cType="1" depth="1" nType="0" pos="l" purity="0.0e+00" res="0.0e+01" rms="0.0e+00"><Node Cut="24.6324577332" IVar="0" NCoef="0" cType="1" depth="2" nType="0" pos="l" purity="0.0e+00" res="0.0e+01" rms="0.0e+00"><Node Cut="0.0e+00" IVar="-1" NCoef="0" cType="1" depth="3" nType="-1" pos="l" purity="0.495804979139" res="0.0e+01" rms="0.0e+00" /><Node Cut="-0.000446685939096" IVar="4" NCoef="0" cType="1" depth="3" nType="0" pos="r" purity="0.0e+00" res="0.0e+01" rms="0.0e+00"><Node Cut="0.0e+00" IVar="-1" NCoef="0" cType="1" depth="4" nType="1" pos="l" purity="0.629887005458" res="0.0e+01" rms="0.0e+00" /><Node Cut="0.0e+00" IVar="-1" NCoef="0" cType="1" depth="4" nType="1" pos="r" purity="0.513329140697" res="0.0e+01" rms="0.0e+00" /></Node></Node><Node Cut="48.3691482544" IVar="0" NCoef="0" cType="1" depth="2" nType="0" pos="r" purity="0.0e+00" res="0.0e+01" rms="0.0e+00"><Node Cut="0.0e+00" IVar="-1" NCoef="0" cType="1" depth="3" nType="1" pos="l" purity="0.836857558796" res="0.0e+01" rms="0.0e+00" /><Node Cut="-0.904454767704" IVar="1" NCoef="0" cType="1" depth="3" nType="0" pos="r" purity="0.0e+00" res="0.0e+01" rms="0.0e+00"><Node Cut="0.0e+00" IVar="-1" NCoef="0" cType="1" depth="4" nType="1" pos="l" purity="0.936822869443" res="0.0e+01" rms="0.0e+00" /><Node Cut="0.471416056156" IVar="2" NCoef="0" cType="1" depth="4" nType="0" pos="r" purity="0.0e+00" res="0.0e+01" rms="0.0e+00"><Node Cut="0.0e+00" IVar="-1" NCoef="0" cType="1" depth="5" nType="1" pos="l" purity="1.0" res="0.0e+01" rms="0.0e+00" /><Node Cut="0.0e+00" IVar="-1" NCoef="0" cType="1" depth="5" nType="1" pos="r" purity="0.991267920427" res="0.0e+01" rms="0.0e+00" /></Node></Node></Node></Node><Node Cut="15.7936601639" IVar="0" NCoef="0" cType="1" depth="1" nType="0" pos="r" purity="0.0e+00" res="0.0e+01" rms="0.0e+00"><Node Cut="1.05223941803" IVar="2" NCoef="0" cType="1" depth="2" nType="0" pos="l" purity="0.0e+00" res="0.0e+01" rms="0.0e+00"><Node Cut="0.0e+00" IVar="-1" NCoef="0" cType="1" depth="3" nType="1" pos="l" purity="0.502543484329" res="0.0e+01" rms="0.0e+00" /><Node Cut="0.0e+00" IVar="-1" NCoef="0" cType="1" depth="3" nType="1" pos="r" purity="0.573160136601" res="0.0e+01" rms="0.0e+00" /></Node><Node Cut="3.26419234276" IVar="2" NCoef="0" cType="1" depth="2" nType="0" pos="r" purity="0.0e+00" res="0.0e+01" rms="0.0e+00"><Node Cut="-2.45312547684" IVar="2" NCoef="0" cType="1" depth="3" nType="0" pos="l" purity="0.0e+00" res="0.0e+01" rms="0.0e+00"><Node Cut="0.0e+00" IVar="-1" NCoef="0" cType="1" depth="4" nType="-1" pos="l" purity="0.402239921211" res="0.0e+01" rms="0.0e+00" /><Node Cut="35.9442443848" IVar="0" NCoef="0" cType="1" depth="4" nType="0" pos="r" purity="0.0e+00" res="0.0e+01" rms="0.0e+00"><Node Cut="0.0536919943988" IVar="4" NCoef="0" cType="1" depth="5" nType="0" pos="l" purity="0.0e+00" res="0.0e+01" rms="0.0e+00"><Node Cut="0.0e+00" IVar="-1" NCoef="0" cType="1" depth="6" nType="-1" pos="l" purity="0.441080551811" res="0.0e+01" rms="0.0e+00" /><Node Cut="0.0e+00" IVar="-1" NCoef="0" cType="1" depth="6" nType="1" pos="r" purity="0.506177327656" res="0.0e+01" rms="0.0e+00" /></Node><Node Cut="0.0266015138477" IVar="4" NCoef="0" cType="1" depth="5" nType="0" pos="r" purity="0.0e+00" res="0.0e+01" rms="0.0e+00"><Node Cut="0.0e+00" IVar="-1" NCoef="0" cType="1" depth="6" nType="1" pos="l" purity="0.798367614256" res="0.0e+01" rms="0.0e+00" /><Node Cut="0.0e+00" IVar="-1" NCoef="0" cType="1" depth="6" nType="1" pos="r" purity="0.50784625971" res="0.0e+01" rms="0.0e+00" /></Node></Node></Node><Node Cut="0.0e+00" IVar="-1" NCoef="0" cType="1" depth="3" nType="-1" pos="r" purity="0.391844391204" res="0.0e+01" rms="0.0e+00" /></Node></Node></Node></BinaryTree><BinaryTree boostWeight="0.0875874279328" itree="27" type="DecisionTree"><Node Cut="0.0101379025728" IVar="4" NCoef="0" cType="1" depth="0" nType="0" pos="s" purity="0.0e+00" res="0.0e+01" rms="0.0e+00"><Node Cut="41.9973068237" IVar="0" NCoef="0" cType="1" depth="1" nType="0" pos="l" purity="0.0e+00" res="0.0e+01" rms="0.0e+00"><Node Cut="-0.575087308884" IVar="2" NCoef="0" cType="1" depth="2" nType="0" pos="l" purity="0.0e+00" res="0.0e+01" rms="0.0e+00"><Node Cut="0.0e+00" IVar="-1" NCoef="0" cType="1" depth="3" nType="-1" pos="l" purity="0.481195649817" res="0.0e+01" rms="0.0e+00" /><Node Cut="0.694043159485" IVar="2" NCoef="0" cType="1" depth="3" nType="0" pos="r" purity="0.0e+00" res="0.0e+01" rms="0.0e+00"><Node Cut="29.5098800659" IVar="0" NCoef="0" cType="1" depth="4" nType="0" pos="l" purity="0.0e+00" res="0.0e+01" rms="0.0e+00"><Node Cut="0.0e+00" IVar="-1" NCoef="0" cType="1" depth="5" nType="1" pos="l" purity="0.585003943479" res="0.0e+01" rms="0.0e+00" /><Node Cut="0.0e+00" IVar="-1" NCoef="0" cType="1" depth="5" nType="1" pos="r" purity="0.695328479278" res="0.0e+01" rms="0.0e+00" /></Node><Node Cut="0.0e+00" IVar="-1" NCoef="0" cType="1" depth="4" nType="-1" pos="r" purity="0.486712049145" res="0.0e+01" rms="0.0e+00" /></Node></Node><Node Cut="53.5111541748" IVar="0" NCoef="0" cType="1" depth="2" nType="0" pos="r" purity="0.0e+00" res="0.0e+01" rms="0.0e+00"><Node Cut="0.0e+00" IVar="-1" NCoef="0" cType="1" depth="3" nType="1" pos="l" purity="0.887609604239" res="0.0e+01" rms="0.0e+00" /><Node Cut="0.00376905803569" IVar="4" NCoef="0" cType="1" depth="3" nType="0" pos="r" purity="0.0e+00" res="0.0e+01" rms="0.0e+00"><Node Cut="0.0e+00" IVar="-1" NCoef="0" cType="1" depth="4" nType="1" pos="l" purity="1.0" res="0.0e+01" rms="0.0e+00" /><Node Cut="0.0e+00" IVar="-1" NCoef="0" cType="1" depth="4" nType="1" pos="r" purity="0.952527298495" res="0.0e+01" rms="0.0e+00" /></Node></Node></Node><Node Cut="0.25682580471" IVar="5" NCoef="0" cType="1" depth="1" nType="0" pos="r" purity="0.0e+00" res="0.0e+01" rms="0.0e+00"><Node Cut="0.02412430197" IVar="3" NCoef="0" cType="1" depth="2" nType="0" pos="l" purity="0.0e+00" res="0.0e+01" rms="0.0e+00"><Node Cut="-0.0192690752447" IVar="3" NCoef="0" cType="1" depth="3" nType="0" pos="l" purity="0.0e+00" res="0.0e+01" rms="0.0e+00"><Node Cut="0.0e+00" IVar="-1" NCoef="0" cType="1" depth="4" nType="1" pos="l" purity="0.501786302013" res="0.0e+01" rms="0.0e+00" /><Node Cut="0.04266410321" IVar="2" NCoef="0" cType="1" depth="4" nType="0" pos="r" purity="0.0e+00" res="0.0e+01" rms="0.0e+00"><Node Cut="0.0e+00" IVar="-1" NCoef="0" cType="1" depth="5" nType="1" pos="l" purity="0.525668733842" res="0.0e+01" rms="0.0e+00" /><Node Cut="0.0e+00" IVar="-1" NCoef="0" cType="1" depth="5" nType="1" pos="r" purity="0.551283949597" res="0.0e+01" rms="0.0e+00" /></Node></Node><Node Cut="0.0e+00" IVar="-1" NCoef="0" cType="1" depth="3" nType="-1" pos="r" purity="0.465286172499" res="0.0e+01" rms="0.0e+00" /></Node><Node Cut="0.362060666084" IVar="4" NCoef="0" cType="1" depth="2" nType="0" pos="r" purity="0.0e+00" res="0.0e+01" rms="0.0e+00"><Node Cut="0.0e+00" IVar="-1" NCoef="0" cType="1" depth="3" nType="-1" pos="l" purity="0.432574792627" res="0.0e+01" rms="0.0e+00" /><Node Cut="4.9400806427" IVar="2" NCoef="0" cType="1" depth="3" nType="0" pos="r" purity="0.0e+00" res="0.0e+01" rms="0.0e+00"><Node Cut="1.22185540199" IVar="4" NCoef="0" cType="1" depth="4" nType="0" pos="l" purity="0.0e+00" res="0.0e+01" rms="0.0e+00"><Node Cut="0.0e+00" IVar="-1" NCoef="0" cType="1" depth="5" nType="-1" pos="l" purity="0.480303125261" res="0.0e+01" rms="0.0e+00" /><Node Cut="0.0e+00" IVar="-1" NCoef="0" cType="1" depth="5" nType="1" pos="r" purity="0.52126259471" res="0.0e+01" rms="0.0e+00" /></Node><Node Cut="0.0e+00" IVar="-1" NCoef="0" cType="1" depth="4" nType="-1" pos="r" purity="0.394914811077" res="0.0e+01" rms="0.0e+00" /></Node></Node></Node></Node></BinaryTree><BinaryTree boostWeight="0.112283706078" itree="28" type="DecisionTree"><Node Cut="0.0101379025728" IVar="4" NCoef="0" cType="1" depth="0" nType="0" pos="s" purity="0.0e+00" res="0.0e+01" rms="0.0e+00"><Node Cut="41.9973068237" IVar="0" NCoef="0" cType="1" depth="1" nType="0" pos="l" purity="0.0e+00" res="0.0e+01" rms="0.0e+00"><Node Cut="0.0293821245432" IVar="3" NCoef="0" cType="1" depth="2" nType="0" pos="l" purity="0.0e+00" res="0.0e+01" rms="0.0e+00"><Node Cut="-0.0098672080785" IVar="3" NCoef="0" cType="1" depth="3" nType="0" pos="l" purity="0.0e+00" res="0.0e+01" rms="0.0e+00"><Node Cut="0.0e+00" IVar="-1" NCoef="0" cType="1" depth="4" nType="1" pos="l" purity="0.517145534092" res="0.0e+01" rms="0.0e+00" /><Node Cut="0.0e+00" IVar="-1" NCoef="0" cType="1" depth="4" nType="1" pos="r" purity="0.601752508084" res="0.0e+01" rms="0.0e+00" /></Node><Node Cut="0.0e+00" IVar="-1" NCoef="0" cType="1" depth="3" nType="-1" pos="r" purity="0.491641989983" res="0.0e+01" rms="0.0e+00" /></Node><Node Cut="53.5111541748" IVar="0" NCoef="0" cType="1" depth="2" nType="0" pos="r" purity="0.0e+00" res="0.0e+01" rms="0.0e+00"><Node Cut="0.0e+00" IVar="-1" NCoef="0" cType="1" depth="3" nType="1" pos="l" purity="0.878570904259" res="0.0e+01" rms="0.0e+00" /><Node Cut="0.00376905803569" IVar="4" NCoef="0" cType="1" depth="3" nType="0" pos="r" purity="0.0e+00" res="0.0e+01" rms="0.0e+00"><Node Cut="0.0e+00" IVar="-1" NCoef="0" cType="1" depth="4" nType="1" pos="l" purity="1.0" res="0.0e+01" rms="0.0e+00" /><Node Cut="0.0e+00" IVar="-1" NCoef="0" cType="1" depth="4" nType="1" pos="r" purity="0.948405961043" res="0.0e+01" rms="0.0e+00" /></Node></Node></Node><Node Cut="0.0537035390735" IVar="4" NCoef="0" cType="1" depth="1" nType="0" pos="r" purity="0.0e+00" res="0.0e+01" rms="0.0e+00"><Node Cut="49.9585571289" IVar="0" NCoef="0" cType="1" depth="2" nType="0" pos="l" purity="0.0e+00" res="0.0e+01" rms="0.0e+00"><Node Cut="24.2154636383" IVar="0" NCoef="0" cType="1" depth="3" nType="0" pos="l" purity="0.0e+00" res="0.0e+01" rms="0.0e+00"><Node Cut="0.0e+00" IVar="-1" NCoef="0" cType="1" depth="4" nType="-1" pos="l" purity="0.420211171671" res="0.0e+01" 