<?xml version="1.0"?>
<MethodSetup Method="BDT::BDT">
  <GeneralInfo>
    <Info name="Creator" value="TskMVA"/>
    <Info name="AnalysisType" value="Classification"/>
  </GeneralInfo>
  <Options>
    <Option modified="No" name="NodePurityLimit">0.5</Option>
  </Options>
  <Weights AnalysisType="0" NTrees="200">
    <BinaryTree boostWeight="1.6940240843" itree="0" type="DecisionTree">
      <Node Cut="0.0775441080332" IVar="5" NCoef="0" cType="1" depth="0" nType="0" pos="s" purity="0.0e+00" res="0.0e+01" rms="0.0e+00">
        <Node Cut="15.0816831589" IVar="0" NCoef="0" cType="1" depth="1" nType="0" pos="l" purity="0.0e+00" res="0.0e+01" rms="0.0e+00">
          <Node Cut="0.0e+00" IVar="-1" NCoef="0" cType="1" depth="2" nType="1" pos="l" purity="0.913564023945" res="0.0e+01" rms="0.0e+00"/>
          <Node Cut="0.0380102396011" IVar="4" NCoef="0" cType="1" depth="2" nType="0" pos="r" purity="0.0e+00" res="0.0e+01" rms="0.0e+00">
            <Node Cut="19.8738632202" IVar="0" NCoef="0" cType="1" depth="3" nType="0" pos="l" purity="0.0e+00" res="0.0e+01" rms="0.0e+00">
              <Node Cut="0.0e+00" IVar="-1" NCoef="0" cType="1" depth="4" nType="1" pos="l" purity="0.984654838104" res="0.0e+01" rms="0.0e+00"/>
              <Node Cut="0.0205673296005" IVar="5" NCoef="0" cType="1" depth="4" nType="0" pos="r" purity="0.0e+00" res="0.0e+01" rms="0.0e+00">
                <Node Cut="25.9877891541" IVar="0" NCoef="0" cType="1" depth="5" nType="0" pos="l" purity="0.0e+00" res="0.0e+01" rms="0.0e+00">
                  <Node Cut="0.0e+00" IVar="-1" NCoef="0" cType="1" depth="6" nType="1" pos="l" purity="0.997260273973" res="0.0e+01" rms="0.0e+00"/>
                  <Node Cut="0.0e+00" IVar="-1" NCoef="0" cType="1" depth="6" nType="1" pos="r" purity="0.999837763386" res="0.0e+01" rms="0.0e+00"/>
                </Node>
                <Node Cut="0.0e+00" IVar="-1" NCoef="0" cType="1" depth="5" nType="1" pos="r" purity="0.994272648567" res="0.0e+01" rms="0.0e+00"/>
              </Node>
            </Node>
            <Node Cut="0.0e+00" IVar="-1" NCoef="0" cType="1" depth="3" nType="1" pos="r" purity="0.956478161124" res="0.0e+01" rms="0.0e+00"/>
          </Node>
        </Node>
        <Node Cut="0.0e+00" IVar="-1" NCoef="0" cType="1" depth="1" nType="1" pos="r" purity="0.510590436313" res="0.0e+01" rms="0.0e+00"/>
      </Node>
    </BinaryTree>
    <BinaryTree boostWeight="1.36435433093" itree="1" type="DecisionTree">
      <Node Cut="0.076813519001" IVar="5" NCoef="0" cType="1" depth="0" nType="0" pos="s" purity="0.0e+00" res="0.0e+01" rms="0.0e+00">
        <Node Cut="16.7142906189" IVar="0" NCoef="0" cType="1" depth="1" nType="0" pos="l" purity="0.0e+00" res="0.0e+01" rms="0.0e+00">
          <Node Cut="0.0e+00" IVar="-1" NCoef="0" cType="1" depth="2" nType="1" pos="l" purity="0.699932895327" res="0.0e+01" rms="0.0e+00"/>
          <Node Cut="0.0351550094783" IVar="4" NCoef="0" cType="1" depth="2" nType="0" pos="r" purity="0.0e+00" res="0.0e+01" rms="0.0e+00">
            <Node Cut="22.4729995728" IVar="0" NCoef="0" cType="1" depth="3" nType="0" pos="l" purity="0.0e+00" res="0.0e+01" rms="0.0e+00">
              <Node Cut="0.0e+00" IVar="-1" NCoef="0" cType="1" depth="4" nType="1" pos="l" purity="0.949896070777" res="0.0e+01" rms="0.0e+00"/>
              <Node Cut="0.0191374160349" IVar="5" NCoef="0" cType="1" depth="4" nType="0" pos="r" purity="0.0e+00" res="0.0e+01" rms="0.0e+00">
                <Node Cut="30.8212814331" IVar="0" NCoef="0" cType="1" depth="5" nType="0" pos="l" purity="0.0e+00" res="0.0e+01" rms="0.0e+00">
                  <Node Cut="0.0e+00" IVar="-1" NCoef="0" cType="1" depth="6" nType="1" pos="l" purity="0.992868420839" res="0.0e+01" rms="0.0e+00"/>
                  <Node Cut="0.0e+00" IVar="-1" NCoef="0" cType="1" depth="6" nType="1" pos="r" purity="0.99953070759" res="0.0e+01" rms="0.0e+00"/>
                </Node>
                <Node Cut="0.0e+00" IVar="-1" NCoef="0" cType="1" depth="5" nType="1" pos="r" purity="0.979856002142" res="0.0e+01" rms="0.0e+00"/>
              </Node>
            </Node>
            <Node Cut="0.0e+00" IVar="-1" NCoef="0" cType="1" depth="3" nType="1" pos="r" purity="0.83348859097" res="0.0e+01" rms="0.0e+00"/>
          </Node>
        </Node>
        <Node Cut="0.0e+00" IVar="-1" NCoef="0" cType="1" depth="1" nType="-1" pos="r" purity="0.162166313469" res="0.0e+01" rms="0.0e+00"/>
      </Node>
    </BinaryTree>
    <BinaryTree boostWeight="0.904291811167" itree="2" type="DecisionTree">
      <Node Cut="20.0122623444" IVar="0" NCoef="0" cType="1" depth="0" nType="0" pos="s" purity="0.0e+00" res="0.0e+01" rms="0.0e+00">
        <Node Cut="0.0148157775402" IVar="4" NCoef="0" cType="1" depth="1" nType="0" pos="l" purity="0.0e+00" res="0.0e+01" rms="0.0e+00">
          <Node Cut="0.0e+00" IVar="-1" NCoef="0" cType="1" depth="2" nType="1" pos="l" purity="0.590112936079" res="0.0e+01" rms="0.0e+00"/>
          <Node Cut="0.0e+00" IVar="-1" NCoef="0" cType="1" depth="2" nType="-1" pos="r" purity="0.216254573818" res="0.0e+01" rms="0.0e+00"/>
        </Node>
        <Node Cut="0.0401663966477" IVar="4" NCoef="0" cType="1" depth="1" nType="0" pos="r" purity="0.0e+00" res="0.0e+01" rms="0.0e+00">
          <Node Cut="0.0242775380611" IVar="5" NCoef="0" cType="1" depth="2" nType="0" pos="l" purity="0.0e+00" res="0.0e+01" rms="0.0e+00">
            <Node Cut="25.9877891541" IVar="0" NCoef="0" cType="1" depth="3" nType="0" pos="l" purity="0.0e+00" res="0.0e+01" rms="0.0e+00">
              <Node Cut="0.0e+00" IVar="-1" NCoef="0" cType="1" depth="4" nType="1" pos="l" purity="0.94223718442" res="0.0e+01" rms="0.0e+00"/>
              <Node Cut="39.5021514893" IVar="0" NCoef="0" cType="1" depth="4" nType="0" pos="r" purity="0.0e+00" res="0.0e+01" rms="0.0e+00">
                <Node Cut="-0.0211163163185" IVar="4" NCoef="0" cType="1" depth="5" nType="0" pos="l" purity="0.0e+00" res="0.0e+01" rms="0.0e+00">
                  <Node Cut="0.0e+00" IVar="-1" NCoef="0" cType="1" depth="6" nType="1" pos="l" purity="0.994421682199" res="0.0e+01" rms="0.0e+00"/>
                  <Node Cut="0.0e+00" IVar="-1" NCoef="0" cType="1" depth="6" nType="1" pos="r" purity="0.975043578408" res="0.0e+01" rms="0.0e+00"/>
                </Node>
                <Node Cut="-0.00812983047217" IVar="4" NCoef="0" cType="1" depth="5" nType="0" pos="r" purity="0.0e+00" res="0.0e+01" rms="0.0e+00">
                  <Node Cut="0.0e+00" IVar="-1" NCoef="0" cType="1" depth="6" nType="1" pos="l" purity="0.999942919149" res="0.0e+01" rms="0.0e+00"/>
                  <Node Cut="0.0e+00" IVar="-1" NCoef="0" cType="1" depth="6" nType="1" pos="r" purity="0.997443569774" res="0.0e+01" rms="0.0e+00"/>
                </Node>
              </Node>
            </Node>
            <Node Cut="0.0e+00" IVar="-1" NCoef="0" cType="1" depth="3" nType="1" pos="r" purity="0.854977277647" res="0.0e+01" rms="0.0e+00"/>
          </Node>
          <Node Cut="0.0e+00" IVar="-1" NCoef="0" cType="1" depth="2" nType="1" pos="r" purity="0.548284193918" res="0.0e+01" rms="0.0e+00"/>
        </Node>
      </Node>
    </BinaryTree>
    <BinaryTree boostWeight="0.715801217749" itree="3" type="DecisionTree">
      <Node Cut="27.7098522186" IVar="0" NCoef="0" cType="1" depth="0" nType="0" pos="s" purity="0.0e+00" res="0.0e+01" rms="0.0e+00">
        <Node Cut="0.0288272388279" IVar="5" NCoef="0" cType="1" depth="1" nType="0" pos="l" purity="0.0e+00" res="0.0e+01" rms="0.0e+00">
          <Node Cut="15.2703742981" IVar="0" NCoef="0" cType="1" depth="2" nType="0" pos="l" purity="0.0e+00" res="0.0e+01" rms="0.0e+00">
            <Node Cut="0.0e+00" IVar="-1" NCoef="0" cType="1" depth="3" nType="-1" pos="l" purity="0.334076314871" res="0.0e+01" rms="0.0e+00"/>
            <Node Cut="-0.010284639895" IVar="4" NCoef="0" cType="1" depth="3" nType="0" pos="r" purity="0.0e+00" res="0.0e+01" rms="0.0e+00">
              <Node Cut="21.5772743225" IVar="0" NCoef="0" cType="1" depth="4" nType="0" pos="l" purity="0.0e+00" res="0.0e+01" rms="0.0e+00">
                <Node Cut="0.0e+00" IVar="-1" NCoef="0" cType="1" depth="5" nType="1" pos="l" purity="0.721554561323" res="0.0e+01" rms="0.0e+00"/>
                <Node Cut="0.0e+00" IVar="-1" NCoef="0" cType="1" depth="5" nType="1" pos="r" purity="0.929532668" res="0.0e+01" rms="0.0e+00"/>
              </Node>
              <Node Cut="0.0e+00" IVar="-1" NCoef="0" cType="1" depth="4" nType="1" pos="r" purity="0.581588533391" res="0.0e+01" rms="0.0e+00"/>
            </Node>
          </Node>
          <Node Cut="0.0e+00" IVar="-1" NCoef="0" cType="1" depth="2" nType="-1" pos="r" purity="0.294321095482" res="0.0e+01" rms="0.0e+00"/>
        </Node>
        <Node Cut="0.0249328017235" IVar="4" NCoef="0" cType="1" depth="1" nType="0" pos="r" purity="0.0e+00" res="0.0e+01" rms="0.0e+00">
          <Node Cut="0.0177319683135" IVar="5" NCoef="0" cType="1" depth="2" nType="0" pos="l" purity="0.0e+00" res="0.0e+01" rms="0.0e+00">
            <Node Cut="39.0362586975" IVar="0" NCoef="0" cType="1" depth="3" nType="0" pos="l" purity="0.0e+00" res="0.0e+01" rms="0.0e+00">
              <Node Cut="-0.0278623625636" IVar="4" NCoef="0" cType="1" depth="4" nType="0" pos="l" purity="0.0e+00" res="0.0e+01" rms="0.0e+00">
                <Node Cut="0.0e+00" IVar="-1" NCoef="0" cType="1" depth="5" nType="1" pos="l" purity="0.99071509246" res="0.0e+01" rms="0.0e+00"/>
                <Node Cut="0.0e+00" IVar="-1" NCoef="0" cType="1" depth="5" nType="1" pos="r" purity="0.959976444866" res="0.0e+01" rms="0.0e+00"/>
              </Node>
              <Node Cut="-0.00812983047217" IVar="4" NCoef="0" cType="1" depth="4" nType="0" pos="r" purity="0.0e+00" res="0.0e+01" rms="0.0e+00">
                <Node Cut="-1.06088829041" IVar="2" NCoef="0" cType="1" depth="5" nType="0" pos="l" purity="0.0e+00" res="0.0e+01" rms="0.0e+00">
                  <Node Cut="0.0e+00" IVar="-1" NCoef="0" cType="1" depth="6" nType="1" pos="l" purity="0.998829828095" res="0.0e+01" rms="0.0e+00"/>
                  <Node Cut="0.0e+00" IVar="-1" NCoef="0" cType="1" depth="6" nType="1" pos="r" purity="1.0" res="0.0e+01" rms="0.0e+00"/>
                </Node>
                <Node Cut="0.0e+00" IVar="-1" NCoef="0" cType="1" depth="5" nType="1" pos="r" purity="0.992965695766" res="0.0e+01" rms="0.0e+00"/>
              </Node>
            </Node>
            <Node Cut="0.0e+00" IVar="-1" NCoef="0" cType="1" depth="3" nType="1" pos="r" purity="0.873861664939" res="0.0e+01" rms="0.0e+00"/>
          </Node>
          <Node Cut="0.0e+00" IVar="-1" NCoef="0" cType="1" depth="2" nType="1" pos="r" purity="0.525752286545" res="0.0e+01" rms="0.0e+00"/>
        </Node>
      </Node>
    </BinaryTree>
    <BinaryTree boostWeight="0.593106805749" itree="4" type="DecisionTree">
      <Node Cut="0.0778769552708" IVar="4" NCoef="0" cType="1" depth="0" nType="0" pos="s" purity="0.0e+00" res="0.0e+01" rms="0.0e+00">
        <Node Cut="24.3946781158" IVar="0" NCoef="0" cType="1" depth="1" nType="0" pos="l" purity="0.0e+00" res="0.0e+01" rms="0.0e+00">
          <Node Cut="-0.570368289948" IVar="2" NCoef="0" cType="1" depth="2" nType="0" pos="l" purity="0.0e+00" res="0.0e+01" rms="0.0e+00">
            <Node Cut="0.0e+00" IVar="-1" NCoef="0" cType="1" depth="3" nType="-1" pos="l" purity="0.448751525242" res="0.0e+01" rms="0.0e+00"/>
            <Node Cut="0.652767539024" IVar="2" NCoef="0" cType="1" depth="3" nType="0" pos="r" purity="0.0e+00" res="0.0e+01" rms="0.0e+00">
              <Node Cut="0.0e+00" IVar="-1" NCoef="0" cType="1" depth="4" nType="1" pos="l" purity="0.727409064829" res="0.0e+01" rms="0.0e+00"/>
              <Node Cut="0.0e+00" IVar="-1" NCoef="0" cType="1" depth="4" nType="-1" pos="r" purity="0.4578414238" res="0.0e+01" rms="0.0e+00"/>
            </Node>
          </Node>
          <Node Cut="0.0232607591897" IVar="5" NCoef="0" cType="1" depth="2" nType="0" pos="r" purity="0.0e+00" res="0.0e+01" rms="0.0e+00">
            <Node Cut="0.0145526081324" IVar="4" NCoef="0" cType="1" depth="3" nType="0" pos="l" purity="0.0e+00" res="0.0e+01" rms="0.0e+00">
              <Node Cut="31.6328964233" IVar="0" NCoef="0" cType="1" depth="4" nType="0" pos="l" purity="0.0e+00" res="0.0e+01" rms="0.0e+00">
                <Node Cut="0.0e+00" IVar="-1" NCoef="0" cType="1" depth="5" nType="1" pos="l" purity="0.919305537315" res="0.0e+01" rms="0.0e+00"/>
                <Node Cut="38.8863601685" IVar="0" NCoef="0" cType="1" depth="5" nType="0" pos="r" purity="0.0e+00" res="0.0e+01" rms="0.0e+00">
                  <Node Cut="0.0e+00" IVar="-1" NCoef="0" cType="1" depth="6" nType="1" pos="l" purity="0.970506680249" res="0.0e+01" rms="0.0e+00"/>
                  <Node Cut="0.0e+00" IVar="-1" NCoef="0" cType="1" depth="6" nType="1" pos="r" purity="0.998062876712" res="0.0e+01" rms="0.0e+00"/>
                </Node>
              </Node>
              <Node Cut="0.0e+00" IVar="-1" NCoef="0" cType="1" depth="4" nType="1" pos="r" purity="0.797400610376" res="0.0e+01" rms="0.0e+00"/>
            </Node>
            <Node Cut="0.0e+00" IVar="-1" NCoef="0" cType="1" depth="3" nType="1" pos="r" purity="0.63690865787" res="0.0e+01" rms="0.0e+00"/>
          </Node>
        </Node>
        <Node Cut="0.0e+00" IVar="-1" NCoef="0" cType="1" depth="1" nType="-1" pos="r" purity="0.306079438239" res="0.0e+01" rms="0.0e+00"/>
      </Node>
    </BinaryTree>
    <BinaryTree boostWeight="0.507740886401" itree="5" type="DecisionTree">
      <Node Cut="40.4483299255" IVar="0" NCoef="0" cType="1" depth="0" nType="0" pos="s" purity="0.0e+00" res="0.0e+01" rms="0.0e+00">
        <Node Cut="-1.40794098377" IVar="2" NCoef="0" cType="1" depth="1" nType="0" pos="l" purity="0.0e+00" res="0.0e+01" rms="0.0e+00">
          <Node Cut="0.0e+00" IVar="-1" NCoef="0" cType="1" depth="2" nType="-1" pos="l" purity="0.367118289954" res="0.0e+01" rms="0.0e+00"/>
          <Node Cut="1.50393462181" IVar="2" NCoef="0" cType="1" depth="2" nType="0" pos="r" purity="0.0e+00" res="0.0e+01" rms="0.0e+00">
            <Node Cut="0.0368186756968" IVar="4" NCoef="0" cType="1" depth="3" nType="0" pos="l" purity="0.0e+00" res="0.0e+01" rms="0.0e+00">
              <Node Cut="18.8658275604" IVar="0" NCoef="0" cType="1" depth="4" nType="0" pos="l" purity="0.0e+00" res="0.0e+01" rms="0.0e+00">
                <Node Cut="0.0e+00" IVar="-1" NCoef="0" cType="1" depth="5" nType="1" pos="l" purity="0.624741375781" res="0.0e+01" rms="0.0e+00"/>
                <Node Cut="-0.0211162790656" IVar="4" NCoef="0" cType="1" depth="5" nType="0" pos="r" purity="0.0e+00" res="0.0e+01" rms="0.0e+00">
                  <Node Cut="0.0e+00" IVar="-1" NCoef="0" cType="1" depth="6" nType="1" pos="l" purity="0.904275235685" res="0.0e+01" rms="0.0e+00"/>
                  <Node Cut="0.0e+00" IVar="-1" NCoef="0" cType="1" depth="6" nType="1" pos="r" purity="0.752828051274" res="0.0e+01" rms="0.0e+00"/>
                </Node>
              </Node>
              <Node Cut="0.0e+00" IVar="-1" NCoef="0" cType="1" depth="4" nType="1" pos="r" purity="0.594726629169" res="0.0e+01" rms="0.0e+00"/>
            </Node>
            <Node Cut="0.0e+00" IVar="-1" NCoef="0" cType="1" depth="3" nType="-1" pos="r" purity="0.370690480576" res="0.0e+01" rms="0.0e+00"/>
          </Node>
        </Node>
        <Node Cut="0.00821782741696" IVar="4" NCoef="0" cType="1" depth="1" nType="0" pos="r" purity="0.0e+00" res="0.0e+01" rms="0.0e+00">
          <Node Cut="0.00976461637765" IVar="5" NCoef="0" cType="1" depth="2" nType="0" pos="l" purity="0.0e+00" res="0.0e+01" rms="0.0e+00">
            <Node Cut="48.499797821" IVar="0" NCoef="0" cType="1" depth="3" nType="0" pos="l" purity="0.0e+00" res="0.0e+01" rms="0.0e+00">
              <Node Cut="0.0e+00" IVar="-1" NCoef="0" cType="1" depth="4" nType="1" pos="l" purity="0.983175176638" res="0.0e+01" rms="0.0e+00"/>
              <Node Cut="0.0e+00" IVar="-1" NCoef="0" cType="1" depth="4" nType="1" pos="r" purity="1.0" res="0.0e+01" rms="0.0e+00"/>
            </Node>
            <Node Cut="0.0e+00" IVar="-1" NCoef="0" cType="1" depth="3" nType="1" pos="r" purity="0.944809903534" res="0.0e+01" rms="0.0e+00"/>
          </Node>
          <Node Cut="0.0e+00" IVar="-1" NCoef="0" cType="1" depth="2" nType="1" pos="r" purity="0.660717683174" res="0.0e+01" rms="0.0e+00"/>
        </Node>
      </Node>
    </BinaryTree>
    <BinaryTree boostWeight="0.344944700129" itree="6" type="DecisionTree">
      <Node Cut="42.9934310913" IVar="0" NCoef="0" cType="1" depth="0" nType="0" pos="s" purity="0.0e+00" res="0.0e+01" rms="0.0e+00">
        <Node Cut="0.046328574419" IVar="4" NCoef="0" cType="1" depth="1" nType="0" pos="l" purity="0.0e+00" res="0.0e+01" rms="0.0e+00">
          <Node Cut="18.8840198517" IVar="0" NCoef="0" cType="1" depth="2" nType="0" pos="l" purity="0.0e+00" res="0.0e+01" rms="0.0e+00">
            <Node Cut="0.0e+00" IVar="-1" NCoef="0" cType="1" depth="3" nType="1" pos="l" purity="0.51402982315" res="0.0e+01" rms="0.0e+00"/>
            <Node Cut="0.013823132962" IVar="5" NCoef="0" cType="1" depth="3" nType="0" pos="r" purity="0.0e+00" res="0.0e+01" rms="0.0e+00">
              <Node Cut="26.0532913208" IVar="0" NCoef="0" cType="1" depth="4" nType="0" pos="l" purity="0.0e+00" res="0.0e+01" rms="0.0e+00">
                <Node Cut="0.0e+00" IVar="-1" NCoef="0" cType="1" depth="5" nType="1" pos="l" purity="0.722198370674" res="0.0e+01" rms="0.0e+00"/>
                <Node Cut="-0.0102184107527" IVar="4" NCoef="0" cType="1" depth="5" nType="0" pos="r" purity="0.0e+00" res="0.0e+01" rms="0.0e+00">
                  <Node Cut="0.0e+00" IVar="-1" NCoef="0" cType="1" depth="6" nType="1" pos="l" purity="0.94709496543" res="0.0e+01" rms="0.0e+00"/>
                  <Node Cut="0.0e+00" IVar="-1" NCoef="0" cType="1" depth="6" nType="1" pos="r" purity="0.774557603541" res="0.0e+01" rms="0.0e+00"/>
                </Node>
              </Node>
              <Node Cut="0.0e+00" IVar="-1" NCoef="0" cType="1" depth="4" nType="1" pos="r" purity="0.530504910786" res="0.0e+01" rms="0.0e+00"/>
            </Node>
          </Node>
          <Node Cut="0.0e+00" IVar="-1" NCoef="0" cType="1" depth="2" nType="-1" pos="r" purity="0.424699579939" res="0.0e+01" rms="0.0e+00"/>
        </Node>
        <Node Cut="0.00621197745204" IVar="4" NCoef="0" cType="1" depth="1" nType="0" pos="r" purity="0.0e+00" res="0.0e+01" rms="0.0e+00">
          <Node Cut="0.00855211634189" IVar="5" NCoef="0" cType="1" depth="2" nType="0" pos="l" purity="0.0e+00" res="0.0e+01" rms="0.0e+00">
            <Node Cut="48.499797821" IVar="0" NCoef="0" cType="1" depth="3" nType="0" pos="l" purity="0.0e+00" res="0.0e+01" rms="0.0e+00">
              <Node Cut="0.0e+00" IVar="-1" NCoef="0" cType="1" depth="4" nType="1" pos="l" purity="0.978869147198" res="0.0e+01" rms="0.0e+00"/>
              <Node Cut="0.0e+00" IVar="-1" NCoef="0" cType="1" depth="4" nType="1" pos="r" purity="1.0" res="0.0e+01" rms="0.0e+00"/>
            </Node>
            <Node Cut="0.0e+00" IVar="-1" NCoef="0" cType="1" depth="3" nType="1" pos="r" purity="0.932377479866" res="0.0e+01" rms="0.0e+00"/>
          </Node>
          <Node Cut="0.0e+00" IVar="-1" NCoef="0" cType="1" depth="2" nType="1" pos="r" purity="0.592078711439" res="0.0e+01" rms="0.0e+00"/>
        </Node>
      </Node>
    </BinaryTree>
    <BinaryTree boostWeight="0.345307767234" itree="7" type="DecisionTree">
      <Node Cut="42.9934310913" IVar="0" NCoef="0" cType="1" depth="0" nType="0" pos="s" purity="0.0e+00" res="0.0e+01" rms="0.0e+00">
        <Node Cut="0.0774845033884" IVar="3" NCoef="0" cType="1" depth="1" nType="0" pos="l" purity="0.0e+00" res="0.0e+01" rms="0.0e+00">
          <Node Cut="-0.0784732252359" IVar="3" NCoef="0" cType="1" depth="2" nType="0" pos="l" purity="0.0e+00" res="0.0e+01" rms="0.0e+00">
            <Node Cut="0.0e+00" IVar="-1" NCoef="0" cType="1" depth="3" nType="-1" pos="l" purity="0.371477842947" res="0.0e+01" rms="0.0e+00"/>
            <Node Cut="0.0188489127904" IVar="5" NCoef="0" cType="1" depth="3" nType="0" pos="r" purity="0.0e+00" res="0.0e+01" rms="0.0e+00">
              <Node Cut="27.5433826447" IVar="0" NCoef="0" cType="1" depth="4" nType="0" pos="l" purity="0.0e+00" res="0.0e+01" rms="0.0e+00">
                <Node Cut="-0.40285512805" IVar="2" NCoef="0" cType="1" depth="5" nType="0" pos="l" purity="0.0e+00" res="0.0e+01" rms="0.0e+00">
                  <Node Cut="0.0e+00" IVar="-1" NCoef="0" cType="1" depth="6" nType="1" pos="l" purity="0.650616793683" res="0.0e+01" rms="0.0e+00"/>
                  <Node Cut="0.0e+00" IVar="-1" NCoef="0" cType="1" depth="6" nType="1" pos="r" purity="0.588985338549" res="0.0e+01" rms="0.0e+00"/>
                </Node>
                <Node Cut="-0.0135801713914" IVar="4" NCoef="0" cType="1" depth="5" nType="0" pos="r" purity="0.0e+00" res="0.0e+01" rms="0.0e+00">
                  <Node Cut="0.0e+00" IVar="-1" NCoef="0" cType="1" depth="6" nType="1" pos="l" purity="0.963739857484" res="0.0e+01" rms="0.0e+00"/>
                  <Node Cut="0.0e+00" IVar="-1" NCoef="0" cType="1" depth="6" nType="1" pos="r" purity="0.706443093822" res="0.0e+01" rms="0.0e+00"/>
                </Node>
              </Node>
              <Node Cut="0.0e+00" IVar="-1" NCoef="0" cType="1" depth="4" nType="1" pos="r" purity="0.530213099921" res="0.0e+01" rms="0.0e+00"/>
            </Node>
          </Node>
          <Node Cut="0.0e+00" IVar="-1" NCoef="0" cType="1" depth="2" nType="-1" pos="r" purity="0.356213489969" res="0.0e+01" rms="0.0e+00"/>
        </Node>
        <Node Cut="0.00621197745204" IVar="4" NCoef="0" cType="1" depth="1" nType="0" pos="r" purity="0.0e+00" res="0.0e+01" rms="0.0e+00">
          <Node Cut="0.00855211634189" IVar="5" NCoef="0" cType="1" depth="2" nType="0" pos="l" purity="0.0e+00" res="0.0e+01" rms="0.0e+00">
            <Node Cut="48.499797821" IVar="0" NCoef="0" cType="1" depth="3" nType="0" pos="l" purity="0.0e+00" res="0.0e+01" rms="0.0e+00">
              <Node Cut="0.0e+00" IVar="-1" NCoef="0" cType="1" depth="4" nType="1" pos="l" purity="0.970422542385" res="0.0e+01" rms="0.0e+00"/>
              <Node Cut="0.0e+00" IVar="-1" NCoef="0" cType="1" depth="4" nType="1" pos="r" purity="1.0" res="0.0e+01" rms="0.0e+00"/>
            </Node>
            <Node Cut="0.0e+00" IVar="-1" NCoef="0" cType="1" depth="3" nType="1" pos="r" purity="0.907110359284" res="0.0e+01" rms="0.0e+00"/>
          </Node>
          <Node Cut="0.0e+00" IVar="-1" NCoef="0" cType="1" depth="2" nType="1" pos="r" purity="0.506904723245" res="0.0e+01" rms="0.0e+00"/>
        </Node>
      </Node>
    </BinaryTree>
    <BinaryTree boostWeight="0.291137231424" itree="8" type="DecisionTree">
      <Node Cut="48.499797821" IVar="0" NCoef="0" cType="1" depth="0" nType="0" pos="s" purity="0.0e+00" res="0.0e+01" rms="0.0e+00">
        <Node Cut="0.0188489127904" IVar="5" NCoef="0" cType="1" depth="1" nType="0" pos="l" purity="0.0e+00" res="0.0e+01" rms="0.0e+00">
          <Node Cut="30.6188545227" IVar="0" NCoef="0" cType="1" depth="2" nType="0" pos="l" purity="0.0e+00" res="0.0e+01" rms="0.0e+00">
            <Node Cut="22.4306602478" IVar="0" NCoef="0" cType="1" depth="3" nType="0" pos="l" purity="0.0e+00" res="0.0e+01" rms="0.0e+00">
              <Node Cut="-0.0105898221955" IVar="4" NCoef="0" cType="1" depth="4" nType="0" pos="l" purity="0.0e+00" res="0.0e+01" rms="0.0e+00">
                <Node Cut="0.0e+00" IVar="-1" NCoef="0" cType="1" depth="5" nType="-1" pos="l" purity="0.435170346045" res="0.0e+01" rms="0.0e+00"/>
                <Node Cut="0.0e+00" IVar="-1" NCoef="0" cType="1" depth="5" nType="1" pos="r" purity="0.535883061065" res="0.0e+01" rms="0.0e+00"/>
              </Node>
              <Node Cut="-0.0273898206651" IVar="4" NCoef="0" cType="1" depth="4" nType="0" pos="r" purity="0.0e+00" res="0.0e+01" rms="0.0e+00">
                <Node Cut="0.0e+00" IVar="-1" NCoef="0" cType="1" depth="5" nType="1" pos="l" purity="0.857592905706" res="0.0e+01" rms="0.0e+00"/>
                <Node Cut="0.0e+00" IVar="-1" NCoef="0" cType="1" depth="5" nType="-1" pos="r" purity="0.467047429989" res="0.0e+01" rms="0.0e+00"/>
              </Node>
            </Node>
            <Node Cut="-0.00961601175368" IVar="4" NCoef="0" cType="1" depth="3" nType="0" pos="r" purity="0.0e+00" res="0.0e+01" rms="0.0e+00">
              <Node Cut="38.7663574219" IVar="0" NCoef="0" cType="1" depth="4" nType="0" pos="l" purity="0.0e+00" res="0.0e+01" rms="0.0e+00">
                <Node Cut="0.0e+00" IVar="-1" NCoef="0" cType="1" depth="5" nType="1" pos="l" purity="0.934921611296" res="0.0e+01" rms="0.0e+00"/>
                <Node Cut="0.0e+00" IVar="-1" NCoef="0" cType="1" depth="5" nType="1" pos="r" purity="0.992090961813" res="0.0e+01" rms="0.0e+00"/>
              </Node>
              <Node Cut="0.0e+00" IVar="-1" NCoef="0" cType="1" depth="4" nType="1" pos="r" purity="0.634696179534" res="0.0e+01" rms="0.0e+00"/>
            </Node>
          </Node>
          <Node Cut="23.4116096497" IVar="0" NCoef="0" cType="1" depth="2" nType="0" pos="r" purity="0.0e+00" res="0.0e+01" rms="0.0e+00">
            <Node Cut="0.0e+00" IVar="-1" NCoef="0" cType="1" depth="3" nType="-1" pos="l" purity="0.492894448613" res="0.0e+01" rms="0.0e+00"/>
            <Node Cut="0.0e+00" IVar="-1" NCoef="0" cType="1" depth="3" nType="-1" pos="r" purity="0.286598880789" res="0.0e+01" rms="0.0e+00"/>
          </Node>
        </Node>
        <Node Cut="0.00124883721583" IVar="4" NCoef="0" cType="1" depth="1" nType="0" pos="r" purity="0.0e+00" res="0.0e+01" rms="0.0e+00">
          <Node Cut="0.00577684631571" IVar="5" NCoef="0" cType="1" depth="2" nType="0" pos="l" purity="0.0e+00" res="0.0e+01" rms="0.0e+00">
            <Node Cut="0.0e+00" IVar="-1" NCoef="0" cType="1" depth="3" nType="1" pos="l" purity="1.0" res="0.0e+01" rms="0.0e+00"/>
            <Node Cut="0.0e+00" IVar="-1" NCoef="0" cType="1" depth="3" nType="1" pos="r" purity="0.94571481656" res="0.0e+01" rms="0.0e+00"/>
          </Node>
          <Node Cut="0.0e+00" IVar="-1" NCoef="0" cType="1" depth="2" nType="1" pos="r" purity="0.525943895308" res="0.0e+01" rms="0.0e+00"/>
        </Node>
      </Node>
    </BinaryTree>
    <BinaryTree boostWeight="0.331717870234" itree="9" type="DecisionTree">
      <Node Cut="56.6154708862" IVar="0" NCoef="0" cType="1" depth="0" nType="0" pos="s" purity="0.0e+00" res="0.0e+01" rms="0.0e+00">
        <Node Cut="-0.010774740018" IVar="4" NCoef="0" cType="1" depth="1" nType="0" pos="l" purity="0.0e+00" res="0.0e+01" rms="0.0e+00">
          <Node Cut="19.7329330444" IVar="0" NCoef="0" cType="1" depth="2" nType="0" pos="l" purity="0.0e+00" res="0.0e+01" rms="0.0e+00">
            <Node Cut="0.0e+00" IVar="-1" NCoef="0" cType="1" depth="3" nType="-1" pos="l" purity="0.454305826057" res="0.0e+01" rms="0.0e+00"/>
            <Node Cut="0.00945910252631" IVar="5" NCoef="0" cType="1" depth="3" nType="0" pos="r" purity="0.0e+00" res="0.0e+01" rms="0.0e+00">
              <Node Cut="30.5334205627" IVar="0" NCoef="0" cType="1" depth="4" nType="0" pos="l" purity="0.0e+00" res="0.0e+01" rms="0.0e+00">
                <Node Cut="0.0e+00" IVar="-1" NCoef="0" cType="1" depth="5" nType="1" pos="l" purity="0.759225644888" res="0.0e+01" rms="0.0e+00"/>
                <Node Cut="-0.031393609941" IVar="3" NCoef="0" cType="1" depth="5" nType="0" pos="r" purity="0.0e+00" res="0.0e+01" rms="0.0e+00">
                  <Node Cut="0.0e+00" IVar="-1" NCoef="0" cType="1" depth="6" nType="1" pos="l" purity="0.903364438875" res="0.0e+01" rms="0.0e+00"/>
                  <Node Cut="0.0e+00" IVar="-1" NCoef="0" cType="1" depth="6" nType="1" pos="r" purity="0.987012778899" res="0.0e+01" rms="0.0e+00"/>
                </Node>
              </Node>
              <Node Cut="0.0e+00" IVar="-1" NCoef="0" cType="1" depth="4" nType="1" pos="r" purity="0.638766748439" res="0.0e+01" rms="0.0e+00"/>
            </Node>
          </Node>
          <Node Cut="20.0455112457" IVar="0" NCoef="0" cType="1" depth="2" nType="0" pos="r" purity="0.0e+00" res="0.0e+01" rms="0.0e+00">
            <Node Cut="0.0e+00" IVar="-1" NCoef="0" cType="1" depth="3" nType="1" pos="l" purity="0.572358169167" res="0.0e+01" rms="0.0e+00"/>
            <Node Cut="0.0167730990797" IVar="4" NCoef="0" cType="1" depth="3" nType="0" pos="r" purity="0.0e+00" res="0.0e+01" rms="0.0e+00">
              <Node Cut="0.0e+00" IVar="-1" NCoef="0" cType="1" depth="4" nType="1" pos="l" purity="0.60849433495" res="0.0e+01" rms="0.0e+00"/>
              <Node Cut="0.0e+00" IVar="-1" NCoef="0" cType="1" depth="4" nType="-1" pos="r" purity="0.315299138033" res="0.0e+01" rms="0.0e+00"/>
            </Node>
          </Node>
        </Node>
        <Node Cut="-0.00341928843409" IVar="4" NCoef="0" cType="1" depth="1" nType="0" pos="r" purity="0.0e+00" res="0.0e+01" rms="0.0e+00">
          <Node Cut="-0.0371385961771" IVar="4" NCoef="0" cType="1" depth="2" nType="0" pos="l" purity="0.0e+00" res="0.0e+01" rms="0.0e+00">
            <Node Cut="0.0e+00" IVar="-1" NCoef="0" cType="1" depth="3" nType="1" pos="l" purity="0.976584368526" res="0.0e+01" rms="0.0e+00"/>
            <Node Cut="-0.0139506217092" IVar="4" NCoef="0" cType="1" depth="3" nType="0" pos="r" purity="0.0e+00" res="0.0e+01" rms="0.0e+00">
              <Node Cut="0.0e+00" IVar="-1" NCoef="0" cType="1" depth="4" nType="1" pos="l" purity="1.0" res="0.0e+01" rms="0.0e+00"/>
              <Node Cut="0.0e+00" IVar="-1" NCoef="0" cType="1" depth="4" nType="1" pos="r" purity="0.976727449914" res="0.0e+01" rms="0.0e+00"/>
            </Node>
          </Node>
          <Node Cut="0.0e+00" IVar="-1" NCoef="0" cType="1" depth="2" nType="1" pos="r" purity="0.599236013316" res="0.0e+01" rms="0.0e+00"/>
        </Node>
      </Node>
    </BinaryTree>
    <BinaryTree boostWeight="0.280532843821" itree="10" type="DecisionTree">
      <Node Cut="-0.010774763301" IVar="4" NCoef="0" cType="1" depth="0" nType="0" pos="s" purity="0.0e+00" res="0.0e+01" rms="0.0e+00">
        <Node Cut="31.9281806946" IVar="0" NCoef="0" cType="1" depth="1" nType="0" pos="l" purity="0.0e+00" res="0.0e+01" rms="0.0e+00">
          <Node Cut="16.9843063354" IVar="0" NCoef="0" cType="1" depth="2" nType="0" pos="l" purity="0.0e+00" res="0.0e+01" rms="0.0e+00">
            <Node Cut="0.0e+00" IVar="-1" NCoef="0" cType="1" depth="3" nType="1" pos="l" purity="0.514908458265" res="0.0e+01" rms="0.0e+00"/>
            <Node Cut="-0.0425298064947" IVar="4" NCoef="0" cType="1" depth="3" nType="0" pos="r" purity="0.0e+00" res="0.0e+01" rms="0.0e+00">
              <Node Cut="0.0e+00" IVar="-1" NCoef="0" cType="1" depth="4" nType="1" pos="l" purity="0.69850742754" res="0.0e+01" rms="0.0e+00"/>
              <Node Cut="0.0e+00" IVar="-1" NCoef="0" cType="1" depth="4" nType="1" pos="r" purity="0.568371634622" res="0.0e+01" rms="0.0e+00"/>
            </Node>
          </Node>
          <Node Cut="0.0102057810873" IVar="5" NCoef="0" cType="1" depth="2" nType="0" pos="r" purity="0.0e+00" res="0.0e+01" rms="0.0e+00">
            <Node Cut="38.4924812317" IVar="0" NCoef="0" cType="1" depth="3" nType="0" pos="l" purity="0.0e+00" res="0.0e+01" rms="0.0e+00">
              <Node Cut="0.0e+00" IVar="-1" NCoef="0" cType="1" depth="4" nType="1" pos="l" purity="0.887842480228" res="0.0e+01" rms="0.0e+00"/>
              <Node Cut="-1.00048065186" IVar="2" NCoef="0" cType="1" depth="4" nType="0" pos="r" purity="0.0e+00" res="0.0e+01" rms="0.0e+00">
                <Node Cut="0.0e+00" IVar="-1" NCoef="0" cType="1" depth="5" nType="1" pos="l" purity="0.974601655483" res="0.0e+01" rms="0.0e+00"/>
                <Node Cut="0.0e+00" IVar="-1" NCoef="0" cType="1" depth="5" nType="1" pos="r" purity="1.0" res="0.0e+01" rms="0.0e+00"/>
              </Node>
            </Node>
            <Node Cut="0.0e+00" IVar="-1" NCoef="0" cType="1" depth="3" nType="1" pos="r" purity="0.721526118866" res="0.0e+01" rms="0.0e+00"/>
          </Node>
        </Node>
        <Node Cut="69.2270812988" IVar="0" NCoef="0" cType="1" depth="1" nType="0" pos="r" purity="0.0e+00" res="0.0e+01" rms="0.0e+00">
          <Node Cut="0.0147904241458" IVar="4" NCoef="0" cType="1" depth="2" nType="0" pos="l" purity="0.0e+00" res="0.0e+01" rms="0.0e+00">
            <Node Cut="34.0199356079" IVar="0" NCoef="0" cType="1" depth="3" nType="0" pos="l" purity="0.0e+00" res="0.0e+01" rms="0.0e+00">
              <Node Cut="0.0e+00" IVar="-1" NCoef="0" cType="1" depth="4" nType="-1" pos="l" purity="0.308318894075" res="0.0e+01" rms="0.0e+00"/>
              <Node Cut="0.0e+00" IVar="-1" NCoef="0" cType="1" depth="4" nType="1" pos="r" purity="0.665390306354" res="0.0e+01" rms="0.0e+00"/>
            </Node>
            <Node Cut="20.0079498291" IVar="0" NCoef="0" cType="1" depth="3" nType="0" pos="r" purity="0.0e+00" res="0.0e+01" rms="0.0e+00">
              <Node Cut="0.0e+00" IVar="-1" NCoef="0" cType="1" depth="4" nType="1" pos="l" purity="0.555793030722" res="0.0e+01" rms="0.0e+00"/>
              <Node Cut="0.0e+00" IVar="-1" NCoef="0" cType="1" depth="4" nType="-1" pos="r" purity="0.38736471884" res="0.0e+01" rms="0.0e+00"/>
            </Node>
          </Node>
          <Node Cut="0.0e+00" IVar="-1" NCoef="0" cType="1" depth="2" nType="1" pos="r" purity="0.72388872319" res="0.0e+01" rms="0.0e+00"/>
        </Node>
      </Node>
    </BinaryTree>
    <BinaryTree boostWeight="0.232361213863" itree="11" type="DecisionTree">
      <Node Cut="38.8863601685" IVar="0" NCoef="0" cType="1" depth="0" nType="0" pos="s" purity="0.0e+00" res="0.0e+01" rms="0.0e+00">
        <Node Cut="13.8651428223" IVar="0" NCoef="0" cType="1" depth="1" nType="0" pos="l" purity="0.0e+00" res="0.0e+01" rms="0.0e+00">
          <Node Cut="0.0e+00" IVar="-1" NCoef="0" cType="1" depth="2" nType="-1" pos="l" purity="0.413949081573" res="0.0e+01" rms="0.0e+00"/>
          <Node Cut="-0.0274450518191" IVar="4" NCoef="0" cType="1" depth="2" nType="0" pos="r" purity="0.0e+00" res="0.0e+01" rms="0.0e+00">
            <Node Cut="31.9281806946" IVar="0" NCoef="0" cType="1" depth="3" nType="0" pos="l" purity="0.0e+00" res="0.0e+01" rms="0.0e+00">
              <Node Cut="-0.0492719262838" IVar="4" NCoef="0" cType="1" depth="4" nType="0" pos="l" purity="0.0e+00" res="0.0e+01" rms="0.0e+00">
                <Node Cut="0.0e+00" IVar="-1" NCoef="0" cType="1" depth="5" nType="1" pos="l" purity="0.608690915874" res="0.0e+01" rms="0.0e+00"/>
                <Node Cut="0.0e+00" IVar="-1" NCoef="0" cType="1" depth="5" nType="1" pos="r" purity="0.533234368354" res="0.0e+01" rms="0.0e+00"/>
              </Node>
              <Node Cut="0.0e+00" IVar="-1" NCoef="0" cType="1" depth="4" nType="1" pos="r" purity="0.830606916582" res="0.0e+01" rms="0.0e+00"/>
            </Node>
            <Node Cut="-0.0324935242534" IVar="3" NCoef="0" cType="1" depth="3" nType="0" pos="r" purity="0.0e+00" res="0.0e+01" rms="0.0e+00">
              <Node Cut="0.0e+00" IVar="-1" NCoef="0" cType="1" depth="4" nType="-1" pos="l" purity="0.430944089294" res="0.0e+01" rms="0.0e+00"/>
              <Node Cut="0.0355828180909" IVar="3" NCoef="0" cType="1" depth="4" nType="0" pos="r" purity="0.0e+00" res="0.0e+01" rms="0.0e+00">
                <Node Cut="27.0711402893" IVar="0" NCoef="0" cType="1" depth="5" nType="0" pos="l" purity="0.0e+00" res="0.0e+01" rms="0.0e+00">
                  <Node Cut="0.0e+00" IVar="-1" NCoef="0" cType="1" depth="6" nType="1" pos="l" purity="0.554346306773" res="0.0e+01" rms="0.0e+00"/>
                  <Node Cut="0.0e+00" IVar="-1" NCoef="0" cType="1" depth="6" nType="1" pos="r" purity="0.505711917643" res="0.0e+01" rms="0.0e+00"/>
                </Node>
                <Node Cut="0.0e+00" IVar="-1" NCoef="0" cType="1" depth="5" nType="-1" pos="r" purity="0.435595408492" res="0.0e+01" rms="0.0e+00"/>
              </Node>
            </Node>
          </Node>
        </Node>
        <Node Cut="0.00821782741696" IVar="4" NCoef="0" cType="1" depth="1" nType="0" pos="r" purity="0.0e+00" res="0.0e+01" rms="0.0e+00">
          <Node Cut="0.0104346955195" IVar="5" NCoef="0" cType="1" depth="2" nType="0" pos="l" purity="0.0e+00" res="0.0e+01" rms="0.0e+00">
            <Node Cut="-0.00812983047217" IVar="4" NCoef="0" cType="1" depth="3" nType="0" pos="l" purity="0.0e+00" res="0.0e+01" rms="0.0e+00">
              <Node Cut="-1.0270537138" IVar="2" NCoef="0" cType="1" depth="4" nType="0" pos="l" purity="0.0e+00" res="0.0e+01" rms="0.0e+00">
                <Node Cut="0.0e+00" IVar="-1" NCoef="0" cType="1" depth="5" nType="1" pos="l" purity="0.966541207291" res="0.0e+01" rms="0.0e+00"/>
                <Node Cut="0.0e+00" IVar="-1" NCoef="0" cType="1" depth="5" nType="1" pos="r" purity="1.0" res="0.0e+01" rms="0.0e+00"/>
              </Node>
              <Node Cut="0.0e+00" IVar="-1" NCoef="0" cType="1" depth="4" nType="1" pos="r" purity="0.858095775738" res="0.0e+01" rms="0.0e+00"/>
            </Node>
            <Node Cut="0.0e+00" IVar="-1" NCoef="0" cType="1" depth="3" nType="1" pos="r" purity="0.703144268208" res="0.0e+01" rms="0.0e+00"/>
          </Node>
          <Node Cut="0.0e+00" IVar="-1" NCoef="0" cType="1" depth="2" nType="-1" pos="r" purity="0.406682372052" res="0.0e+01" rms="0.0e+00"/>
        </Node>
      </Node>
    </BinaryTree>
    <BinaryTree boostWeight="0.174585576776" itree="12" type="DecisionTree">
      <Node Cut="38.8863601685" IVar="0" NCoef="0" cType="1" depth="0" nType="0" pos="s" purity="0.0e+00" res="0.0e+01" rms="0.0e+00">
        <Node Cut="0.802155613899" IVar="1" NCoef="0" cType="1" depth="1" nType="0" pos="l" purity="0.0e+00" res="0.0e+01" rms="0.0e+00">
          <Node Cut="-0.930094718933" IVar="1" NCoef="0" cType="1" depth="2" nType="0" pos="l" purity="0.0e+00" res="0.0e+01" rms="0.0e+00">
            <Node Cut="0.0e+00" IVar="-1" NCoef="0" cType="1" depth="3" nType="-1" pos="l" purity="0.455321516153" res="0.0e+01" rms="0.0e+00"/>
            <Node Cut="18.7620277405" IVar="0" NCoef="0" cType="1" depth="3" nType="0" pos="r" purity="0.0e+00" res="0.0e+01" rms="0.0e+00">
              <Node Cut="0.0e+00" IVar="-1" NCoef="0" cType="1" depth="4" nType="1" pos="l" purity="0.502726667636" res="0.0e+01" rms="0.0e+00"/>
              <Node Cut="-0.0394262038171" IVar="4" NCoef="0" cType="1" depth="4" nType="0" pos="r" purity="0.0e+00" res="0.0e+01" rms="0.0e+00">
                <Node Cut="0.0e+00" IVar="-1" NCoef="0" cType="1" depth="5" nType="1" pos="l" purity="0.670390280095" res="0.0e+01" rms="0.0e+00"/>
                <Node Cut="30.9661693573" IVar="0" NCoef="0" cType="1" depth="5" nType="0" pos="r" purity="0.0e+00" res="0.0e+01" rms="0.0e+00">
                  <Node Cut="0.0e+00" IVar="-1" NCoef="0" cType="1" depth="6" nType="1" pos="l" purity="0.550061919962" res="0.0e+01" rms="0.0e+00"/>
                  <Node Cut="0.0e+00" IVar="-1" NCoef="0" cType="1" depth="6" nType="1" pos="r" purity="0.596257637251" res="0.0e+01" rms="0.0e+00"/>
                </Node>
              </Node>
            </Node>
          </Node>
          <Node Cut="0.00318890763447" IVar="3" NCoef="0" cType="1" depth="2" nType="0" pos="r" purity="0.0e+00" res="0.0e+01" rms="0.0e+00">
            <Node Cut="0.0e+00" IVar="-1" NCoef="0" cType="1" depth="3" nType="-1" pos="l" purity="0.465435779951" res="0.0e+01" rms="0.0e+00"/>
            <Node Cut="0.0e+00" IVar="-1" NCoef="0" cType="1" depth="3" nType="-1" pos="r" purity="0.419196492505" res="0.0e+01" rms="0.0e+00"/>
          </Node>
        </Node>
        <Node Cut="0.0137750487775" IVar="5" NCoef="0" cType="1" depth="1" nType="0" pos="r" purity="0.0e+00" res="0.0e+01" rms="0.0e+00">
          <Node Cut="-0.00812983047217" IVar="4" NCoef="0" cType="1" depth="2" nType="0" pos="l" purity="0.0e+00" res="0.0e+01" rms="0.0e+00">
            <Node Cut="-1.04877376556" IVar="2" NCoef="0" cType="1" depth="3" nType="0" pos="l" purity="0.0e+00" res="0.0e+01" rms="0.0e+00">
              <Node Cut="0.0e+00" IVar="-1" NCoef="0" cType="1" depth="4" nType="1" pos="l" purity="0.95817633489" res="0.0e+01" rms="0.0e+00"/>
              <Node Cut="0.0e+00" IVar="-1" NCoef="0" cType="1" depth="4" nType="1" pos="r" purity="1.0" res="0.0e+01" rms="0.0e+00"/>
            </Node>
            <Node Cut="0.0e+00" IVar="-1" NCoef="0" cType="1" depth="3" nType="1" pos="r" purity="0.75258555868" res="0.0e+01" rms="0.0e+00"/>
          </Node>
          <Node Cut="0.0e+00" IVar="-1" NCoef="0" cType="1" depth="2" nType="-1" pos="r" purity="0.414358487103" res="0.0e+01" rms="0.0e+00"/>
        </Node>
      </Node>
    </BinaryTree>
    <BinaryTree boostWeight="0.159723905506" itree="13" type="DecisionTree">
      <Node Cut="38.8863601685" IVar="0" NCoef="0" cType="1" depth="0" nType="0" pos="s" purity="0.0e+00" res="0.0e+01" rms="0.0e+00">
        <Node Cut="18.6893959045" IVar="0" NCoef="0" cType="1" depth="1" nType="0" pos="l" purity="0.0e+00" res="0.0e+01" rms="0.0e+00">
          <Node Cut="15.3041553497" IVar="0" NCoef="0" cType="1" depth="2" nType="0" pos="l" purity="0.0e+00" res="0.0e+01" rms="0.0e+00">
            <Node Cut="0.0e+00" IVar="-1" NCoef="0" cType="1" depth="3" nType="-1" pos="l" purity="0.486334613715" res="0.0e+01" rms="0.0e+00"/>
            <Node Cut="0.0e+00" IVar="-1" NCoef="0" cType="1" depth="3" nType="-1" pos="r" purity="0.437296021606" res="0.0e+01" rms="0.0e+00"/>
          </Node>
          <Node Cut="0.0137838674709" IVar="5" NCoef="0" cType="1" depth="2" nType="0" pos="r" purity="0.0e+00" res="0.0e+01" rms="0.0e+00">
            <Node Cut="26.0532913208" IVar="0" NCoef="0" cType="1" depth="3" nType="0" pos="l" purity="0.0e+00" res="0.0e+01" rms="0.0e+00">
              <Node Cut="0.0e+00" IVar="-1" NCoef="0" cType="1" depth="4" nType="1" pos="l" purity="0.506154770695" res="0.0e+01" rms="0.0e+00"/>
              <Node Cut="-0.0408168435097" IVar="4" NCoef="0" cType="1" depth="4" nType="0" pos="r" purity="0.0e+00" res="0.0e+01" rms="0.0e+00">
                <Node Cut="0.0e+00" IVar="-1" NCoef="0" cType="1" depth="5" nType="1" pos="l" purity="0.87497844942" res="0.0e+01" rms="0.0e+00"/>
                <Node Cut="32.6641311646" IVar="0" NCoef="0" cType="1" depth="5" nType="0" pos="r" purity="0.0e+00" res="0.0e+01" rms="0.0e+00">
                  <Node Cut="0.0e+00" IVar="-1" NCoef="0" cType="1" depth="6" nType="1" pos="l" purity="0.645633041381" res="0.0e+01" rms="0.0e+00"/>
                  <Node Cut="0.0e+00" IVar="-1" NCoef="0" cType="1" depth="6" nType="1" pos="r" purity="0.730671755575" res="0.0e+01" rms="0.0e+00"/>
                </Node>
              </Node>
            </Node>
            <Node Cut="0.0e+00" IVar="-1" NCoef="0" cType="1" depth="3" nType="-1" pos="r" purity="0.455318329825" res="0.0e+01" rms="0.0e+00"/>
          </Node>
        </Node>
        <Node Cut="0.00124883721583" IVar="4" NCoef="0" cType="1" depth="1" nType="0" pos="r" purity="0.0e+00" res="0.0e+01" rms="0.0e+00">
          <Node Cut="0.00964441522956" IVar="5" NCoef="0" cType="1" depth="2" nType="0" pos="l" purity="0.0e+00" res="0.0e+01" rms="0.0e+00">
            <Node Cut="-0.0098426733166" IVar="4" NCoef="0" cType="1" depth="3" nType="0" pos="l" purity="0.0e+00" res="0.0e+01" rms="0.0e+00">
              <Node Cut="-1.00090110302" IVar="2" NCoef="0" cType="1" depth="4" nType="0" pos="l" purity="0.0e+00" res="0.0e+01" rms="0.0e+00">
                <Node Cut="0.0e+00" IVar="-1" NCoef="0" cType="1" depth="5" nType="1" pos="l" purity="0.950546526499" res="0.0e+01" rms="0.0e+00"/>
                <Node Cut="0.0e+00" IVar="-1" NCoef="0" cType="1" depth="5" nType="1" pos="r" purity="1.0" res="0.0e+01" rms="0.0e+00"/>
              </Node>
              <Node Cut="0.0e+00" IVar="-1" NCoef="0" cType="1" depth="4" nType="1" pos="r" purity="0.826135546115" res="0.0e+01" rms="0.0e+00"/>
            </Node>
            <Node Cut="0.0e+00" IVar="-1" NCoef="0" cType="1" depth="3" nType="1" pos="r" purity="0.750861959087" res="0.0e+01" rms="0.0e+00"/>
          </Node>
          <Node Cut="0.0e+00" IVar="-1" NCoef="0" cType="1" depth="2" nType="-1" pos="r" purity="0.491597914318" res="0.0e+01" rms="0.0e+00"/>
        </Node>
      </Node>
    </BinaryTree>
    <BinaryTree boostWeight="0.15622683499" itree="14" type="DecisionTree">
      <Node Cut="38.8863601685" IVar="0" NCoef="0" cType="1" depth="0" nType="0" pos="s" purity="0.0e+00" res="0.0e+01" rms="0.0e+00">
        <Node Cut="0.0677739530802" IVar="3" NCoef="0" cType="1" depth="1" nType="0" pos="l" purity="0.0e+00" res="0.0e+01" rms="0.0e+00">
          <Node Cut="-0.0398698225617" IVar="3" NCoef="0" cType="1" depth="2" nType="0" pos="l" purity="0.0e+00" res="0.0e+01" rms="0.0e+00">
            <Node Cut="0.0e+00" IVar="-1" NCoef="0" cType="1" depth="3" nType="-1" pos="l" purity="0.481105509748" res="0.0e+01" rms="0.0e+00"/>
            <Node Cut="-0.0492726489902" IVar="4" NCoef="0" cType="1" depth="3" nType="0" pos="r" purity="0.0e+00" res="0.0e+01" rms="0.0e+00">
              <Node Cut="0.0e+00" IVar="-1" NCoef="0" cType="1" depth="4" nType="1" pos="l" purity="0.625625387282" res="0.0e+01" rms="0.0e+00"/>
              <Node Cut="0.0129704605788" IVar="4" NCoef="0" cType="1" depth="4" nType="0" pos="r" purity="0.0e+00" res="0.0e+01" rms="0.0e+00">
                <Node Cut="31.3363704681" IVar="0" NCoef="0" cType="1" depth="5" nType="0" pos="l" purity="0.0e+00" res="0.0e+01" rms="0.0e+00">
                  <Node Cut="0.0e+00" IVar="-1" NCoef="0" cType="1" depth="6" nType="-1" pos="l" purity="0.48708245114" res="0.0e+01" rms="0.0e+00"/>
                  <Node Cut="0.0e+00" IVar="-1" NCoef="0" cType="1" depth="6" nType="1" pos="r" purity="0.674825812354" res="0.0e+01" rms="0.0e+00"/>
                </Node>
                <Node Cut="0.0e+00" IVar="-1" NCoef="0" cType="1" depth="5" nType="1" pos="r" purity="0.555444730075" res="0.0e+01" rms="0.0e+00"/>
              </Node>
            </Node>
          </Node>
          <Node Cut="0.0e+00" IVar="-1" NCoef="0" cType="1" depth="2" nType="-1" pos="r" purity="0.466220586303" res="0.0e+01" rms="0.0e+00"/>
        </Node>
        <Node Cut="0.0137750487775" IVar="5" NCoef="0" cType="1" depth="1" nType="0" pos="r" purity="0.0e+00" res="0.0e+01" rms="0.0e+00">
          <Node Cut="-0.00812983047217" IVar="4" NCoef="0" cType="1" depth="2" nType="0" pos="l" purity="0.0e+00" res="0.0e+01" rms="0.0e+00">
            <Node Cut="-1.04877376556" IVar="2" NCoef="0" cType="1" depth="3" nType="0" pos="l" purity="0.0e+00" res="0.0e+01" rms="0.0e+00">
              <Node Cut="0.0e+00" IVar="-1" NCoef="0" cType="1" depth="4" nType="1" pos="l" purity="0.942527580714" res="0.0e+01" rms="0.0e+00"/>
              <Node Cut="0.0e+00" IVar="-1" NCoef="0" cType="1" depth="4" nType="1" pos="r" purity="1.0" res="0.0e+01" rms="0.0e+00"/>
            </Node>
            <Node Cut="0.0e+00" IVar="-1" NCoef="0" cType="1" depth="3" nType="1" pos="r" purity="0.734787988196" res="0.0e+01" rms="0.0e+00"/>
          </Node>
          <Node Cut="0.0e+00" IVar="-1" NCoef="0" cType="1" depth="2" nType="-1" pos="r" purity="0.478384420288" res="0.0e+01" rms="0.0e+00"/>
        </Node>
      </Node>
    </BinaryTree>
    <BinaryTree boostWeight="0.182366022513" itree="15" type="DecisionTree">
      <Node Cut="48.499797821" IVar="0" NCoef="0" cType="1" depth="0" nType="0" pos="s" purity="0.0e+00" res="0.0e+01" rms="0.0e+00">
        <Node Cut="38.8863601685" IVar="0" NCoef="0" cType="1" depth="1" nType="0" pos="l" purity="0.0e+00" res="0.0e+01" rms="0.0e+00">
          <Node Cut="-0.0215898174793" IVar="4" NCoef="0" cType="1" depth="2" nType="0" pos="l" purity="0.0e+00" res="0.0e+01" rms="0.0e+00">
            <Node Cut="31.9281806946" IVar="0" NCoef="0" cType="1" depth="3" nType="0" pos="l" purity="0.0e+00" res="0.0e+01" rms="0.0e+00">
              <Node Cut="-0.507050812244" IVar="2" NCoef="0" cType="1" depth="4" nType="0" pos="l" purity="0.0e+00" res="0.0e+01" rms="0.0e+00">
                <Node Cut="0.0e+00" IVar="-1" NCoef="0" cType="1" depth="5" nType="1" pos="l" purity="0.580284088204" res="0.0e+01" rms="0.0e+00"/>
                <Node Cut="0.60482609272" IVar="2" NCoef="0" cType="1" depth="5" nType="0" pos="r" purity="0.0e+00" res="0.0e+01" rms="0.0e+00">
                  <Node Cut="0.0e+00" IVar="-1" NCoef="0" cType="1" depth="6" nType="-1" pos="l" purity="0.454711401631" res="0.0e+01" rms="0.0e+00"/>
                  <Node Cut="0.0e+00" IVar="-1" NCoef="0" cType="1" depth="6" nType="1" pos="r" purity="0.575431068483" res="0.0e+01" rms="0.0e+00"/>
                </Node>
              </Node>
              <Node Cut="0.0e+00" IVar="-1" NCoef="0" cType="1" depth="4" nType="1" pos="r" purity="0.76571088285" res="0.0e+01" rms="0.0e+00"/>
            </Node>
            <Node Cut="0.0281590186059" IVar="5" NCoef="0" cType="1" depth="3" nType="0" pos="r" purity="0.0e+00" res="0.0e+01" rms="0.0e+00">
              <Node Cut="26.0953998566" IVar="0" NCoef="0" cType="1" depth="4" nType="0" pos="l" purity="0.0e+00" res="0.0e+01" rms="0.0e+00">
                <Node Cut="0.0e+00" IVar="-1" NCoef="0" cType="1" depth="5" nType="-1" pos="l" purity="0.447065615018" res="0.0e+01" rms="0.0e+00"/>
                <Node Cut="0.0e+00" IVar="-1" NCoef="0" cType="1" depth="5" nType="1" pos="r" purity="0.607965621339" res="0.0e+01" rms="0.0e+00"/>
              </Node>
              <Node Cut="0.0e+00" IVar="-1" NCoef="0" cType="1" depth="4" nType="1" pos="r" purity="0.544727236772" res="0.0e+01" rms="0.0e+00"/>
            </Node>
          </Node>
          <Node Cut="-0.0232154838741" IVar="4" NCoef="0" cType="1" depth="2" nType="0" pos="r" purity="0.0e+00" res="0.0e+01" rms="0.0e+00">
            <Node Cut="0.0e+00" IVar="-1" NCoef="0" cType="1" depth="3" nType="1" pos="l" purity="0.918464320384" res="0.0e+01" rms="0.0e+00"/>
            <Node Cut="0.0e+00" IVar="-1" NCoef="0" cType="1" depth="3" nType="1" pos="r" purity="0.565932284452" res="0.0e+01" rms="0.0e+00"/>
          </Node>
        </Node>
        <Node Cut="0.00124883721583" IVar="4" NCoef="0" cType="1" depth="1" nType="0" pos="r" purity="0.0e+00" res="0.0e+01" rms="0.0e+00">
          <Node Cut="0.00577684631571" IVar="5" NCoef="0" cType="1" depth="2" nType="0" pos="l" purity="0.0e+00" res="0.0e+01" rms="0.0e+00">
            <Node Cut="0.0e+00" IVar="-1" NCoef="0" cType="1" depth="3" nType="1" pos="l" purity="1.0" res="0.0e+01" rms="0.0e+00"/>
            <Node Cut="0.0e+00" IVar="-1" NCoef="0" cType="1" depth="3" nType="1" pos="r" purity="0.851542111281" res="0.0e+01" rms="0.0e+00"/>
          </Node>
          <Node Cut="0.0e+00" IVar="-1" NCoef="0" cType="1" depth="2" nType="1" pos="r" purity="0.537088157691" res="0.0e+01" rms="0.0e+00"/>
        </Node>
      </Node>
    </BinaryTree>
    <BinaryTree boostWeight="0.145138367065" itree="16" type="DecisionTree">
      <Node Cut="48.499797821" IVar="0" NCoef="0" cType="1" depth="0" nType="0" pos="s" purity="0.0e+00" res="0.0e+01" rms="0.0e+00">
        <Node Cut="0.0201376266778" IVar="5" NCoef="0" cType="1" depth="1" nType="0" pos="l" purity="0.0e+00" res="0.0e+01" rms="0.0e+00">
          <Node Cut="25.9877357483" IVar="0" NCoef="0" cType="1" depth="2" nType="0" pos="l" purity="0.0e+00" res="0.0e+01" rms="0.0e+00">
            <Node Cut="15.3041553497" IVar="0" NCoef="0" cType="1" depth="3" nType="0" pos="l" purity="0.0e+00" res="0.0e+01" rms="0.0e+00">
              <Node Cut="0.0e+00" IVar="-1" NCoef="0" cType="1" depth="4" nType="1" pos="l" purity="0.558614283151" res="0.0e+01" rms="0.0e+00"/>
              <Node Cut="21.5298976898" IVar="0" NCoef="0" cType="1" depth="4" nType="0" pos="r" purity="0.0e+00" res="0.0e+01" rms="0.0e+00">
                <Node Cut="0.0e+00" IVar="-1" NCoef="0" cType="1" depth="5" nType="-1" pos="l" purity="0.431013827656" res="0.0e+01" rms="0.0e+00"/>
                <Node Cut="0.0e+00" IVar="-1" NCoef="0" cType="1" depth="5" nType="1" pos="r" purity="0.550614362827" res="0.0e+01" rms="0.0e+00"/>
              </Node>
            </Node>
            <Node Cut="-0.0102184107527" IVar="4" NCoef="0" cType="1" depth="3" nType="0" pos="r" purity="0.0e+00" res="0.0e+01" rms="0.0e+00">
              <Node Cut="38.7663574219" IVar="0" NCoef="0" cType="1" depth="4" nType="0" pos="l" purity="0.0e+00" res="0.0e+01" rms="0.0e+00">
                <Node Cut="-0.0423577874899" IVar="4" NCoef="0" cType="1" depth="5" nType="0" pos="l" purity="0.0e+00" res="0.0e+01" rms="0.0e+00">
                  <Node Cut="0.0e+00" IVar="-1" NCoef="0" cType="1" depth="6" nType="1" pos="l" purity="0.87986571292" res="0.0e+01" rms="0.0e+00"/>
                  <Node Cut="0.0e+00" IVar="-1" NCoef="0" cType="1" depth="6" nType="1" pos="r" purity="0.685406903426" res="0.0e+01" rms="0.0e+00"/>
                </Node>
                <Node Cut="0.0e+00" IVar="-1" NCoef="0" cType="1" depth="5" nType="1" pos="r" purity="0.954410815964" res="0.0e+01" rms="0.0e+00"/>
              </Node>
              <Node Cut="0.0e+00" IVar="-1" NCoef="0" cType="1" depth="4" nType="1" pos="r" purity="0.551741063967" res="0.0e+01" rms="0.0e+00"/>
            </Node>
          </Node>
          <Node Cut="0.0e+00" IVar="-1" NCoef="0" cType="1" depth="2" nType="-1" pos="r" purity="0.486821747606" res="0.0e+01" rms="0.0e+00"/>
        </Node>
        <Node Cut="0.00124883721583" IVar="4" NCoef="0" cType="1" depth="1" nType="0" pos="r" purity="0.0e+00" res="0.0e+01" rms="0.0e+00">
          <Node Cut="0.00577684631571" IVar="5" NCoef="0" cType="1" depth="2" nType="0" pos="l" purity="0.0e+00" res="0.0e+01" rms="0.0e+00">
            <Node Cut="0.0e+00" IVar="-1" NCoef="0" cType="1" depth="3" nType="1" pos="l" purity="1.0" res="0.0e+01" rms="0.0e+00"/>
            <Node Cut="0.0e+00" IVar="-1" NCoef="0" cType="1" depth="3" nType="1" pos="r" purity="0.826981184048" res="0.0e+01" rms="0.0e+00"/>
          </Node>
          <Node Cut="0.0e+00" IVar="-1" NCoef="0" cType="1" depth="2" nType="-1" pos="r" purity="0.491565698871" res="0.0e+01" rms="0.0e+00"/>
        </Node>
      </Node>
    </BinaryTree>
    <BinaryTree boostWeight="0.133029932087" itree="17" type="DecisionTree">
      <Node Cut="48.499797821" IVar="0" NCoef="0" cType="1" depth="0" nType="0" pos="s" purity="0.0e+00" res="0.0e+01" rms="0.0e+00">
        <Node Cut="1.67702591419" IVar="2" NCoef="0" cType="1" depth="1" nType="0" pos="l" purity="0.0e+00" res="0.0e+01" rms="0.0e+00">
          <Node Cut="-1.57048177719" IVar="2" NCoef="0" cType="1" depth="2" nType="0" pos="l" purity="0.0e+00" res="0.0e+01" rms="0.0e+00">
            <Node Cut="0.0e+00" IVar="-1" NCoef="0" cType="1" depth="3" nType="-1" pos="l" purity="0.473699875497" res="0.0e+01" rms="0.0e+00"/>
            <Node Cut="38.862159729" IVar="0" NCoef="0" cType="1" depth="3" nType="0" pos="r" purity="0.0e+00" res="0.0e+01" rms="0.0e+00">
              <Node Cut="0.646258115768" IVar="2" NCoef="0" cType="1" depth="4" nType="0" pos="l" purity="0.0e+00" res="0.0e+01" rms="0.0e+00">
                <Node Cut="-0.579324245453" IVar="2" NCoef="0" cType="1" depth="5" nType="0" pos="l" purity="0.0e+00" res="0.0e+01" rms="0.0e+00">
                  <Node Cut="0.0e+00" IVar="-1" NCoef="0" cType="1" depth="6" nType="1" pos="l" purity="0.574009809416" res="0.0e+01" rms="0.0e+00"/>
                  <Node Cut="0.0e+00" IVar="-1" NCoef="0" cType="1" depth="6" nType="1" pos="r" purity="0.510417952133" res="0.0e+01" rms="0.0e+00"/>
                </Node>
                <Node Cut="0.0e+00" IVar="-1" NCoef="0" cType="1" depth="5" nType="1" pos="r" purity="0.576305140949" res="0.0e+01" rms="0.0e+00"/>
              </Node>
              <Node Cut="-0.0238040741533" IVar="4" NCoef="0" cType="1" depth="4" nType="0" pos="r" purity="0.0e+00" res="0.0e+01" rms="0.0e+00">
                <Node Cut="0.0e+00" IVar="-1" NCoef="0" cType="1" depth="5" nType="1" pos="l" purity="0.957392307915" res="0.0e+01" rms="0.0e+00"/>
                <Node Cut="0.0e+00" IVar="-1" NCoef="0" cType="1" depth="5" nType="1" pos="r" purity="0.643891893352" res="0.0e+01" rms="0.0e+00"/>
              </Node>
            </Node>
          </Node>
          <Node Cut="0.0e+00" IVar="-1" NCoef="0" cType="1" depth="2" nType="-1" pos="r" purity="0.469487633749" res="0.0e+01" rms="0.0e+00"/>
        </Node>
        <Node Cut="0.00124883721583" IVar="4" NCoef="0" cType="1" depth="1" nType="0" pos="r" purity="0.0e+00" res="0.0e+01" rms="0.0e+00">
          <Node Cut="0.00577684631571" IVar="5" NCoef="0" cType="1" depth="2" nType="0" pos="l" purity="0.0e+00" res="0.0e+01" rms="0.0e+00">
            <Node Cut="0.0e+00" IVar="-1" NCoef="0" cType="1" depth="3" nType="1" pos="l" purity="1.0" res="0.0e+01" rms="0.0e+00"/>
            <Node Cut="0.0e+00" IVar="-1" NCoef="0" cType="1" depth="3" nType="1" pos="r" purity="0.805219750444" res="0.0e+01" rms="0.0e+00"/>
          </Node>
          <Node Cut="0.0e+00" IVar="-1" NCoef="0" cType="1" depth="2" nType="1" pos="r" purity="0.527820726334" res="0.0e+01" rms="0.0e+00"/>
        </Node>
      </Node>
    </BinaryTree>
    <BinaryTree boostWeight="0.148894253861" itree="18" type="DecisionTree">
      <Node Cut="59.2145576477" IVar="0" NCoef="0" cType="1" depth="0" nType="0" pos="s" purity="0.0e+00" res="0.0e+01" rms="0.0e+00">
        <Node Cut="38.8863601685" IVar="0" NCoef="0" cType="1" depth="1" nType="0" pos="l" purity="0.0e+00" res="0.0e+01" rms="0.0e+00">
          <Node Cut="27.8082847595" IVar="0" NCoef="0" cType="1" depth="2" nType="0" pos="l" purity="0.0e+00" res="0.0e+01" rms="0.0e+00">
            <Node Cut="0.0281593427062" IVar="5" NCoef="0" cType="1" depth="3" nType="0" pos="l" purity="0.0e+00" res="0.0e+01" rms="0.0e+00">
              <Node Cut="-0.0107684805989" IVar="4" NCoef="0" cType="1" depth="4" nType="0" pos="l" purity="0.0e+00" res="0.0e+01" rms="0.0e+00">
                <Node Cut="0.308461606503" IVar="1" NCoef="0" cType="1" depth="5" nType="0" pos="l" purity="0.0e+00" res="0.0e+01" rms="0.0e+00">
                  <Node Cut="0.0e+00" IVar="-1" NCoef="0" cType="1" depth="6" nType="1" pos="l" purity="0.54348304589" res="0.0e+01" rms="0.0e+00"/>
                  <Node Cut="0.0e+00" IVar="-1" NCoef="0" cType="1" depth="6" nType="-1" pos="r" purity="0.490363718123" res="0.0e+01" rms="0.0e+00"/>
                </Node>
                <Node Cut="0.0e+00" IVar="-1" NCoef="0" cType="1" depth="5" nType="-1" pos="r" purity="0.468314746746" res="0.0e+01" rms="0.0e+00"/>
              </Node>
              <Node Cut="0.0e+00" IVar="-1" NCoef="0" cType="1" depth="4" nType="1" pos="r" purity="0.557449719813" res="0.0e+01" rms="0.0e+00"/>
            </Node>
            <Node Cut="-0.0215564593673" IVar="4" NCoef="0" cType="1" depth="3" nType="0" pos="r" purity="0.0e+00" res="0.0e+01" rms="0.0e+00">
              <Node Cut="0.0e+00" IVar="-1" NCoef="0" cType="1" depth="4" nType="1" pos="l" purity="0.610145880326" res="0.0e+01" rms="0.0e+00"/>
              <Node Cut="0.0e+00" IVar="-1" NCoef="0" cType="1" depth="4" nType="-1" pos="r" purity="0.404381960317" res="0.0e+01" rms="0.0e+00"/>
            </Node>
          </Node>
          <Node Cut="-0.00852402672172" IVar="4" NCoef="0" cType="1" depth="2" nType="0" pos="r" purity="0.0e+00" res="0.0e+01" rms="0.0e+00">
            <Node Cut="-0.475632637739" IVar="2" NCoef="0" cType="1" depth="3" nType="0" pos="l" purity="0.0e+00" res="0.0e+01" rms="0.0e+00">
              <Node Cut="0.0e+00" IVar="-1" NCoef="0" cType="1" depth="4" nType="1" pos="l" purity="0.825871492513" res="0.0e+01" rms="0.0e+00"/>
              <Node Cut="0.5806235075" IVar="2" NCoef="0" cType="1" depth="4" nType="0" pos="r" purity="0.0e+00" res="0.0e+01" rms="0.0e+00">
                <Node Cut="0.0e+00" IVar="-1" NCoef="0" cType="1" depth="5" nType="1" pos="l" purity="0.960788269901" res="0.0e+01" rms="0.0e+00"/>
                <Node Cut="0.0e+00" IVar="-1" NCoef="0" cType="1" depth="5" nType="1" pos="r" purity="0.866404605827" res="0.0e+01" rms="0.0e+00"/>
              </Node>
            </Node>
            <Node Cut="0.0e+00" IVar="-1" NCoef="0" cType="1" depth="3" nType="-1" pos="r" purity="0.47549931681" res="0.0e+01" rms="0.0e+00"/>
          </Node>
        </Node>
        <Node Cut="-0.00493182754144" IVar="4" NCoef="0" cType="1" depth="1" nType="0" pos="r" purity="0.0e+00" res="0.0e+01" rms="0.0e+00">
          <Node Cut="0.0427475720644" IVar="3" NCoef="0" cType="1" depth="2" nType="0" pos="l" purity="0.0e+00" res="0.0e+01" rms="0.0e+00">
            <Node Cut="-0.0438489690423" IVar="3" NCoef="0" cType="1" depth="3" nType="0" pos="l" purity="0.0e+00" res="0.0e+01" rms="0.0e+00">
              <Node Cut="0.0e+00" IVar="-1" NCoef="0" cType="1" depth="4" nType="1" pos="l" purity="0.92532577313" res="0.0e+01" rms="0.0e+00"/>
              <Node Cut="0.0e+00" IVar="-1" NCoef="0" cType="1" depth="4" nType="1" pos="r" purity="1.0" res="0.0e+01" rms="0.0e+00"/>
            </Node>
            <Node Cut="0.0e+00" IVar="-1" NCoef="0" cType="1" depth="3" nType="1" pos="r" purity="0.908013665479" res="0.0e+01" rms="0.0e+00"/>
          </Node>
          <Node Cut="0.0e+00" IVar="-1" NCoef="0" cType="1" depth="2" nType="1" pos="r" purity="0.577720268819" res="0.0e+01" rms="0.0e+00"/>
        </Node>
      </Node>
    </BinaryTree>
    <BinaryTree boostWeight="0.117821335475" itree="19" type="DecisionTree">
      <Node Cut="48.499797821" IVar="0" NCoef="0" cType="1" depth="0" nType="0" pos="s" purity="0.0e+00" res="0.0e+01" rms="0.0e+00">
        <Node Cut="38.8863601685" IVar="0" NCoef="0" cType="1" depth="1" nType="0" pos="l" purity="0.0e+00" res="0.0e+01" rms="0.0e+00">
          <Node Cut="0.0137838674709" IVar="5" NCoef="0" cType="1" depth="2" nType="0" pos="l" purity="0.0e+00" res="0.0e+01" rms="0.0e+00">
            <Node Cut="28.3257713318" IVar="0" NCoef="0" cType="1" depth="3" nType="0" pos="l" purity="0.0e+00" res="0.0e+01" rms="0.0e+00">
              <Node Cut="0.649730443954" IVar="2" NCoef="0" cType="1" depth="4" nType="0" pos="l" purity="0.0e+00" res="0.0e+01" rms="0.0e+00">
                <Node Cut="-0.576632142067" IVar="2" NCoef="0" cType="1" depth="5" nType="0" pos="l" purity="0.0e+00" res="0.0e+01" rms="0.0e+00">
                  <Node Cut="0.0e+00" IVar="-1" NCoef="0" cType="1" depth="6" nType="1" pos="l" purity="0.543437208366" res="0.0e+01" rms="0.0e+00"/>
                  <Node Cut="0.0e+00" IVar="-1" NCoef="0" cType="1" depth="6" nType="-1" pos="r" purity="0.443998576024" res="0.0e+01" rms="0.0e+00"/>
                </Node>
                <Node Cut="0.0e+00" IVar="-1" NCoef="0" cType="1" depth="5" nType="1" pos="r" purity="0.547201243778" res="0.0e+01" rms="0.0e+00"/>
              </Node>
              <Node Cut="-0.0264991559088" IVar="4" NCoef="0" cType="1" depth="4" nType="0" pos="r" purity="0.0e+00" res="0.0e+01" rms="0.0e+00">
                <Node Cut="0.0e+00" IVar="-1" NCoef="0" cType="1" depth="5" nType="1" pos="l" purity="0.762138141368" res="0.0e+01" rms="0.0e+00"/>
                <Node Cut="0.0e+00" IVar="-1" NCoef="0" cType="1" depth="5" nType="1" pos="r" purity="0.587774533271" res="0.0e+01" rms="0.0e+00"/>
              </Node>
            </Node>
            <Node Cut="0.0e+00" IVar="-1" NCoef="0" cType="1" depth="3" nType="-1" pos="r" purity="0.487707888296" res="0.0e+01" rms="0.0e+00"/>
          </Node>
          <Node Cut="-0.0232154838741" IVar="4" NCoef="0" cType="1" depth="2" nType="0" pos="r" purity="0.0e+00" res="0.0e+01" rms="0.0e+00">
            <Node Cut="0.0e+00" IVar="-1" NCoef="0" cType="1" depth="3" nType="1" pos="l" purity="0.889385310846" res="0.0e+01" rms="0.0e+00"/>
            <Node Cut="0.0e+00" IVar="-1" NCoef="0" cType="1" depth="3" nType="1" pos="r" purity="0.539635161702" res="0.0e+01" rms="0.0e+00"/>
          </Node>
        </Node>
        <Node Cut="0.00124883721583" IVar="4" NCoef="0" cType="1" depth="1" nType="0" pos="r" purity="0.0e+00" res="0.0e+01" rms="0.0e+00">
          <Node Cut="0.00577684631571" IVar="5" NCoef="0" cType="1" depth="2" nType="0" pos="l" purity="0.0e+00" res="0.0e+01" rms="0.0e+00">
            <Node Cut="0.0e+00" IVar="-1" NCoef="0" cType="1" depth="3" nType="1" pos="l" purity="1.0" res="0.0e+01" rms="0.0e+00"/>
            <Node Cut="0.0e+00" IVar="-1" NCoef="0" cType="1" depth="3" nType="1" pos="r" purity="0.759838861092" res="0.0e+01" rms="0.0e+00"/>
          </Node>
          <Node Cut="0.0e+00" IVar="-1" NCoef="0" cType="1" depth="2" nType="-1" pos="r" purity="0.491840983549" res="0.0e+01" rms="0.0e+00"/>
        </Node>
      </Node>
    </BinaryTree>
    <BinaryTree boostWeight="0.134212175377" itree="20" type="DecisionTree">
      <Node Cut="48.499797821" IVar="0" NCoef="0" cType="1" depth="0" nType="0" pos="s" purity="0.0e+00" res="0.0e+01" rms="0.0e+00">
        <Node Cut="0.0922060161829" IVar="3" NCoef="0" cType="1" depth="1" nType="0" pos="l" purity="0.0e+00" res="0.0e+01" rms="0.0e+00">
          <Node Cut="38.8825912476" IVar="0" NCoef="0" cType="1" depth="2" nType="0" pos="l" purity="0.0e+00" res="0.0e+01" rms="0.0e+00">
            <Node Cut="27.8082847595" IVar="0" NCoef="0" cType="1" depth="3" nType="0" pos="l" purity="0.0e+00" res="0.0e+01" rms="0.0e+00">
              <Node Cut="0.0147916711867" IVar="4" NCoef="0" cType="1" depth="4" nType="0" pos="l" purity="0.0e+00" res="0.0e+01" rms="0.0e+00">
                <Node Cut="17.7039546967" IVar="0" NCoef="0" cType="1" depth="5" nType="0" pos="l" purity="0.0e+00" res="0.0e+01" rms="0.0e+00">
                  <Node Cut="0.0e+00" IVar="-1" NCoef="0" cType="1" depth="6" nType="-1" pos="l" purity="0.471530453808" res="0.0e+01" rms="0.0e+00"/>
                  <Node Cut="0.0e+00" IVar="-1" NCoef="0" cType="1" depth="6" nType="1" pos="r" purity="0.546849265856" res="0.0e+01" rms="0.0e+00"/>
                </Node>
                <Node Cut="0.0e+00" IVar="-1" NCoef="0" cType="1" depth="5" nType="1" pos="r" purity="0.559497741412" res="0.0e+01" rms="0.0e+00"/>
              </Node>
              <Node Cut="-0.027389280498" IVar="4" NCoef="0" cType="1" depth="4" nType="0" pos="r" purity="0.0e+00" res="0.0e+01" rms="0.0e+00">
                <Node Cut="0.0e+00" IVar="-1" NCoef="0" cType="1" depth="5" nType="1" pos="l" purity="0.596477247852" res="0.0e+01" rms="0.0e+00"/>
                <Node Cut="0.0e+00" IVar="-1" NCoef="0" cType="1" depth="5" nType="-1" pos="r" purity="0.445184764284" res="0.0e+01" rms="0.0e+00"/>
              </Node>
            </Node>
            <Node Cut="-0.0232154838741" IVar="4" NCoef="0" cType="1" depth="3" nType="0" pos="r" purity="0.0e+00" res="0.0e+01" rms="0.0e+00">
              <Node Cut="0.0e+00" IVar="-1" NCoef="0" cType="1" depth="4" nType="1" pos="l" purity="0.923210148135" res="0.0e+01" rms="0.0e+00"/>
              <Node Cut="0.0e+00" IVar="-1" NCoef="0" cType="1" depth="4" nType="1" pos="r" purity="0.53124611449" res="0.0e+01" rms="0.0e+00"/>
            </Node>
          </Node>
          <Node Cut="0.0e+00" IVar="-1" NCoef="0" cType="1" depth="2" nType="-1" pos="r" purity="0.477718945306" res="0.0e+01" rms="0.0e+00"/>
        </Node>
        <Node Cut="0.00918003171682" IVar="5" NCoef="0" cType="1" depth="1" nType="0" pos="r" purity="0.0e+00" res="0.0e+01" rms="0.0e+00">
          <Node Cut="-0.00291917938739" IVar="4" NCoef="0" cType="1" depth="2" nType="0" pos="l" purity="0.0e+00" res="0.0e+01" rms="0.0e+00">
            <Node Cut="0.0e+00" IVar="-1" NCoef="0" cType="1" depth="3" nType="1" pos="l" purity="1.0" res="0.0e+01" rms="0.0e+00"/>
            <Node Cut="0.0e+00" IVar="-1" NCoef="0" cType="1" depth="3" nType="1" pos="r" purity="0.749913694659" res="0.0e+01" rms="0.0e+00"/>
          </Node>
          <Node Cut="0.0e+00" IVar="-1" NCoef="0" cType="1" depth="2" nType="-1" pos="r" purity="0.480858416967" res="0.0e+01" rms="0.0e+00"/>
        </Node>
      </Node>
    </BinaryTree>
    <BinaryTree boostWeight="0.100012320933" itree="21" type="DecisionTree">
      <Node Cut="48.499797821" IVar="0" NCoef="0" cType="1" depth="0" nType="0" pos="s" purity="0.0e+00" res="0.0e+01" rms="0.0e+00">
        <Node Cut="0.0779601037502" IVar="4" NCoef="0" cType="1" depth="1" nType="0" pos="l" purity="0.0e+00" res="0.0e+01" rms="0.0e+00">
          <Node Cut="0.0300859063864" IVar="5" NCoef="0" cType="1" depth="2" nType="0" pos="l" purity="0.0e+00" res="0.0e+01" rms="0.0e+00">
            <Node Cut="29.0422172546" IVar="0" NCoef="0" cType="1" depth="3" nType="0" pos="l" purity="0.0e+00" res="0.0e+01" rms="0.0e+00">
              <Node Cut="0.65280854702" IVar="2" NCoef="0" cType="1" depth="4" nType="0" pos="l" purity="0.0e+00" res="0.0e+01" rms="0.0e+00">
                <Node Cut="-0.565069437027" IVar="2" NCoef="0" cType="1" depth="5" nType="0" pos="l" purity="0.0e+00" res="0.0e+01" rms="0.0e+00">
                  <Node Cut="0.0e+00" IVar="-1" NCoef="0" cType="1" depth="6" nType="1" pos="l" purity="0.539206359188" res="0.0e+01" rms="0.0e+00"/>
                  <Node Cut="0.0e+00" IVar="-1" NCoef="0" cType="1" depth="6" nType="-1" pos="r" purity="0.467234862568" res="0.0e+01" rms="0.0e+00"/>
                </Node>
                <Node Cut="0.0e+00" IVar="-1" NCoef="0" cType="1" depth="5" nType="1" pos="r" purity="0.549217058799" res="0.0e+01" rms="0.0e+00"/>
              </Node>
              <Node Cut="-0.00961601175368" IVar="4" NCoef="0" cType="1" depth="4" nType="0" pos="r" purity="0.0e+00" res="0.0e+01" rms="0.0e+00">
                <Node Cut="0.000988781335764" IVar="3" NCoef="0" cType="1" depth="5" nType="0" pos="l" purity="0.0e+00" res="0.0e+01" rms="0.0e+00">
                  <Node Cut="0.0e+00" IVar="-1" NCoef="0" cType="1" depth="6" nType="1" pos="l" purity="0.668120257126" res="0.0e+01" rms="0.0e+00"/>
                  <Node Cut="0.0e+00" IVar="-1" NCoef="0" cType="1" depth="6" nType="1" pos="r" purity="0.937920426252" res="0.0e+01" rms="0.0e+00"/>
                </Node>
                <Node Cut="0.0e+00" IVar="-1" NCoef="0" cType="1" depth="5" nType="1" pos="r" purity="0.580772086252" res="0.0e+01" rms="0.0e+00"/>
              </Node>
            </Node>
            <Node Cut="0.0e+00" IVar="-1" NCoef="0" cType="1" depth="3" nType="-1" pos="r" purity="0.495015077492" res="0.0e+01" rms="0.0e+00"/>
          </Node>
          <Node Cut="0.0e+00" IVar="-1" NCoef="0" cType="1" depth="2" nType="-1" pos="r" purity="0.490961453663" res="0.0e+01" rms="0.0e+00"/>
        </Node>
        <Node Cut="0.00124883721583" IVar="4" NCoef="0" cType="1" depth="1" nType="0" pos="r" purity="0.0e+00" res="0.0e+01" rms="0.0e+00">
          <Node Cut="0.00577684631571" IVar="5" NCoef="0" cType="1" depth="2" nType="0" pos="l" purity="0.0e+00" res="0.0e+01" rms="0.0e+00">
            <Node Cut="0.0e+00" IVar="-1" NCoef="0" cType="1" depth="3" nType="1" pos="l" purity="1.0" res="0.0e+01" rms="0.0e+00"/>
            <Node Cut="0.0e+00" IVar="-1" NCoef="0" cType="1" depth="3" nType="1" pos="r" purity="0.758128191776" res="0.0e+01" rms="0.0e+00"/>
          </Node>
          <Node Cut="0.0e+00" IVar="-1" NCoef="0" cType="1" depth="2" nType="1" pos="r" purity="0.532725199557" res="0.0e+01" rms="0.0e+00"/>
        </Node>
      </Node>
    </BinaryTree>
    <BinaryTree boostWeight="0.114370941267" itree="22" type="DecisionTree">
      <Node Cut="48.499797821" IVar="0" NCoef="0" cType="1" depth="0" nType="0" pos="s" purity="0.0e+00" res="0.0e+01" rms="0.0e+00">
        <Node Cut="0.0647400617599" IVar="5" NCoef="0" cType="1" depth="1" nType="0" pos="l" purity="0.0e+00" res="0.0e+01" rms="0.0e+00">
          <Node Cut="32.6070098877" IVar="0" NCoef="0" cType="1" depth="2" nType="0" pos="l" purity="0.0e+00" res="0.0e+01" rms="0.0e+00">
            <Node Cut="-0.0425298064947" IVar="4" NCoef="0" cType="1" depth="3" nType="0" pos="l" purity="0.0e+00" res="0.0e+01" rms="0.0e+00">
              <Node Cut="21.2229690552" IVar="0" NCoef="0" cType="1" depth="4" nType="0" pos="l" purity="0.0e+00" res="0.0e+01" rms="0.0e+00">
                <Node Cut="0.0e+00" IVar="-1" NCoef="0" cType="1" depth="5" nType="1" pos="l" purity="0.515844308727" res="0.0e+01" rms="0.0e+00"/>
                <Node Cut="0.0e+00" IVar="-1" NCoef="0" cType="1" depth="5" nType="1" pos="r" purity="0.607520662197" res="0.0e+01" rms="0.0e+00"/>
              </Node>
              <Node Cut="-0.515693366528" IVar="1" NCoef="0" cType="1" depth="4" nType="0" pos="r" purity="0.0e+00" res="0.0e+01" rms="0.0e+00">
                <Node Cut="0.0e+00" IVar="-1" NCoef="0" cType="1" depth="5" nType="-1" pos="l" purity="0.46786151904" res="0.0e+01" rms="0.0e+00"/>
                <Node Cut="0.728081822395" IVar="1" NCoef="0" cType="1" depth="5" nType="0" pos="r" purity="0.0e+00" res="0.0e+01" rms="0.0e+00">
                  <Node Cut="0.0e+00" IVar="-1" NCoef="0" cType="1" depth="6" nType="1" pos="l" purity="0.519245029896" res="0.0e+01" rms="0.0e+00"/>
                  <Node Cut="0.0e+00" IVar="-1" NCoef="0" cType="1" depth="6" nType="-1" pos="r" purity="0.473781595884" res="0.0e+01" rms="0.0e+00"/>
                </Node>
              </Node>
            </Node>
            <Node Cut="-0.00855883024633" IVar="4" NCoef="0" cType="1" depth="3" nType="0" pos="r" purity="0.0e+00" res="0.0e+01" rms="0.0e+00">
              <Node Cut="38.8725013733" IVar="0" NCoef="0" cType="1" depth="4" nType="0" pos="l" purity="0.0e+00" res="0.0e+01" rms="0.0e+00">
                <Node Cut="0.0e+00" IVar="-1" NCoef="0" cType="1" depth="5" nType="1" pos="l" purity="0.673575219245" res="0.0e+01" rms="0.0e+00"/>
                <Node Cut="0.0e+00" IVar="-1" NCoef="0" cType="1" depth="5" nType="1" pos="r" purity="0.865739806337" res="0.0e+01" rms="0.0e+00"/>
              </Node>
              <Node Cut="0.0e+00" IVar="-1" NCoef="0" cType="1" depth="4" nType="-1" pos="r" purity="0.492900504964" res="0.0e+01" rms="0.0e+00"/>
            </Node>
          </Node>
          <Node Cut="0.0e+00" IVar="-1" NCoef="0" cType="1" depth="2" nType="1" pos="r" purity="0.551104125494" res="0.0e+01" rms="0.0e+00"/>
        </Node>
        <Node Cut="0.00124883721583" IVar="4" NCoef="0" cType="1" depth="1" nType="0" pos="r" purity="0.0e+00" res="0.0e+01" rms="0.0e+00">
          <Node Cut="0.00577684631571" IVar="5" NCoef="0" cType="1" depth="2" nType="0" pos="l" purity="0.0e+00" res="0.0e+01" rms="0.0e+00">
            <Node Cut="0.0e+00" IVar="-1" NCoef="0" cType="1" depth="3" nType="1" pos="l" purity="1.0" res="0.0e+01" rms="0.0e+00"/>
            <Node Cut="0.0e+00" IVar="-1" NCoef="0" cType="1" depth="3" nType="1" pos="r" purity="0.739319047504" res="0.0e+01" rms="0.0e+00"/>
          </Node>
          <Node Cut="0.0e+00" IVar="-1" NCoef="0" cType="1" depth="2" nType="1" pos="r" purity="0.507768343553" res="0.0e+01" rms="0.0e+00"/>
        </Node>
      </Node>
    </BinaryTree>
    <BinaryTree boostWeight="0.102271167683" itree="23" type="DecisionTree">
      <Node Cut="63.2427864075" IVar="0" NCoef="0" cType="1" depth="0" nType="0" pos="s" purity="0.0e+00" res="0.0e+01" rms="0.0e+00">
        <Node Cut="1.89893496037" IVar="2" NCoef="0" cType="1" depth="1" nType="0" pos="l" purity="0.0e+00" res="0.0e+01" rms="0.0e+00">
          <Node Cut="38.8863601685" IVar="0" NCoef="0" cType="1" depth="2" nType="0" pos="l" purity="0.0e+00" res="0.0e+01" rms="0.0e+00">
            <Node Cut="0.827339887619" IVar="2" NCoef="0" cType="1" depth="3" nType="0" pos="l" purity="0.0e+00" res="0.0e+01" rms="0.0e+00">
              <Node Cut="0.0153869371861" IVar="4" NCoef="0" cType="1" depth="4" nType="0" pos="l" purity="0.0e+00" res="0.0e+01" rms="0.0e+00">
                <Node Cut="21.9582443237" IVar="0" NCoef="0" cType="1" depth="5" nType="0" pos="l" purity="0.0e+00" res="0.0e+01" rms="0.0e+00">
                  <Node Cut="0.0e+00" IVar="-1" NCoef="0" cType="1" depth="6" nType="-1" pos="l" purity="0.47476529099" res="0.0e+01" rms="0.0e+00"/>
                  <Node Cut="0.0e+00" IVar="-1" NCoef="0" cType="1" depth="6" nType="1" pos="r" purity="0.54954425136" res="0.0e+01" rms="0.0e+00"/>
                </Node>
                <Node Cut="0.0e+00" IVar="-1" NCoef="0" cType="1" depth="5" nType="1" pos="r" purity="0.52752464853" res="0.0e+01" rms="0.0e+00"/>
              </Node>
              <Node Cut="0.0e+00" IVar="-1" NCoef="0" cType="1" depth="4" nType="1" pos="r" purity="0.551496152805" res="0.0e+01" rms="0.0e+00"/>
            </Node>
            <Node Cut="-0.0137874521315" IVar="4" NCoef="0" cType="1" depth="3" nType="0" pos="r" purity="0.0e+00" res="0.0e+01" rms="0.0e+00">
              <Node Cut="-0.518174409866" IVar="2" NCoef="0" cType="1" depth="4" nType="0" pos="l" purity="0.0e+00" res="0.0e+01" rms="0.0e+00">
                <Node Cut="0.0e+00" IVar="-1" NCoef="0" cType="1" depth="5" nType="1" pos="l" purity="0.757281909916" res="0.0e+01" rms="0.0e+00"/>
                <Node Cut="0.0102482177317" IVar="3" NCoef="0" cType="1" depth="5" nType="0" pos="r" purity="0.0e+00" res="0.0e+01" rms="0.0e+00">
                  <Node Cut="0.0e+00" IVar="-1" NCoef="0" cType="1" depth="6" nType="1" pos="l" purity="0.96813704383" res="0.0e+01" rms="0.0e+00"/>
                  <Node Cut="0.0e+00" IVar="-1" NCoef="0" cType="1" depth="6" nType="1" pos="r" purity="0.870469547399" res="0.0e+01" rms="0.0e+00"/>
                </Node>
              </Node>
              <Node Cut="0.0e+00" IVar="-1" NCoef="0" cType="1" depth="4" nType="1" pos="r" purity="0.524054110914" res="0.0e+01" rms="0.0e+00"/>
            </Node>
          </Node>
          <Node Cut="0.0e+00" IVar="-1" NCoef="0" cType="1" depth="2" nType="-1" pos="r" purity="0.461027883184" res="0.0e+01" rms="0.0e+00"/>
        </Node>
        <Node Cut="-0.00714773032814" IVar="4" NCoef="0" cType="1" depth="1" nType="0" pos="r" purity="0.0e+00" res="0.0e+01" rms="0.0e+00">
          <Node Cut="0.0358907580376" IVar="3" NCoef="0" cType="1" depth="2" nType="0" pos="l" purity="0.0e+00" res="0.0e+01" rms="0.0e+00">
            <Node Cut="0.0e+00" IVar="-1" NCoef="0" cType="1" depth="3" nType="1" pos="l" purity="1.0" res="0.0e+01" rms="0.0e+00"/>
            <Node Cut="0.0e+00" IVar="-1" NCoef="0" cType="1" depth="3" nType="1" pos="r" purity="0.860802072896" res="0.0e+01" rms="0.0e+00"/>
          </Node>
          <Node Cut="0.0e+00" IVar="-1" NCoef="0" cType="1" depth="2" nType="1" pos="r" purity="0.54972980652" res="0.0e+01" rms="0.0e+00"/>
        </Node>
      </Node>
    </BinaryTree>
    <BinaryTree boostWeight="0.0887031342587" itree="24" type="DecisionTree">
      <Node Cut="63.2427864075" IVar="0" NCoef="0" cType="1" depth="0" nType="0" pos="s" purity="0.0e+00" res="0.0e+01" rms="0.0e+00">
        <Node Cut="0.0821128934622" IVar="4" NCoef="0" cType="1" depth="1" nType="0" pos="l" purity="0.0e+00" res="0.0e+01" rms="0.0e+00">
          <Node Cut="0.0365887284279" IVar="5" NCoef="0" cType="1" depth="2" nType="0" pos="l" purity="0.0e+00" res="0.0e+01" rms="0.0e+00">
            <Node Cut="40.0699310303" IVar="0" NCoef="0" cType="1" depth="3" nType="0" pos="l" purity="0.0e+00" res="0.0e+01" rms="0.0e+00">
              <Node Cut="29.0422172546" IVar="0" NCoef="0" cType="1" depth="4" nType="0" pos="l" purity="0.0e+00" res="0.0e+01" rms="0.0e+00">
                <Node Cut="-0.021432524547" IVar="3" NCoef="0" cType="1" depth="5" nType="0" pos="l" purity="0.0e+00" res="0.0e+01" rms="0.0e+00">
                  <Node Cut="0.0e+00" IVar="-1" NCoef="0" cType="1" depth="6" nType="-1" pos="l" purity="0.494427489979" res="0.0e+01" rms="0.0e+00"/>
                  <Node Cut="0.0e+00" IVar="-1" NCoef="0" cType="1" depth="6" nType="1" pos="r" purity="0.528349021652" res="0.0e+01" rms="0.0e+00"/>
                </Node>
                <Node Cut="0.000988781335764" IVar="3" NCoef="0" cType="1" depth="5" nType="0" pos="r" purity="0.0e+00" res="0.0e+01" rms="0.0e+00">
                  <Node Cut="0.0e+00" IVar="-1" NCoef="0" cType="1" depth="6" nType="1" pos="l" purity="0.554709381953" res="0.0e+01" rms="0.0e+00"/>
                  <Node Cut="0.0e+00" IVar="-1" NCoef="0" cType="1" depth="6" nType="1" pos="r" purity="0.682288219698" res="0.0e+01" rms="0.0e+00"/>
                </Node>
              </Node>
              <Node Cut="-0.00813030358404" IVar="4" NCoef="0" cType="1" depth="4" nType="0" pos="r" purity="0.0e+00" res="0.0e+01" rms="0.0e+00">
                <Node Cut="-0.734673023224" IVar="1" NCoef="0" cType="1" depth="5" nType="0" pos="l" purity="0.0e+00" res="0.0e+01" rms="0.0e+00">
                  <Node Cut="0.0e+00" IVar="-1" NCoef="0" cType="1" depth="6" nType="1" pos="l" purity="0.839006869678" res="0.0e+01" rms="0.0e+00"/>
                  <Node Cut="0.0e+00" IVar="-1" NCoef="0" cType="1" depth="6" nType="1" pos="r" purity="1.0" res="0.0e+01" rms="0.0e+00"/>
                </Node>
                <Node Cut="0.0e+00" IVar="-1" NCoef="0" cType="1" depth="5" nType="1" pos="r" purity="0.622516542916" res="0.0e+01" rms="0.0e+00"/>
              </Node>
            </Node>
            <Node Cut="0.0e+00" IVar="-1" NCoef="0" cType="1" depth="3" nType="-1" pos="r" purity="0.485195682994" res="0.0e+01" rms="0.0e+00"/>
          </Node>
          <Node Cut="0.0e+00" IVar="-1" NCoef="0" cType="1" depth="2" nType="-1" pos="r" purity="0.476493293575" res="0.0e+01" rms="0.0e+00"/>
        </Node>
        <Node Cut="-0.00714773032814" IVar="4" NCoef="0" cType="1" depth="1" nType="0" pos="r" purity="0.0e+00" res="0.0e+01" rms="0.0e+00">
          <Node Cut="0.0358907580376" IVar="3" NCoef="0" cType="1" depth="2" nType="0" pos="l" purity="0.0e+00" res="0.0e+01" rms="0.0e+00">
            <Node Cut="0.0e+00" IVar="-1" NCoef="0" cType="1" depth="3" nType="1" pos="l" purity="1.0" res="0.0e+01" rms="0.0e+00"/>
            <Node Cut="0.0e+00" IVar="-1" NCoef="0" cType="1" depth="3" nType="1" pos="r" purity="0.848089748971" res="0.0e+01" rms="0.0e+00"/>
          </Node>
          <Node Cut="0.0e+00" IVar="-1" NCoef="0" cType="1" depth="2" nType="1" pos="r" purity="0.524307796608" res="0.0e+01" rms="0.0e+00"/>
        </Node>
      </Node>
    </BinaryTree>
    <BinaryTree boostWeight="0.0832361072794" itree="25" type="DecisionTree">
      <Node Cut="63.2427864075" IVar="0" NCoef="0" cType="1" depth="0" nType="0" pos="s" purity="0.0e+00" res="0.0e+01" rms="0.0e+00">
        <Node Cut="-1.78076910973" IVar="2" NCoef="0" cType="1" depth="1" nType="0" pos="l" purity="0.0e+00" res="0.0e+01" rms="0.0e+00">
          <Node Cut="0.0e+00" IVar="-1" NCoef="0" cType="1" depth="2" nType="-1" pos="l" purity="0.468338307481" res="0.0e+01" rms="0.0e+00"/>
          <Node Cut="38.8825912476" IVar="0" NCoef="0" cType="1" depth="2" nType="0" pos="r" purity="0.0e+00" res="0.0e+01" rms="0.0e+00">
            <Node Cut="-0.579324245453" IVar="2" NCoef="0" cType="1" depth="3" nType="0" pos="l" purity="0.0e+00" res="0.0e+01" rms="0.0e+00">
              <Node Cut="0.0e+00" IVar="-1" NCoef="0" cType="1" depth="4" nType="1" pos="l" purity="0.545946596184" res="0.0e+01" rms="0.0e+00"/>
              <Node Cut="0.0153501424938" IVar="4" NCoef="0" cType="1" depth="4" nType="0" pos="r" purity="0.0e+00" res="0.0e+01" rms="0.0e+00">
                <Node Cut="32.1179275513" IVar="0" NCoef="0" cType="1" depth="5" nType="0" pos="l" purity="0.0e+00" res="0.0e+01" rms="0.0e+00">
                  <Node Cut="0.0e+00" IVar="-1" NCoef="0" cType="1" depth="6" nType="-1" pos="l" purity="0.492956722322" res="0.0e+01" rms="0.0e+00"/>
                  <Node Cut="0.0e+00" IVar="-1" NCoef="0" cType="1" depth="6" nType="1" pos="r" purity="0.580334005138" res="0.0e+01" rms="0.0e+00"/>
                </Node>
                <Node Cut="0.0e+00" IVar="-1" NCoef="0" cType="1" depth="5" nType="1" pos="r" purity="0.529642594846" res="0.0e+01" rms="0.0e+00"/>
              </Node>
            </Node>
            <Node Cut="-0.0137874521315" IVar="4" NCoef="0" cType="1" depth="3" nType="0" pos="r" purity="0.0e+00" res="0.0e+01" rms="0.0e+00">
              <Node Cut="0.5806235075" IVar="2" NCoef="0" cType="1" depth="4" nType="0" pos="l" purity="0.0e+00" res="0.0e+01" rms="0.0e+00">
                <Node Cut="0.0085953772068" IVar="3" NCoef="0" cType="1" depth="5" nType="0" pos="l" purity="0.0e+00" res="0.0e+01" rms="0.0e+00">
                  <Node Cut="0.0e+00" IVar="-1" NCoef="0" cType="1" depth="6" nType="1" pos="l" purity="0.984971673854" res="0.0e+01" rms="0.0e+00"/>
                  <Node Cut="0.0e+00" IVar="-1" NCoef="0" cType="1" depth="6" nType="1" pos="r" purity="0.866336399727" res="0.0e+01" rms="0.0e+00"/>
                </Node>
                <Node Cut="0.0e+00" IVar="-1" NCoef="0" cType="1" depth="5" nType="1" pos="r" purity="0.821735679282" res="0.0e+01" rms="0.0e+00"/>
              </Node>
              <Node Cut="0.0e+00" IVar="-1" NCoef="0" cType="1" depth="4" nType="1" pos="r" purity="0.503374244007" res="0.0e+01" rms="0.0e+00"/>
            </Node>
          </Node>
        </Node>
        <Node Cut="-0.00714773032814" IVar="4" NCoef="0" cType="1" depth="1" nType="0" pos="r" purity="0.0e+00" res="0.0e+01" rms="0.0e+00">
          <Node Cut="0.0358907580376" IVar="3" NCoef="0" cType="1" depth="2" nType="0" pos="l" purity="0.0e+00" res="0.0e+01" rms="0.0e+00">
            <Node Cut="0.0e+00" IVar="-1" NCoef="0" cType="1" depth="3" nType="1" pos="l" purity="1.0" res="0.0e+01" rms="0.0e+00"/>
            <Node Cut="0.0e+00" IVar="-1" NCoef="0" cType="1" depth="3" nType="1" pos="r" purity="0.836305684552" res="0.0e+01" rms="0.0e+00"/>
          </Node>
          <Node Cut="0.0e+00" IVar="-1" NCoef="0" cType="1" depth="2" nType="1" pos="r" purity="0.50215117727" res="0.0e+01" rms="0.0e+00"/>
        </Node>
      </Node>
    </BinaryTree>
    <BinaryTree boostWeight="0.119589341422" itree="26" type="DecisionTree">
      <Node Cut="69.2269897461" IVar="0" NCoef="0" cType="1" depth="0" nType="0" pos="s" purity="0.0e+00" res="0.0e+01" rms="0.0e+00">
        <Node Cut="0.0833429247141" IVar="4" NCoef="0" cType="1" depth="1" nType="0" pos="l" purity="0.0e+00" res="0.0e+01" rms="0.0e+00">
          <Node Cut="48.499797821" IVar="0" NCoef="0" cType="1" depth="2" nType="0" pos="l" purity="0.0e+00" res="0.0e+01" rms="0.0e+00">
            <Node Cut="24.5354652405" IVar="0" NCoef="0" cType="1" depth="3" nType="0" pos="l" purity="0.0e+00" res="0.0e+01" rms="0.0e+00">
              <Node Cut="0.658883810043" IVar="2" NCoef="0" cType="1" depth="4" nType="0" pos="l" purity="0.0e+00" res="0.0e+01" rms="0.0e+00">
                <Node Cut="-0.565075874329" IVar="2" NCoef="0" cType="1" depth="5" nType="0" pos="l" purity="0.0e+00" res="0.0e+01" rms="0.0e+00">
                  <Node Cut="0.0e+00" IVar="-1" NCoef="0" cType="1" depth="6" nType="1" pos="l" purity="0.558977746256" res="0.0e+01" rms="0.0e+00"/>
                  <Node Cut="0.0e+00" IVar="-1" NCoef="0" cType="1" depth="6" nType="-1" pos="r" purity="0.482021994811" res="0.0e+01" rms="0.0e+00"/>
                </Node>
                <Node Cut="0.0e+00" IVar="-1" NCoef="0" cType="1" depth="5" nType="1" pos="r" purity="0.572133368389" res="0.0e+01" rms="0.0e+00"/>
              </Node>
              <Node Cut="0.0130862714723" IVar="5" NCoef="0" cType="1" depth="4" nType="0" pos="r" purity="0.0e+00" res="0.0e+01" rms="0.0e+00">
                <Node Cut="-0.835809588432" IVar="2" NCoef="0" cType="1" depth="5" nType="0" pos="l" purity="0.0e+00" res="0.0e+01" rms="0.0e+00">
                  <Node Cut="0.0e+00" IVar="-1" NCoef="0" cType="1" depth="6" nType="-1" pos="l" purity="0.444932044037" res="0.0e+01" rms="0.0e+00"/>
                  <Node Cut="0.0e+00" IVar="-1" NCoef="0" cType="1" depth="6" nType="1" pos="r" purity="0.628682985661" res="0.0e+01" rms="0.0e+00"/>
                </Node>
                <Node Cut="0.0e+00" IVar="-1" NCoef="0" cType="1" depth="5" nType="-1" pos="r" purity="0.407203562789" res="0.0e+01" rms="0.0e+00"/>
              </Node>
            </Node>
            <Node Cut="-0.0137873468921" IVar="4" NCoef="0" cType="1" depth="3" nType="0" pos="r" purity="0.0e+00" res="0.0e+01" rms="0.0e+00">
              <Node Cut="56.8697052002" IVar="0" NCoef="0" cType="1" depth="4" nType="0" pos="l" purity="0.0e+00" res="0.0e+01" rms="0.0e+00">
                <Node Cut="0.0e+00" IVar="-1" NCoef="0" cType="1" depth="5" nType="1" pos="l" purity="0.870921667189" res="0.0e+01" rms="0.0e+00"/>
                <Node Cut="0.0e+00" IVar="-1" NCoef="0" cType="1" depth="5" nType="1" pos="r" purity="1.0" res="0.0e+01" rms="0.0e+00"/>
              </Node>
              <Node Cut="0.0e+00" IVar="-1" NCoef="0" cType="1" depth="4" nType="1" pos="r" purity="0.501232690237" res="0.0e+01" rms="0.0e+00"/>
            </Node>
          </Node>
          <Node Cut="0.0e+00" IVar="-1" NCoef="0" cType="1" depth="2" nType="-1" pos="r" purity="0.481786383641" res="0.0e+01" rms="0.0e+00"/>
        </Node>
        <Node Cut="-0.0103150755167" IVar="4" NCoef="0" cType="1" depth="1" nType="0" pos="r" purity="0.0e+00" res="0.0e+01" rms="0.0e+00">
          <Node Cut="113.041122437" IVar="0" NCoef="0" cType="1" depth="2" nType="0" pos="l" purity="0.0e+00" res="0.0e+01" rms="0.0e+00">
            <Node Cut="0.0e+00" IVar="-1" NCoef="0" cType="1" depth="3" nType="1" pos="l" purity="1.0" res="0.0e+01" rms="0.0e+00"/>
            <Node Cut="0.0e+00" IVar="-1" NCoef="0" cType="1" depth="3" nType="1" pos="r" purity="0.852734585644" res="0.0e+01" rms="0.0e+00"/>
          </Node>
          <Node Cut="0.0e+00" IVar="-1" NCoef="0" cType="1" depth="2" nType="1" pos="r" purity="0.533743505711" res="0.0e+01" rms="0.0e+00"/>
        </Node>
      </Node>
    </BinaryTree>
    <BinaryTree boostWeight="0.0926082559219" itree="27" type="DecisionTree">
      <Node Cut="79.9065704346" IVar="0" NCoef="0" cType="1" depth="0" nType="0" pos="s" purity="0.0e+00" res="0.0e+01" rms="0.0e+00">
        <Node Cut="2.05559110641" IVar="2" NCoef="0" cType="1" depth="1" nType="0" pos="l" purity="0.0e+00" res="0.0e+01" rms="0.0e+00">
          <Node Cut="48.499797821" IVar="0" NCoef="0" cType="1" depth="2" nType="0" pos="l" purity="0.0e+00" res="0.0e+01" rms="0.0e+00">
            <Node Cut="-0.713822245598" IVar="2" NCoef="0" cType="1" depth="3" nType="0" pos="l" purity="0.0e+00" res="0.0e+01" rms="0.0e+00">
              <Node Cut="24.9728431702" IVar="0" NCoef="0" cType="1" depth="4" nType="0" pos="l" purity="0.0e+00" res="0.0e+01" rms="0.0e+00">
                <Node Cut="0.0e+00" IVar="-1" NCoef="0" cType="1" depth="5" nType="1" pos="l" purity="0.522349323895" res="0.0e+01" rms="0.0e+00"/>
                <Node Cut="0.0e+00" IVar="-1" NCoef="0" cType="1" depth="5" nType="-1" pos="r" purity="0.446877787617" res="0.0e+01" rms="0.0e+00"/>
              </Node>
              <Node Cut="40.1078643799" IVar="0" NCoef="0" cType="1" depth="4" nType="0" pos="r" purity="0.0e+00" res="0.0e+01" rms="0.0e+00">
                <Node Cut="-0.049381647259" IVar="4" NCoef="0" cType="1" depth="5" nType="0" pos="l" purity="0.0e+00" res="0.0e+01" rms="0.0e+00">
                  <Node Cut="0.0e+00" IVar="-1" NCoef="0" cType="1" depth="6" nType="1" pos="l" purity="0.568846209154" res="0.0e+01" rms="0.0e+00"/>
                  <Node Cut="0.0e+00" IVar="-1" NCoef="0" cType="1" depth="6" nType="1" pos="r" purity="0.524858456359" res="0.0e+01" rms="0.0e+00"/>
                </Node>
                <Node Cut="0.0e+00" IVar="-1" NCoef="0" cType="1" depth="5" nType="1" pos="r" purity="0.678216358061" res="0.0e+01" rms="0.0e+00"/>
              </Node>
            </Node>
            <Node Cut="-0.0137873468921" IVar="4" NCoef="0" cType="1" depth="3" nType="0" pos="r" purity="0.0e+00" res="0.0e+01" rms="0.0e+00">
              <Node Cut="56.8697052002" IVar="0" NCoef="0" cType="1" depth="4" nType="0" pos="l" purity="0.0e+00" res="0.0e+01" rms="0.0e+00">
                <Node Cut="0.0e+00" IVar="-1" NCoef="0" cType="1" depth="5" nType="1" pos="l" purity="0.874034932501" res="0.0e+01" rms="0.0e+00"/>
                <Node Cut="0.0e+00" IVar="-1" NCoef="0" cType="1" depth="5" nType="1" pos="r" purity="1.0" res="0.0e+01" rms="0.0e+00"/>
              </Node>
              <Node Cut="0.0e+00" IVar="-1" NCoef="0" cType="1" depth="4" nType="1" pos="r" purity="0.512599310481" res="0.0e+01" rms="0.0e+00"/>
            </Node>
          </Node>
          <Node Cut="0.0e+00" IVar="-1" NCoef="0" cType="1" depth="2" nType="-1" pos="r" purity="0.458932478414" res="0.0e+01" rms="0.0e+00"/>
        </Node>
        <Node Cut="0.0210509039462" IVar="3" NCoef="0" cType="1" depth="1" nType="0" pos="r" purity="0.0e+00" res="0.0e+01" rms="0.0e+00">
          <Node Cut="-0.0192614849657" IVar="4" NCoef="0" cType="1" depth="2" nType="0" pos="l" purity="0.0e+00" res="0.0e+01" rms="0.0e+00">
            <Node Cut="0.0e+00" IVar="-1" NCoef="0" cType="1" depth="3" nType="1" pos="l" purity="1.0" res="0.0e+01" rms="0.0e+00"/>
            <Node Cut="0.0e+00" IVar="-1" NCoef="0" cType="1" depth="3" nType="1" pos="r" purity="0.857556977362" res="0.0e+01" rms="0.0e+00"/>
          </Node>
          <Node Cut="0.0e+00" IVar="-1" NCoef="0" cType="1" depth="2" nType="1" pos="r" purity="0.588307438773" res="0.0e+01" rms="0.0e+00"/>
        </Node>
      </Node>
    </BinaryTree>
    <BinaryTree boostWeight="0.0886266814722" itree="28" type="DecisionTree">
      <Node Cut="79.9065704346" IVar="0" NCoef="0" cType="1" depth="0" nType="0" pos="s" purity="0.0e+00" res="0.0e+01" rms="0.0e+00">
        <Node Cut="-0.112900733948" IVar="3" NCoef="0" cType="1" depth="1" nType="0" pos="l" purity="0.0e+00" res="0.0e+01" rms="0.0e+00">
          <Node Cut="0.0e+00" IVar="-1" NCoef="0" cType="1" depth="2" nType="-1" pos="l" purity="0.443402969949" res="0.0e+01" rms="0.0e+00"/>
          <Node Cut="0.111896984279" IVar="3" NCoef="0" cType="1" depth="2" nType="0" pos="r" purity="0.0e+00" res="0.0e+01" rms="0.0e+00">
            <Node Cut="-0.0139695601538" IVar="4" NCoef="0" cType="1" depth="3" nType="0" pos="l" purity="0.0e+00" res="0.0e+01" rms="0.0e+00">
              <Node Cut="38.4128952026" IVar="0" NCoef="0" cType="1" depth="4" nType="0" pos="l" purity="0.0e+00" res="0.0e+01" rms="0.0e+00">
                <Node Cut="31.9281806946" IVar="0" NCoef="0" cType="1" depth="5" nType="0" pos="l" purity="0.0e+00" res="0.0e+01" rms="0.0e+00">
                  <Node Cut="0.0e+00" IVar="-1" NCoef="0" cType="1" depth="6" nType="1" pos="l" purity="0.521778611894" res="0.0e+01" rms="0.0e+00"/>
                  <Node Cut="0.0e+00" IVar="-1" NCoef="0" cType="1" depth="6" nType="1" pos="r" purity="0.624551459894" res="0.0e+01" rms="0.0e+00"/>
                </Node>
                <Node Cut="47.728805542" IVar="0" NCoef="0" cType="1" depth="5" nType="0" pos="r" purity="0.0e+00" res="0.0e+01" rms="0.0e+00">
                  <Node Cut="0.0e+00" IVar="-1" NCoef="0" cType="1" depth="6" nType="1" pos="l" purity="0.76427492535" res="0.0e+01" rms="0.0e+00"/>
                  <Node Cut="0.0e+00" IVar="-1" NCoef="0" cType="1" depth="6" nType="1" pos="r" purity="0.959839411231" res="0.0e+01" rms="0.0e+00"/>
                </Node>
              </Node>
              <Node Cut="27.158039093" IVar="0" NCoef="0" cType="1" depth="4" nType="0" pos="r" purity="0.0e+00" res="0.0e+01" rms="0.0e+00">
                <Node Cut="0.0e+00" IVar="-1" NCoef="0" cType="1" depth="5" nType="1" pos="l" purity="0.523691802112" res="0.0e+01" rms="0.0e+00"/>
                <Node Cut="0.517622947693" IVar="2" NCoef="0" cType="1" depth="5" nType="0" pos="r" purity="0.0e+00" res="0.0e+01" rms="0.0e+00">
                  <Node Cut="0.0e+00" IVar="-1" NCoef="0" cType="1" depth="6" nType="1" pos="l" purity="0.502022994065" res="0.0e+01" rms="0.0e+00"/>
                  <Node Cut="0.0e+00" IVar="-1" NCoef="0" cType="1" depth="6" nType="-1" pos="r" purity="0.424033934081" res="0.0e+01" rms="0.0e+00"/>
                </Node>
              </Node>
            </Node>
            <Node Cut="0.0e+00" IVar="-1" NCoef="0" cType="1" depth="3" nType="-1" pos="r" purity="0.454689943529" res="0.0e+01" rms="0.0e+00"/>
          </Node>
        </Node>
        <Node Cut="0.0210509039462" IVar="3" NCoef="0" cType="1" depth="1" nType="0" pos="r" purity="0.0e+00" res="0.0e+01" rms="0.0e+00">
          <Node Cut="-0.0192614849657" IVar="4" NCoef="0" cType="1" depth="2" nType="0" pos="l" purity="0.0e+00" res="0.0e+01" rms="0.0e+00">
            <Node Cut="0.0e+00" IVar="-1" NCoef="0" cType="1" depth="3" nType="1" pos="l" purity="1.0" res="0.0e+01" rms="0.0e+00"/>
            <Node Cut="0.0e+00" IVar="-1" NCoef="0" cType="1" depth="3" nType="1" pos="r" purity="0.845865828882" res="0.0e+01" rms="0.0e+00"/>
          </Node>
          <Node Cut="0.0e+00" IVar="-1" NCoef="0" cType="1" depth="2" nType="1" pos="r" purity="0.565708890627" res="0.0e+01" rms="0.0e+00"/>
        </Node>
      </Node>
    </BinaryTree>
    <BinaryTree boostWeight="0.0797041305196" itree="29" type="DecisionTree">
      <Node Cut="69.2269897461" IVar="0" NCoef="0" cType="1" depth="0" nType="0" pos="s" purity="0.0e+00" res="0.0e+01" rms="0.0e+00">
        <Node Cut="38.8863601685" IVar="0" NCoef="0" cType="1" depth="1" nType="0" pos="l" purity="0.0e+00" res="0.0e+01" rms="0.0e+00">
          <Node Cut="1.46397614479" IVar="2" NCoef="0" cType="1" depth="2" nType="0" pos="l" purity="0.0e+00" res="0.0e+01" rms="0.0e+00">
            <Node Cut="0.0281590186059" IVar="5" NCoef="0" cType="1" depth="3" nType="0" pos="l" purity="0.0e+00" res="0.0e+01" rms="0.0e+00">
              <Node Cut="30.6060504913" IVar="0" NCoef="0" cType="1" depth="4" nType="0" pos="l" purity="0.0e+00" res="0.0e+01" rms="0.0e+00">
                <Node Cut="15.9652109146" IVar="0" NCoef="0" cType="1" depth="5" nType="0" pos="l" purity="0.0e+00" res="0.0e+01" rms="0.0e+00">
                  <Node Cut="0.0e+00" IVar="-1" NCoef="0" cType="1" depth="6" nType="-1" pos="l" purity="0.481476525739" res="0.0e+01" rms="0.0e+00"/>
                  <Node Cut="0.0e+00" IVar="-1" NCoef="0" cType="1" depth="6" nType="-1" pos="r" purity="0.441037608793" res="0.0e+01" rms="0.0e+00"/>
                </Node>
                <Node Cut="-0.0272828470916" IVar="4" NCoef="0" cType="1" depth="5" nType="0" pos="r" purity="0.0e+00" res="0.0e+01" rms="0.0e+00">
                  <Node Cut="0.0e+00" IVar="-1" NCoef="0" cType="1" depth="6" nType="1" pos="l" purity="0.73442931049" res="0.0e+01" rms="0.0e+00"/>
                  <Node Cut="0.0e+00" IVar="-1" NCoef="0" cType="1" depth="6" nType="1" pos="r" purity="0.541143986355" res="0.0e+01" rms="0.0e+00"/>
                </Node>
              </Node>
              <Node Cut="0.0e+00" IVar="-1" NCoef="0" cType="1" depth="4" nType="1" pos="r" purity="0.501603243313" res="0.0e+01" rms="0.0e+00"/>
            </Node>
            <Node Cut="0.0e+00" IVar="-1" NCoef="0" cType="1" depth="3" nType="1" pos="r" purity="0.52913027304" res="0.0e+01" rms="0.0e+00"/>
          </Node>
          <Node Cut="-0.0137873468921" IVar="4" NCoef="0" cType="1" depth="2" nType="0" pos="r" purity="0.0e+00" res="0.0e+01" rms="0.0e+00">
            <Node Cut="56.8697052002" IVar="0" NCoef="0" cType="1" depth="3" nType="0" pos="l" purity="0.0e+00" res="0.0e+01" rms="0.0e+00">
              <Node Cut="-0.0294295474887" IVar="4" NCoef="0" cType="1" depth="4" nType="0" pos="l" purity="0.0e+00" res="0.0e+01" rms="0.0e+00">
                <Node Cut="0.0e+00" IVar="-1" NCoef="0" cType="1" depth="5" nType="1" pos="l" purity="0.851120520535" res="0.0e+01" rms="0.0e+00"/>
                <Node Cut="0.0e+00" IVar="-1" NCoef="0" cType="1" depth="5" nType="1" pos="r" purity="0.714811963591" res="0.0e+01" rms="0.0e+00"/>
              </Node>
              <Node Cut="0.0e+00" IVar="-1" NCoef="0" cType="1" depth="4" nType="1" pos="r" purity="1.0" res="0.0e+01" rms="0.0e+00"/>
            </Node>
